6230 50
的 -0.33085227 -0.23583384 -0.030421736 -0.03676822 0.12547219 -0.3116404 0.12068724 0.045078434 0.24578404 0.15958506 0.14027195 0.16554676 -0.1958219 0.023820376 0.15384415 0.03248278 -0.05726635 -0.59243816 0.5467011 -0.34610534 0.17774524 -0.2934959 -0.282351 -0.21058787 -0.49679935 -0.4732032 0.72989225 0.23072101 -0.15581962 -0.053271543 0.08554142 -0.050754946 0.08986428 -0.06018314 -0.1637946 -0.1268052 0.27180085 -0.363589 0.44553834 0.06010115 0.23974076 -0.0128971515 -0.37404037 0.14886051 -0.011138397 0.2616595 -0.29806077 -0.085005686 0.1665449 0.0785427
在 -0.098487094 -0.22008297 -0.22609073 0.15037799 -0.026940228 -0.044370238 0.31675652 0.07036992 0.6612911 0.0037856244 -0.17939587 -0.05837671 -0.8753001 0.08265513 0.31236833 -0.40682322 -0.37085435 -0.2946851 0.036606852 0.22937106 -0.2890816 -1.7213548e-05 0.33066064 -0.12464681 -0.43984455 -0.26705813 0.5386336 0.25810602 -0.38790685 -0.2522103 0.36782828 -0.13193044 0.06318865 0.1062053 -0.20576935 -0.43627965 0.30803153 -0.1443272 0.7134544 -0.054214768 0.33872554 -0.17598882 -0.6450918 0.22752018 0.08991897 0.3427274 -0.060680393 0.036627334 0.36161762 -0.26939404
了 -0.6082299 0.20795393 -0.0003414859 -0.06475355 -0.04699431 -0.56422275 0.0025688345 -0.34204525 0.6869924 0.0016316863 0.17921534 0.38704863 -0.21083097 -0.31426314 -0.23672172 -0.31984675 -0.085340686 -0.35444 0.17087877 0.09803067 -0.012271731 0.054480895 -0.032250933 -0.30149028 -0.6272337 0.050200984 0.3212877 0.19973609 0.031169556 -0.31354713 0.0654374 0.13641618 0.00035237957 0.2364615 0.18012157 -0.20643884 0.37725198 -0.4486431 0.3606738 0.0066136047 0.09006229 0.013975604 0.2017545 0.049560945 0.3218775 -0.1006772 -0.5090768 -0.30331463 0.044630215 0.052233253
比赛 -0.5322892 0.53827953 0.4348541 -0.29410228 0.1868055 0.04611873 -0.0944624 0.6354741 0.024713704 -0.3969421 0.3367034 0.1159488 -0.49793112 -0.17163038 -0.61612386 -0.38438165 -0.3914625 -0.454298 0.53122354 0.07031517 -0.22267064 0.31861168 -0.25546125 -0.8902938 -1.0088357 0.53225416 0.58573735 0.5635588 -0.22553638 -0.45708665 0.022705724 -0.054658916 0.5420844 -0.22322473 0.15163365 -0.13350475 0.2173667 -0.13294658 0.455735 -0.013646387 0.30462772 -0.47671056 -0.11058807 -0.13348551 0.16034746 -0.5639109 0.5571692 -0.3747406 0.085205056 0.073897526
是 -0.18109636 -0.13688663 -0.2695241 0.32648382 0.22517428 -0.5738065 -0.08655484 0.016524209 0.096239716 0.28528535 -0.18471672 0.19514507 -0.55391717 -0.54144114 -0.17289768 0.13691059 0.32211965 -0.4879116 0.53778166 0.32174158 0.140549 -0.096973054 0.014192497 -0.4232287 -0.29574248 0.01900079 0.27401495 0.6160374 0.008029986 0.2418626 0.110144295 -0.5027621 0.27344212 0.16933788 -0.22816269 -0.18830465 0.19202392 0.13994884 0.47401088 0.6964217 0.13680483 -0.21255961 0.32305875 0.054111965 0.089698635 0.24518003 -0.4527447 -0.43419743 0.2431261 -0.29343766
和 -0.01763928 -0.11892569 -0.29723155 0.58921903 -0.059821185 -0.16682976 -0.54955626 -0.4181811 0.12788196 0.32488647 -0.7231988 0.16858807 -0.33905715 -0.056262344 -0.23284419 0.30544975 0.34122974 -0.25682268 0.6474756 0.027794244 -0.03743722 0.24002063 -0.25737348 -0.70167696 0.25882083 -0.78614944 0.31541955 0.41327828 -0.065841734 -0.09694968 -0.2641642 0.030642582 0.25853652 -0.18880989 -0.36028063 -0.033344824 -0.047045484 -0.032355826 0.14955427 0.3374 0.21067815 0.14353147 -0.09286118 0.020550089 0.2947385 0.6086207 0.03611182 -0.49566862 0.03549659 -0.15694244
也 -0.044785082 -0.06602077 0.045350917 0.30785942 0.15161313 -0.506208 -0.3088993 0.1347924 0.3479599 0.113733664 -0.108418465 0.2672919 -0.072344795 0.108490415 0.2566915 0.10599992 -0.0021803365 -0.67953163 0.48292944 0.041587323 -0.13756205 -0.13020933 -0.3516484 -0.57963383 -0.34509093 -0.22110496 0.27166155 0.060833704 -0.21874206 -0.036453515 -0.14095572 -0.3885871 0.27980623 0.065033026 0.21856521 -0.10196377 0.47418243 0.093970455 0.15930752 0.04822938 0.40605408 -0.124067865 0.04758684 -0.2941564 0.028381497 0.33957642 -0.2983625 -0.10071116 0.09437822 0.38175154
他 -0.19331817 -0.30888882 0.2679404 0.018038314 0.19343878 -0.57757115 0.0401428 -0.17163695 0.5944197 -0.34226936 -0.09483596 -0.27215302 -0.17718484 -0.20053811 0.12879343 -0.33076948 0.1884699 -0.670395 0.25382593 -0.08969942 0.15298359 0.19729762 -0.024825444 -0.6486044 -0.4225011 0.1884991 0.24264616 0.046062823 -0.11319657 -0.24379279 -0.122742034 0.20225146 0.35751373 -0.1677856 0.42878485 0.26134363 0.22731335 0.07666508 0.33459508 -0.063761316 -0.018146243 -0.1988857 -0.14976382 -0.47070795 0.2869972 0.2139244 -0.7193926 -0.29823145 -0.46362004 0.3903557
说 -0.14018032 0.3638909 0.2649477 0.39207858 0.68692595 -0.5710509 -0.5816067 -0.16422899 0.5916701 -0.12303871 -0.08317803 -0.19091056 -0.25291833 0.81604373 -0.3252238 0.8259647 -0.18176995 -0.3292105 0.04370086 -0.29858926 -0.39581057 0.42976886 -0.13280247 -1.1359365 -0.5039614 -0.5998731 -0.26016104 0.34163797 -0.5589341 0.68169934 0.4905242 -0.024399182 0.36029273 0.7388784 0.37593898 -0.034561805 0.058221787 0.9044703 0.18151875 -0.53441375 0.36806554 -0.15799852 -0.67729217 -0.18184523 0.120548084 0.7560092 0.6150149 -0.72146064 0.18246832 0.15528709
中 -0.5042535 -0.35504243 -0.20939139 -0.039307725 0.23470204 -0.34869477 -0.2750108 0.104727104 0.16140051 -0.20994118 0.19231719 -0.08688687 -0.4661618 0.2509846 0.124957666 0.32373455 -0.5935486 -0.25664207 0.598317 -0.21411441 -0.30286837 0.26206347 -0.3466729 -0.6302771 0.021494102 -0.3251139 0.49234298 0.8304023 -0.41865933 -0.2529673 -0.05994474 0.0997807 0.14978418 0.21737066 -0.31145412 -0.07690779 0.1818455 -0.57831234 -0.034751642 0.6051822 0.20341535 0.04321289 -0.06488013 -0.38205588 -0.109927766 -0.2569336 -0.016438749 -0.3268509 0.35450256 0.063441396
将 -0.08606888 0.059137885 -0.21250938 0.012605685 -0.03323099 -0.34789583 0.56548125 0.25015736 0.42752326 -0.009107098 0.033940133 0.35245904 0.071768 0.09556148 -0.114560194 0.1782496 -0.7962812 -0.44156063 0.21401937 -0.1408217 -0.40020838 0.00032067896 -0.13842317 0.1736173 -0.13550818 -0.46541497 0.17743051 0.7242596 0.2296237 -0.60005635 0.019354992 -0.25644967 0.56453526 0.6401333 0.16427374 -0.32637346 -0.10734472 -0.72736543 -0.12388967 -0.42503646 0.7084877 0.8040835 -0.4775181 -0.005956176 0.6291753 -0.03376412 -0.08762769 -0.64572054 0.68041474 0.13148399
我 0.22540794 -0.3191272 -0.24455957 0.21952449 0.22212535 -1.0872034 -0.07460188 -0.10038825 0.5558941 -0.2721689 0.11764284 0.18346833 -0.011672175 -0.04874531 -0.16883709 -0.6368935 0.42322022 -0.74462086 0.010213116 -0.3121846 -0.07919628 0.0634601 -0.0647004 -1.1536553 -0.36291525 0.44677004 0.11707497 0.013463754 -0.14352246 0.036469553 0.4582506 -0.009873694 -0.058773372 -0.089875974 0.6580052 0.80019885 0.090070836 0.233301 0.2120721 -0.13879625 0.2237213 -0.7174508 -0.009528604 -0.29164135 0.5480103 0.13628869 -0.79697514 -0.5208683 -0.100210674 0.36131126
都 0.26353967 -0.6944756 -0.021558363 0.31113714 0.16949427 -0.59338737 -0.1337091 0.10476868 0.19999331 0.55065453 -0.11761506 0.08635436 0.016321309 0.21214509 0.07589171 -0.053308714 -0.27619532 -0.48416606 0.19143566 -0.20584786 -0.13468942 -0.063137524 -0.41166762 -1.0436437 -0.33436906 -0.257193 0.3645297 0.5819044 -0.11909766 -0.14194919 -0.0026027004 -0.4152659 0.35977408 -0.11643124 0.10809667 -0.028428657 -0.087314256 0.10298392 0.0022539014 0.0866921 0.47140795 -0.3872156 0.055180963 -0.1424073 0.15618475 0.39296475 -0.3649279 0.031665247 0.002385362 0.35663432
火箭 0.84594655 0.0810686 -0.7382729 -0.03839196 0.17929192 -0.7246796 -0.60327125 0.01857792 0.26231515 -0.45631257 0.43666884 -0.6775198 -0.40547228 -0.24968214 0.25185144 -0.26418412 -0.57344776 -0.8370431 -0.31877086 -0.53161293 0.5333833 -0.34734246 0.48082316 -0.7391219 -0.13497634 0.77159524 0.41774645 0.13960603 -0.27914873 -0.11444685 0.17336363 -0.4472746 1.4840384 -0.227041 0.12211228 -0.75283986 0.29542896 -0.72869927 0.40036824 -0.7188246 -0.28886604 -0.069677204 -0.078981735 0.27862778 0.35294434 -0.10250718 -0.66415274 -0.7698898 0.070361696 0.16118735
吧 -0.38679475 0.1403101 0.033685856 -0.24439369 0.98138016 -0.43026203 -0.13857658 -0.32831877 0.5998143 0.09061634 -0.23490271 -0.43260893 -0.5784135 0.67848295 -0.43873453 0.92436427 0.15188698 -0.28766873 -0.3116346 -0.46725112 -0.5261759 0.31904405 -0.5353682 -0.9202434 -0.37645727 -0.6016528 -0.6635868 1.1240778 -0.32248774 0.42031646 0.42641857 0.4470854 0.69727707 0.6231861 0.15429752 -0.5324719 0.43523037 0.8262887 0.461581 -0.7414837 0.36907214 -0.0739593 -0.3105737 -0.01692859 0.15524887 0.47481176 0.49024457 -1.0895394 -0.14214286 0.023774497
搜狐 -0.22149718 0.5355439 -0.41079497 0.49733716 0.7300802 -0.10165485 -0.09698783 1.1056758 0.073746674 -0.61082053 -0.40102628 0.47996935 0.028145296 -0.33133602 -0.33753556 -0.15730484 -0.61039716 -0.4271892 -0.21875165 -0.49005294 -0.22864828 -0.2573228 0.5064781 -0.7850231 0.79916364 -0.9465569 -0.117340215 0.0077496627 -0.48743072 0.17894608 0.324504 -1.3757007 0.111926295 -0.48655528 -0.29894778 -0.25838575 -0.0165561 0.25967145 0.9926924 -0.45096204 0.009861614 -0.40140158 0.20861438 -0.2782258 0.43509883 -0.83198977 -0.75515175 -1.4950885 0.29136446 0.2959828
上 -0.7655735 -0.35464227 -0.15123792 -0.68018275 0.27106008 -0.42032617 -0.16690625 -0.454574 0.2552945 -0.1046713 -0.045686934 0.27977395 0.08139752 0.189342 0.035141416 0.24201815 -0.08288029 0.015404311 0.45687655 0.46035933 -0.05746055 0.12852772 -0.302224 -0.53679055 -0.15156169 -0.58071095 0.4212656 0.4372914 -0.187083 0.107401736 -0.04948279 -0.20646489 0.21205074 -0.11806581 0.05874468 -0.14014277 0.6387894 -0.17687 0.5978517 0.32759097 0.037721884 0.22504726 -0.17536283 -0.094488725 0.10178664 0.33292773 -0.33858958 -0.17301634 0.15748097 -0.3425579
但 -0.010213301 -0.20011817 0.018588798 -0.06998616 -0.162031 -0.5316011 -0.19263785 0.26694465 0.23107688 0.34175184 -0.24387318 -0.24276462 0.16547874 -0.004581157 -0.20158 -0.26699698 -0.16392544 -0.369225 0.54007536 -0.16488704 -0.35068634 0.27307713 -0.2469461 -0.5537178 -0.47581083 -0.20467131 0.5299918 0.095292576 -0.2585092 -0.05610918 -0.08564114 -0.055547882 0.06773268 0.11309649 0.46446237 -0.008208339 0.12465143 -0.28538486 0.36530158 0.077615224 0.37694544 -0.022592576 -0.11421283 -0.06048854 0.029588088 0.22589484 -0.38173994 -0.035320297 0.23650268 -0.1953623
分 0.26943985 0.7328793 -0.65484065 0.6760601 0.20819996 -0.031666074 -0.45054767 0.7384394 0.9686386 -0.14325082 -0.3569216 0.0009477001 -0.6519734 0.6137907 -0.79205894 -0.47589573 -0.5589213 -0.36193195 0.18061587 -0.20407788 -0.47840023 0.18111418 0.18936162 -0.008555123 0.04426275 -0.14973304 0.16980611 0.39813423 -0.5227827 -0.4736203 -0.66387665 -0.09958938 -0.28584582 0.17995659 0.4264564 -0.45894134 0.19852675 -0.40851665 0.62136805 -0.09127032 -0.75012827 -0.5700597 0.03821696 -0.38688335 -0.1477449 -0.17698202 -0.1948967 -1.7929748 0.40645045 0.31532454
我们 0.29382104 -0.5288202 -0.45159873 0.1591298 0.031949483 -1.1094183 0.01893561 -0.23987173 0.4017207 -0.070110366 0.2159228 0.039457403 0.3085667 -0.07836694 0.10850716 -0.26502177 -0.27583238 -0.77344704 0.14144626 -0.15503411 -0.19328964 -0.11379635 -0.12219928 -0.7390522 -0.78775805 0.3338831 0.37486795 0.27431893 -0.27871343 -0.05879047 0.18749668 -0.29732287 0.14612693 -0.08022967 0.44214347 0.29227108 0.04151271 -0.06817116 0.43781596 -0.034683138 -0.019547312 -0.6954599 0.078372456 0.05811945 0.43359622 -0.11233469 -0.6063706 -0.46429092 -0.03893375 0.46802217
有 0.22703263 -0.6693931 -0.12138213 0.18790475 0.021624766 -0.59703517 -0.034816917 -0.52084804 0.37232527 0.5303961 -0.36103195 0.5156456 -0.21332592 -0.08541907 0.27104828 -0.24235985 0.10611711 -0.58210325 0.44039598 0.008878321 0.061165158 0.032992363 0.008299545 -0.50131106 -0.33532426 -0.15597914 0.41230115 0.5332505 -0.29372966 0.05479122 0.0483924 -0.2980898 0.14400892 0.2127387 0.18894438 -0.2511073 -0.32855654 -0.28084466 0.5166908 0.24472427 0.02456818 -0.52370316 0.25088263 -0.038931437 -0.093157165 0.24482282 -0.5118707 -0.47693756 0.23315664 -0.04580162
姚明 0.66573536 0.21970417 -0.49084997 0.2678613 0.05987515 -0.6853066 -0.39187613 -0.14673568 0.52673364 -0.9674854 0.681711 -0.33390576 -0.041143473 0.086327806 -0.049371567 -0.76994264 -0.58884215 -0.60287833 -0.35593125 -0.46636337 0.48818764 0.030982535 0.13365088 -0.73428893 -0.14529078 0.22537956 0.34591714 0.002659234 -0.37196007 0.18354066 -0.029238285 0.19064303 0.9587928 -0.471002 0.45483562 -0.45394328 0.2672274 -0.3945023 1.0000508 -0.24690336 -0.9765444 0.25614783 -0.4687965 0.35900736 0.39187077 0.25305614 -0.5554173 -1.248212 -0.16977234 0.7873066
这 -0.094339125 0.10314145 0.02267435 -0.20837273 0.47872302 -0.78559375 -0.14571278 -0.11921067 -0.08180609 0.3130636 -0.33928716 0.23876879 0.14261524 0.007942212 -0.14133045 -0.19281147 0.120507546 -0.7496191 0.5850672 0.3156644 -0.10561936 0.059000995 -0.0024715832 -0.5078181 -0.39074007 0.3392371 0.4040164 0.40383285 0.03439493 0.025389137 0.10660294 -0.43888947 0.27828184 0.21351077 0.17769288 -0.017490292 0.354703 -0.24272437 0.5008011 -0.060147714 0.5365155 0.20742339 -0.15805005 -0.36729074 0.076602146 0.1426948 -0.6331946 -0.29527307 -0.1534367 0.50793684
第 -0.57150096 0.32854304 0.4412702 0.3435616 0.83386093 -0.37838736 -0.44551662 0.3095565 0.3012968 0.08570674 0.5635055 -0.113389246 -0.28217086 -0.014396558 -0.25031263 -0.44429412 -0.48251584 -0.584886 0.45789734 -0.269611 -0.7301531 0.63471395 -0.6349391 0.2575958 0.21469308 -0.010892868 0.09729591 0.97273964 -0.09364056 0.030035563 0.2209191 -0.41264835 -0.84171283 0.5351247 -0.17125951 -0.603677 0.40347284 -0.4913053 0.32718083 -0.44635463 -0.6628693 -0.17852436 -0.4457624 -0.66083294 0.10555773 -0.90771204 -0.5621379 0.06994294 0.17644571 -0.52984107
与 0.055486266 0.18989488 -0.8622674 0.12484652 0.06827954 0.16247715 -0.1441296 0.06938607 0.083916575 0.43253836 -0.57752764 -0.047713462 -0.57310444 0.07951698 0.1995328 0.2440673 -0.17416923 -0.40145338 0.61883914 -0.04618777 -0.17890497 0.29096416 -0.009118775 -0.4354167 -0.1354527 -0.4842348 0.09606052 0.30560753 -0.61468977 -0.08213948 0.3881915 -0.28672323 0.37333438 0.2297095 -0.3984934 -0.28704396 -0.08360928 -0.2403166 0.1136967 0.0581689 0.32189083 -0.043271706 -0.23068169 0.06924214 0.36046925 0.7953952 0.053822253 -0.18365708 0.41792274 -0.60259974
没有 -0.32281616 -0.33345062 0.08327054 -0.17601492 -0.4177957 -0.3389546 -0.05340949 -0.3075092 0.42119643 0.29608214 -0.35657892 -0.42405272 -0.21573414 -0.44255227 -0.058788437 -0.62230295 -0.035572596 -0.5571415 -0.12970664 0.016422506 -0.15760723 0.5023842 0.04208783 -0.61909467 -0.74903125 -0.017846636 0.65872717 -0.13190667 -0.12594344 -0.28502744 0.05929501 0.026970638 0.05306862 0.35801312 0.38635978 0.14220884 -0.046166122 -0.40863734 0.61243564 0.46744356 0.012811817 -0.20352626 0.0025901713 -0.04829196 0.42646053 0.13841403 -0.64294225 -0.45075265 0.3003885 -0.5278898
4 -0.36598897 0.1639843 -0.40651628 0.3485024 0.595544 -0.1471283 -0.7637656 -0.38976595 0.10276589 -0.47546995 -0.025521006 0.2386268 -0.9465613 -0.23444268 -0.524812 -0.29669112 -0.6920869 -0.6370145 -0.15185992 -0.44383246 -0.8734307 0.20884047 -0.049940564 -0.43431884 0.16183163 -0.5552281 -0.0067991633 0.30920982 0.26461422 -0.4506964 0.55529773 -0.8601802 0.41681445 0.48279163 -0.045164436 0.026837435 0.23960419 -0.08618013 0.30185118 -1.1074423 -0.033687003 -0.7580434 -0.282507 -0.43353117 -0.66733116 -0.23320103 -0.5273654 -0.1578432 0.42912683 -0.70365703
球队 0.38663772 0.14299445 -0.76191026 0.23836888 -0.3156755 -0.53864574 -0.18137825 -0.19722733 -0.11500657 -0.013019411 -0.044737242 -0.14907649 0.16004708 -0.1956272 -0.05866758 0.00807483 -0.030105425 -0.7925647 0.72875077 -0.27398095 -0.46659756 -0.41227028 -0.3319926 -0.17262563 -0.5755801 -0.20620711 0.51060265 0.34348658 -0.06115199 -0.2775671 -0.29686067 -0.28154224 0.344775 -0.15304561 0.39099264 -0.24841018 -0.2633583 -0.2972125 0.24959426 0.6752064 0.009898922 -0.3925515 -0.35812977 -0.08748312 0.716043 0.32694802 -0.37389714 -0.23628491 0.2005909 -0.027037768
分钟 -0.121290065 0.2244867 0.39866602 0.4033803 0.37771934 0.5383094 -0.23752484 0.40532303 0.8496548 -0.13506272 0.6823456 0.288476 0.05084011 -0.45599097 -0.37174967 -0.7178346 0.12902276 -0.6808561 0.22373979 -0.12936783 -0.69787705 1.0422376 -1.0453756 -0.0418254 0.6578561 0.13231978 0.3315849 0.81916195 -0.92822367 -0.23666367 0.0048789703 0.12344958 -1.0883238 0.98383504 -0.06910227 -1.0567176 0.18469442 -0.6631418 0.5003682 -0.6380347 -0.6504916 0.19894922 -0.387874 -0.346918 0.2772762 -0.15080006 -0.12130282 -0.49131656 -0.10721192 -0.016020913
新闻 -0.22027121 0.40557563 -0.32299173 0.010816911 1.0247182 -0.42647848 -0.15355092 -0.2540928 0.19435981 0.46980467 -0.37250364 -0.7748899 -0.8170336 0.8729142 -0.39027008 1.0365399 -0.008428282 -0.66141886 -0.22830744 -0.6793734 -1.0506417 0.7420934 -0.82746035 -0.7830983 -0.13080642 -0.96023536 -0.7121033 0.73697877 -0.42202544 0.46809837 0.3299938 0.4178557 0.5758552 0.5574608 0.20470786 -0.3499507 0.14612585 0.96814805 0.7930182 -0.63761353 0.49232423 -0.04699063 -0.84599996 0.2864319 0.20961641 0.8185474 0.5072076 -0.87160516 -0.15790176 -0.2334953
就 0.22586003 -0.09271518 -0.15444236 0.3494144 -0.050844677 -0.5611397 -0.23455101 -0.088871315 0.40521115 -0.21406884 0.16466454 0.53055966 0.3010398 0.12629327 0.08892358 -0.32774144 -0.18460909 -0.47933054 0.33618793 -0.068881944 -0.20388831 0.030089438 0.092722505 -0.9339871 -0.67173594 0.40343642 0.05846433 0.50519097 -0.03392756 -0.3995429 0.24351062 -0.27873382 0.07033202 0.18698521 0.31411698 -0.1430933 0.13411953 -0.050823357 0.33190453 -0.42494005 -0.270277 0.01626201 -0.2173135 0.04862114 0.19822752 0.060491025 -0.26656762 0.36523852 -0.10732979 -0.3124426
被 0.07925187 -0.18507679 -0.1820751 0.515207 -0.19215395 -0.17149392 0.08764096 -0.036073867 0.45575097 0.2657668 -0.44226927 0.13674642 0.084817186 -0.5964848 -0.2071444 0.03724839 -0.4730002 -0.17148311 0.20697731 0.019876665 0.024773972 0.6590984 -0.5518786 -0.5713545 -0.09405156 -0.29860598 0.09277166 0.61574125 -0.037148114 -0.48657048 -0.13291533 0.027225187 0.11039768 0.16442393 -0.2919 -0.38543764 -0.56387365 -0.15052712 0.3617735 0.0016885609 0.47853795 0.36510372 -0.15957646 0.21002913 0.026079323 -0.021264695 -0.24016298 -0.25895044 0.1280672 -0.59135276
对 -0.13911088 0.2779644 -0.08774024 0.42033306 0.3216591 -0.48804864 -0.079078145 -0.08352892 0.20368148 0.48611903 0.1890999 0.11722189 -0.88673425 -0.3632223 0.042233434 0.18013647 0.030290712 -0.6036383 0.44349524 -0.29061165 -0.07148193 -0.18841492 0.15876444 -0.87954247 -0.5198495 -0.16006412 0.026947904 0.07036256 -0.31897447 -0.3466089 0.067634426 -0.24050945 -0.09596367 0.40018559 -0.0851494 0.02130315 0.4448064 0.09825032 0.26893225 0.54315346 0.282481 -0.2298777 -0.08569434 0.17542382 0.38478616 0.28116176 0.020944031 -0.35738426 0.15026614 0.22985134
月 -0.21752281 0.038243122 -0.56045014 -0.0055198916 0.7655753 -0.4174874 -0.49369824 0.15785159 -0.11544355 -0.3884851 0.12198587 0.48991746 -0.7494389 -0.3828611 -0.10292037 -0.3191423 0.034188684 -0.9818368 -0.16824344 -0.05159709 -0.51978415 0.33731654 -0.053287514 -0.32263547 0.76084113 -0.6359694 -0.08460381 0.6288911 -0.7960897 -1.5600523 0.96571964 -0.61192685 -0.17726463 0.321975 0.7705928 -0.4135551 0.21029347 -0.5170029 0.1690267 -0.56470406 -0.5156542 -0.98135006 -0.95036936 -0.938418 -0.697683 0.29787734 -0.04207829 -1.2650054 0.47578603 -0.8155677
而 -0.20302065 -0.3284504 -0.2467989 -0.023170585 0.12756085 -0.32995155 -0.029846787 0.0133137405 0.11164742 0.23911117 -0.036858547 0.29791126 -0.07633998 0.029400937 -0.14998738 -0.061578173 -0.107930526 -0.40171847 0.5788065 -0.029149724 -0.2619161 0.14132668 -0.22451635 -0.39528194 0.13615656 -0.14742982 0.2780723 0.37701502 -0.19451092 -0.11574633 0.010910931 0.0044439337 0.3703422 0.16487949 -0.08425006 -0.09404169 0.3267154 -0.30715758 0.20366283 0.29789385 0.13584316 0.1598755 -0.04930307 0.09507017 0.2058064 0.17892572 -0.47929674 -0.11848284 0.16859774 -0.15608488
爵士 1.0205055 0.20582359 -0.6075826 -0.044543613 0.14847636 -0.8039891 -0.4628351 0.12358986 -0.027931238 -0.7488963 0.64242566 -0.5417566 -0.12655777 -0.36455062 -0.09416119 -0.4060327 -0.79955107 -0.46577433 -0.39718956 -0.41043988 0.096877575 -0.2727869 0.51796675 -0.871718 -0.14755969 0.5666406 0.35485846 -0.022200245 -0.6498283 0.020612715 -0.1822914 -0.012210805 1.4212148 -0.3631528 -0.20338547 -0.51644963 0.41221914 -1.0109248 0.6430533 -0.18573935 -0.5245362 -0.24234352 -0.14540616 0.2830022 0.12089518 0.042475257 -0.6955687 -0.740416 -0.16885197 0.23123115
后 -0.21272704 -0.13529414 -0.036406517 0.16683418 0.33560908 0.13861114 0.47409344 -0.29693252 0.43987307 -0.33021814 0.12806621 0.3849647 0.10542806 0.2553629 -0.23251764 -0.12210884 -0.47586128 -0.6307832 0.2714804 0.01596492 -0.20953739 0.34957027 -0.30117375 -0.49662003 -0.24788673 -0.16837671 0.014001521 0.48229632 -0.116480246 -0.5783509 -0.23008741 -0.09359844 -0.3109549 0.2922659 0.033002727 -0.37049037 0.5619596 -0.30807158 0.3821693 -0.3569797 -0.24606203 0.73404783 -0.2101305 0.30948153 0.23320384 -0.0058256155 0.03923072 0.14963835 0.22566596 -0.4792522
到 -0.2770562 0.25912398 -0.21905503 0.45458353 -0.09214719 -0.21791457 0.6890713 0.08958535 0.48882088 0.017091582 -0.28737494 0.27157295 0.013739698 -0.18609844 0.29653385 -0.715206 -0.5779903 -0.2989677 -0.46786255 0.13702764 -0.0638371 0.12259791 0.26911896 -0.1528442 -0.6889762 -0.24373224 0.29583433 0.6806524 0.023801211 -0.3231327 -0.59540457 -0.24554208 -0.30737647 -0.40057975 0.30155706 -0.44072524 0.5769638 0.23826517 0.54091936 -0.5774918 0.6224426 -0.1732889 -0.71437603 -0.18253434 0.50051934 0.4652006 -0.54119086 -0.18447852 -0.45816886 0.106911935
自己 -0.28907874 -0.16413043 -0.029411448 -0.031180916 -0.12199185 -0.6590711 0.04073046 -0.43012396 0.23972584 -0.48710495 0.09731385 -0.16719419 -0.06039619 -0.33925164 -0.036923833 -0.3202478 0.03248712 -0.7274666 0.6186053 -0.3354812 0.09687759 0.0941618 0.06281212 -0.85266805 -0.45109546 0.10009482 0.25879782 0.2789037 -0.17219631 -0.14494158 -0.059156146 0.43160444 0.41034088 0.24660134 0.5699149 0.44189975 0.11489592 -0.1954943 -0.020467248 -0.3266113 -0.25424743 -0.17712751 -0.23621216 -0.06535715 0.71552044 0.35802478 -0.49352533 -0.17949076 -0.13851586 0.09241611
很 0.16890948 -0.79277265 -0.12323454 0.16609733 0.40127385 -0.82085896 0.040676005 -0.058872562 0.3793694 0.15331383 -0.31987095 0.16598706 -0.028247496 -0.057517856 -0.32314622 -0.4774151 -0.0168612 -0.9874845 0.38705906 -0.23533584 0.043813277 0.16087857 -0.19374134 -1.1153189 -0.6182419 -0.070797786 0.48836565 0.17400612 -0.64017004 0.15898556 0.20273694 -0.049599756 -0.17370522 0.058160592 0.2644762 0.23039609 -0.4349628 0.17006819 0.24182016 0.055224136 0.13154359 -0.603294 0.30474105 0.2535614 0.090777 -0.3356998 -0.19980957 -0.21818724 0.24030635 0.34940845
他们 0.40083054 -0.4781785 -0.30729797 0.034533557 0.04836634 -0.9420381 -0.45871484 -0.21438117 0.27945882 0.035753563 0.11233398 -0.19325054 0.14040227 -0.30037236 0.10365994 -0.20579466 -0.31603158 -0.64206165 0.19895236 0.021415722 -0.02975618 -0.1737011 0.13854043 -0.528874 -0.64658785 0.35358703 0.5744029 0.1663738 -0.2264738 -0.24919027 0.08766597 0.13852924 0.3778204 -0.13398391 0.31490976 0.08948251 0.20510314 -0.26533887 0.15977211 -0.014151871 -0.19145006 -0.6216884 0.062047858 0.05109857 0.26284128 0.32424778 -0.6065952 -0.2500812 -0.34522623 0.1165502
让 0.009746005 -0.19883569 -0.059882123 0.3246265 -0.03855308 -0.41676417 0.035741605 -0.43895105 0.3599029 0.34194085 0.15913902 0.015413271 -0.032700002 -0.059719898 -0.3790704 0.17442447 -0.13710754 -0.44731608 0.44947213 -0.42414823 0.032674033 0.15241596 -0.012060875 -0.9375819 -0.2571223 0.13693513 0.20858364 0.14508532 -0.193273 0.07672683 -0.010990204 -0.36930254 -0.19039059 0.58903617 0.04406432 -0.04986524 0.7675452 -0.028198538 0.13903926 0.15526944 0.34725994 -0.16631705 -0.015123573 0.10373068 0.3241384 0.44044453 -0.19525352 -0.2642482 0.15575032 -0.12613028
1 0.27871996 -0.038616206 -0.42289087 0.43038428 0.52956116 -0.3385366 -1.3374065 -0.5706462 0.40010735 -0.26262122 -0.4423417 -0.026845701 -0.39009804 -0.64555246 -0.86476135 0.39230707 -0.53640026 -0.6437811 0.47807053 -0.15339252 -0.96451044 0.073601544 -0.13910745 -0.083701946 0.0954875 -0.25337285 0.13567367 0.060296748 0.1938265 0.034773227 0.18847522 -0.5417579 -0.3169563 -0.061207883 -0.4588437 0.18562815 0.41276285 -0.26221067 0.22013085 -0.99965775 0.43840694 -0.3462636 0.4561179 0.5465051 -0.24500452 0.13469216 -0.35366136 -0.16519135 0.08763791 -0.36839938
日 -0.3598735 -0.04906581 -0.72027785 0.08488522 0.900155 -0.35357255 -0.612671 0.18846647 -0.28187317 -0.59648436 0.12338703 0.16530837 -0.7240619 0.165074 0.15152766 0.071178004 0.14300206 -0.8483355 -0.39040035 0.06179803 -0.6587329 0.3432207 -0.17549542 -0.36716664 0.65060234 -0.7881821 -0.04771119 0.69482946 -0.71715 -1.625963 0.9501915 -0.04703267 -0.06678829 0.5940375 0.40403044 -0.72259176 0.3442881 -0.65692437 0.34860036 -1.1347522 -0.35072818 -0.70881075 -0.9329585 -0.7789742 -0.24223283 0.4388207 -0.04235833 -1.2995901 0.07948516 -0.82705307
多 0.35065335 -0.08193074 0.48783168 -0.28041697 -0.33644065 0.04619568 0.60865706 -0.9050813 0.28847614 -0.83792967 0.26076463 0.10880568 0.30653313 0.24455798 -0.49503905 -0.3990857 0.5412829 -1.0420063 -0.071408786 0.06759815 -0.47384924 -0.40102732 -0.34784684 -1.0961848 -0.4867802 -0.38641036 0.28175706 -0.061411634 -0.70405567 0.07393295 0.113350734 -0.4095043 0.40466377 0.44034702 0.41682935 0.1825161 0.89959276 -0.5018186 0.0052136783 -0.19752847 -0.73568416 -0.6493349 0.4878142 -0.77563417 0.038254783 0.45222262 -0.2255372 -0.3118638 0.23019229 -0.4482431
一个 0.21139057 0.09408748 -0.107885815 0.38829258 0.43542656 -0.43431368 0.33269233 -0.08842074 0.49181134 0.23111092 -0.35375398 0.31522846 -0.012108874 -0.23512548 0.30551234 -0.018343275 -0.04647911 -0.45899677 0.46422416 -0.23398519 0.13940124 -0.41952378 -0.24964482 -0.42942145 -0.16317634 -0.05721972 0.430201 0.12683816 -0.020507794 -0.10657094 -0.15286049 -0.2849528 -0.04492098 0.22013338 0.73137796 -0.150194 0.312997 -0.18181516 0.2473968 -0.24136506 0.23665327 -0.23031852 -0.35970083 0.21819708 0.2181462 0.09116428 -0.6375876 -0.13397862 0.06537555 0.40046933
时间 -0.1289295 -0.2728735 -0.08381579 0.28203094 0.017170405 -0.26165938 0.14730126 0.10896119 -0.47025844 -0.9332179 0.519583 0.0288532 -0.68986505 -0.64775354 0.20060703 0.08010662 -0.57480264 -1.2970644 -0.19692425 -0.7470193 -0.5432675 0.5386053 0.26034164 -0.23015243 0.16482113 -0.15473829 0.1603641 0.46472168 -0.2383826 -0.44722584 0.8590403 -0.89711994 0.49735856 0.09039406 0.20112325 -0.3336134 -0.23876084 0.12689099 0.6174893 -0.6758411 -0.43613288 -0.9271605 -0.7308686 -0.5764763 0.029232189 -0.26844186 -0.79567355 -0.7458766 0.84332556 -0.28775635
季后赛 0.21933512 0.16301653 -0.66458416 -0.08486324 0.33090973 -0.9665891 -0.5160968 -0.1918444 -0.28800228 -0.91695917 0.79695356 0.055749808 -0.21814436 0.051971957 0.29084733 -0.65839595 -0.65793115 -0.88256836 -0.07453727 -0.066155694 0.21492843 -0.38048658 0.20293288 -0.84017015 -0.2552723 0.5593648 0.46795478 0.31968924 -0.12612344 -0.11756705 0.4900937 0.044695232 1.8213166 0.010272009 0.6021238 -0.51868063 0.2529494 -0.80128014 0.2749036 -0.1704044 -1.1695567 -0.39521402 -0.34737796 0.07504433 0.19982079 0.45853534 -0.21170305 -0.53694296 -0.22827525 0.22945832
对手 0.49889702 -0.13337961 -0.6557752 0.056896716 -0.14375335 -0.1896836 0.09997061 0.3594738 0.58664525 -0.10034701 -0.37221313 -0.24296865 0.046168227 -0.19289562 -0.34814733 -0.042047817 -0.3022722 -0.24626006 0.42594916 -0.08443561 -0.30478615 -0.21082626 -0.037416488 -0.6249697 -0.19342715 0.15787777 0.57268155 0.116324015 -0.1631477 0.017306399 -0.0065106456 -0.10927252 0.17835157 -0.15551281 0.06548009 -0.13184746 -0.14582981 -0.710734 0.395472 0.022242483 0.05002637 0.04823573 0.065700434 0.043729663 0.05517641 0.32410774 -0.75138134 -0.030416887 0.25816983 -0.08236056
不 0.07534718 -0.5696384 -0.19885947 -0.059263796 -0.2194043 -0.94524705 -0.28766915 -0.28710693 0.33542338 0.3324408 -0.25566646 -0.024887536 0.029809995 -0.15021302 -0.26435792 -0.49471518 -0.08138419 -0.5917628 -0.08009737 -0.32202157 -0.25983018 0.08122034 -0.121902384 -0.82791513 -0.7160641 0.13780092 0.34811315 -0.20981616 -0.000175928 -0.10565477 0.12932824 -0.16972308 0.04167329 0.21233834 0.40589678 0.25744703 -0.05863085 0.085567825 0.36034712 0.46131754 0.3435626 -0.18344842 0.10023172 0.23863848 0.49955156 -0.088329986 -0.36152515 -0.59994835 0.037512448 -0.331454
以 -0.12819086 -0.21176991 -0.5846759 -0.30288464 0.1588622 0.19399005 -0.2812784 0.7057747 0.96325016 -0.40180892 -0.65144855 -0.28067037 -0.5471519 0.2704856 -0.77545124 -0.04296521 -0.20215762 -0.12132263 0.6204069 -0.23202279 -0.21783979 -0.116478436 -0.072467536 -0.53799427 0.10797489 0.09936096 0.5161064 0.3913834 -0.025544649 0.033830933 -0.23478313 0.22953244 -0.15143222 0.033103634 0.11172357 -0.316408 0.2698229 -0.898826 0.20110564 -0.4336144 0.050848916 0.033918798 0.10942725 0.40327126 -0.17558126 0.21499719 0.24087971 -0.7381493 0.3019972 -0.68306756
球员 0.087756634 -0.44263008 -0.19883502 0.44759798 -0.013545927 -0.13301878 -0.040997468 -0.12542188 -0.11740977 0.41591176 0.18298395 -0.21416616 -0.32506093 -0.22987674 -0.14598584 -0.015040388 -0.014441334 -0.68835175 0.28053382 -0.2567884 0.0073736007 0.4524326 -0.44406492 -0.69679916 0.17997196 -0.35805175 0.67721915 0.17340967 -0.44263002 -0.12557994 0.059319656 0.06809091 0.33288622 -0.059490457 -0.18265572 -0.29662207 -0.22353622 0.33096406 0.10442628 -0.07399979 -0.012376621 -0.5938718 -0.17063671 -0.18667477 0.53077084 0.5475029 -0.36653686 0.15176155 0.11245403 0.121447906
为 -0.2866814 0.62791795 -0.33531776 0.33436048 -0.02675201 -0.29782334 -0.07471215 -0.09754953 0.14679438 -0.0016464205 -0.11306513 0.32498524 0.019071262 -0.3002771 -0.59591794 -0.031686068 0.12094275 -0.48418024 0.49639854 -0.41259706 -0.4308139 -0.23130201 -0.25477508 -0.09154136 0.07004594 -0.2995756 0.1151611 0.24738847 0.023515964 -0.014999894 -0.083909504 -0.45795345 0.07561147 0.3168929 0.023243213 -0.26525074 0.5421437 -0.3813963 -0.33123338 0.0049097505 0.47442472 0.1804058 0.09052319 0.15880984 0.33384597 0.5062991 0.0583541 -0.46102372 0.27852654 -0.040953908
直播员 -0.15637451 0.6234607 -0.7886755 0.7523816 1.0362014 -0.04646276 0.031275183 1.3390536 0.16885461 -0.37613747 -0.60159343 0.2292181 0.35109347 -0.5061267 -0.45731393 -0.49710748 -1.2803878 -0.2240351 -0.02934234 -0.065792 -0.41943234 0.046301488 0.06575308 -0.6496982 1.2506572 -1.0373787 -0.36384508 0.06694407 -1.237576 -0.13755478 -0.3858074 -1.3963072 -0.039931487 -0.9035719 -0.6349589 -0.6136518 0.056994826 -0.0059897397 1.4261855 -0.14265637 0.09703857 0.0545576 -0.09271193 -0.0784617 0.7538308 -0.6876196 -0.73565185 -1.5758115 0.34375235 0.45238754
还 -0.20854487 -0.25292233 0.03625337 0.4057001 0.1288302 -0.61149025 -0.09795294 0.2508794 0.5099923 -0.16285375 0.21521184 -0.09046148 0.20684075 0.19864804 0.015400094 -0.20835994 -0.24862559 -0.29746476 -0.10805451 0.09643086 -0.19025356 -0.062184848 -0.00084480486 -0.51865846 -1.151535 -0.47927696 0.1641317 0.30948445 -0.30617204 -0.29306653 -0.08889811 0.04850149 0.007989764 -0.45428464 0.39951974 0.39189065 0.16429365 0.49552333 0.3563302 -0.2350804 -0.057163235 -0.43225896 0.053307436 -0.14400305 0.0860165 0.41958198 -0.5449227 -0.45873657 0.10718376 0.04691415
已经 -0.35180047 0.15098551 -0.29083356 0.27004728 0.06088975 -0.48988917 -0.02846862 0.21793565 0.2990815 -0.04735161 0.016971055 0.04218529 0.38221747 -0.01565735 -0.09594542 -0.25024134 -0.19935 -0.18630014 0.5546543 -0.01744881 -0.13075899 -0.12313357 -0.14434792 -0.7066929 -0.3788065 -0.20271237 0.14319704 0.06180485 0.01861951 -0.39675745 0.009426293 0.14652324 0.046267714 -0.20777047 0.322297 0.043198 0.40421042 0.10675321 0.37769857 0.030772477 -0.11561501 -0.3869925 -0.32047355 0.15565975 0.13611834 0.38401106 -0.17833379 -0.005994564 -0.23567207 -0.15005699
3 0.08158307 0.26844916 -0.4873985 0.30407032 0.335239 -0.3116283 -1.1044629 -0.33842075 0.42117974 -0.47930914 -0.28520882 0.08455959 -0.26721045 -0.22990477 -0.80300575 -0.08853316 -0.36800516 -0.26597586 0.66498595 -0.3217384 -0.87688327 0.027827492 -0.26983154 -0.061045162 -0.20907843 -0.28852126 0.24945346 0.26754835 0.26685184 -0.12627676 0.060482867 -0.40163112 -0.16812697 -0.024019968 -0.37212658 0.1350369 0.13781117 -0.28650546 0.45466304 -0.58603406 0.3207305 -0.5246773 0.33223715 -0.0039216205 -0.4347101 -0.062647976 -0.28883994 -0.29785302 0.21494508 -0.36338568
体育 0.14143915 0.1855542 -0.23038279 -0.048340753 0.7671916 -0.24980268 -0.0009332619 0.25533915 -0.008874289 -0.62919784 0.023013223 0.50693744 -0.2672909 -0.8156591 -0.17617953 -0.14594683 -0.13721941 -0.9379955 -0.4574432 -0.7368599 0.030251365 -0.47488564 0.4177775 -0.92118824 0.2614431 -0.25998592 -0.24670458 0.14119141 -0.004757198 0.008074664 1.0564296 -1.0759891 0.02146292 0.059844196 0.3273476 0.01151117 -0.14452423 0.23516393 0.3878354 -0.37879512 0.11530555 -0.84811974 -0.29536137 -0.48289853 0.008920851 -0.34764707 -0.17797785 -1.319325 0.28185818 -0.24282117
2 0.2526272 0.44808868 -0.5706478 0.38502505 0.550311 0.08921074 -1.1501882 -0.31944716 0.52021545 -0.66409135 -0.42300433 0.07968348 -0.51851857 -0.38671812 -0.8998563 0.1572035 -0.4993681 -0.45442474 0.572696 -0.35406753 -0.9151454 0.104109555 -0.13062885 -0.03669064 0.15340184 -0.39676088 0.38690683 0.0017367703 0.044225853 0.19284375 0.053873215 -0.55802315 -0.050986547 -0.18740429 -0.3748257 0.19574599 0.4248661 -0.32329753 0.22275378 -0.9299408 0.3788048 -0.51092553 0.40862074 0.18100482 -0.24238756 0.08481963 -0.31090668 -0.091308974 0.10079557 -0.4730891
中国 0.019782582 -0.04664269 0.16329002 0.16784008 0.46791378 -0.042369716 -0.16496417 0.23115548 0.12337232 -0.750427 -0.26344436 0.4057745 -0.86423063 0.04745959 -0.41366458 0.01706414 0.32371932 -0.53333086 0.5657955 0.12862948 0.35868758 -0.7503845 -0.4949976 -0.74042946 0.4451773 -0.29049182 0.5866076 0.58829314 0.12685722 -0.38665366 0.33871037 0.17748174 0.15533476 -0.15098199 0.329499 -0.0022304684 0.06521366 0.20131195 -0.15769774 0.109424695 0.34291777 -0.5477462 -0.4372599 -0.5183602 0.5884051 -0.03689006 0.32247663 -0.30438432 0.20864132 -0.38524637
防守 0.20145011 -0.15561739 -0.046719473 0.14504933 0.4690126 0.24011031 0.12057609 0.018122591 0.6585929 0.25283882 -0.030378759 -0.24227819 0.106786266 -0.46550193 0.024016328 -0.28692976 -0.4404428 -0.42515844 0.49631834 0.012288428 0.24927923 0.38531733 0.105032034 -0.88268274 0.23546775 0.07049444 0.37519726 0.15084143 -0.62888646 0.5052973 -0.2933068 -0.37523723 0.86544776 0.10707983 -0.13834623 -0.44291827 0.19134013 -0.22117369 0.84818643 -0.1927619 -0.28598163 -0.021910753 -0.10186176 0.0012973683 0.28255236 0.21195771 -0.45379353 -0.3604064 0.24864292 0.4886978
进攻 -0.18135665 0.062935285 0.008912251 0.07945947 0.20531343 0.605983 0.10015958 0.11523059 0.76156336 0.010433675 0.16502424 -0.21110225 0.10932018 -0.43859276 -0.0491624 -0.43508506 -0.34749666 -0.3321202 0.3034404 -0.10341397 0.15682398 0.35281992 -0.05246891 -0.876557 0.051063806 0.367376 0.47601858 0.13264763 -0.602163 0.54702103 -0.19749187 -0.3015088 0.8069162 0.33385384 -0.06674987 -0.6442439 0.27851668 -0.5134545 0.96332264 -0.29213527 -0.46743867 -0.16893618 -0.0046809595 -0.058793258 0.39827758 0.1906583 -0.62819916 -0.25792563 0.20974982 0.2381593
女足 0.5653935 0.6773456 -0.39497173 -0.4557575 0.27945358 -0.9139639 -0.08770218 -0.18644162 0.10209849 -0.93905455 0.071059525 0.46874908 -0.51054144 0.12817204 -0.028214807 -0.33989465 0.45647326 -1.1169273 0.027754944 0.683973 0.2260977 -0.9391839 -0.5710325 -0.2735421 0.26207617 -0.7431371 0.36662602 0.18364428 -0.5965244 -0.019988945 0.6084845 -0.50908417 -0.08571674 -0.21823178 0.7946256 0.05732529 0.1438122 -0.44489327 0.59638923 -0.11852732 0.079969816 -0.41706857 -0.098689884 -0.4494345 0.84734565 0.05754323 0.2049125 -0.4043984 0.46784756 -0.2788683
并 -0.20608169 0.029338906 0.16467133 0.7351515 0.018606355 -0.48044902 -0.42594707 0.6498392 0.4691969 0.05785069 0.3700805 -0.14815481 -0.028672937 -0.003038065 -0.05515841 -0.25998503 0.011380873 -0.42921522 -0.13085407 0.023841912 -0.5152179 0.09921036 -0.40433764 -0.9474302 -0.6685238 -0.53642815 0.48760045 -0.07214331 -0.2146153 0.033788465 -0.028854214 0.1550131 0.22367221 -0.051600363 0.26296508 -0.028559936 0.2334067 0.18443985 -0.0028137092 -0.15944308 0.24135797 -0.063369 0.43124583 -0.107826345 0.13495134 0.24219485 -0.5976602 0.117272004 0.43956405 0.07599962
主场 -0.1533063 -0.020710701 -0.53416747 -0.18618536 0.50006586 -0.5905481 -0.89659524 0.32191232 -0.13324004 -0.3191964 0.4805809 -0.6638789 0.051037084 -0.27510437 -0.3843106 0.13391097 -0.90826637 -0.28478748 0.3376372 -0.18656045 -0.24490309 0.039449424 -0.12325964 -0.21257116 -0.72104496 0.38095155 0.1790946 0.052348495 -0.35792542 -0.5735745 0.59998965 -0.26584765 -0.16533726 0.4527449 -0.27171305 -0.47235918 0.3605484 -0.90731144 -0.11246681 -0.35475308 -0.2347593 -0.37980238 -0.19725657 -0.06383182 0.016593665 0.8514728 0.0541349 -0.50838196 -0.17023174 -0.51584136
时 -0.3240322 0.17277321 0.15509914 0.10192896 -0.06806442 -0.35840148 0.13165037 -0.1160848 0.62716657 -0.24716732 -0.20958509 0.2518345 -0.2980501 0.3449177 0.09295386 -0.15463215 -0.105526954 -0.44992462 -0.15849191 -0.07572226 -0.22262952 0.6501745 0.2961411 -0.71807957 -0.2984946 -0.09072643 0.009601786 0.21383928 -0.43975037 -0.7087578 -0.15854454 -0.11181386 -0.10118216 0.22297843 0.2053231 -0.09303358 0.2559172 -0.077781856 0.5277061 -0.44592986 -0.09624615 0.35035494 -0.12519012 0.16660006 0.20262605 -0.21047543 -0.6888474 -0.08780299 0.20832227 -0.37790784
中国队 0.8429195 0.31985328 -0.35773528 -0.378114 -0.11674467 -0.31112742 0.27089235 -0.031174848 0.5237633 -0.7321796 -0.18746592 0.28225762 0.005122366 0.2752759 -0.51561487 -0.31914154 0.173564 -0.6824133 0.47876716 0.15459895 -0.4719587 -0.7346507 -0.7492729 -0.37514484 -0.08166545 -0.2873236 0.49824446 0.82278985 -0.2667011 0.0031075492 -0.08940785 -0.38884735 0.08303373 -0.3355426 0.27184668 -0.12919629 -0.10781252 -0.8465761 0.7532241 0.10287989 0.24209553 0.038603824 0.24803269 0.03387608 0.61762565 -0.52425945 -0.29932618 0.41274315 0.7560933 -0.19138475
表现 -0.09362476 -0.44783399 -0.10460268 0.0010101196 0.24460387 -0.16390398 -0.17309931 -0.22770172 0.5213167 -0.008687639 0.23402132 -0.27785772 -0.57502 -0.089273855 -0.61594486 -0.6730757 -0.081297986 -0.65962 0.8636012 -0.29457644 -0.083674625 0.38404202 -0.14835517 -0.63967687 -0.24517444 -0.23281427 0.4857862 0.1583079 -0.8092442 0.16076384 -0.13786653 -0.00011728111 -0.27697086 0.08962909 -0.3005658 0.09826825 -0.021175623 0.12863696 0.59463435 0.10526414 0.08879292 -0.36132082 -0.014455406 0.022887532 0.30672252 0.10428935 0.38156906 -0.2482884 0.5183638 0.50147057
年 -0.5088963 -0.2739042 -0.52767277 -0.16098695 0.93535364 -0.95850575 -0.8788723 0.14817065 0.09201055 -0.4402052 0.080334686 0.9914931 -0.13864258 0.36043298 -0.21924962 -0.19262987 0.49686816 -0.27193442 -0.071568556 0.09055528 -0.24594572 -0.12526032 -0.3381859 -0.24637605 0.8309634 -0.6389159 0.31013456 0.4021129 0.050148807 -0.449683 0.6920072 0.012607686 0.39076576 0.21168683 1.0478559 -0.27065298 0.33139965 -0.20213631 0.20050804 -0.24884312 -0.5676907 -0.76109505 -0.82798034 -0.46876368 -0.32805914 0.04146277 0.15811752 -0.4682698 -0.42519984 -0.40119585
进球 0.23756044 0.315392 0.8471496 0.013813327 0.204364 -0.08373691 -0.39484093 -0.13939504 0.8788239 -0.25306097 -0.03414997 -0.24495359 -0.15539642 -0.65964115 -0.64245343 0.0566869 0.3880689 -0.52055234 0.7653687 -0.17914836 -0.36172262 0.35196522 -0.57315177 0.009326211 -0.78856766 0.22317357 0.3949007 0.6359717 0.24966812 0.5393085 0.38281348 -0.6756821 -0.3902698 0.686836 0.45245683 -0.4728063 0.26997933 -0.018893823 0.24005808 -0.35769445 -0.11119497 -0.6140454 0.055020455 -0.54200447 0.04074768 0.24460372 -0.30005506 -0.1697873 -0.079530224 0.17086644
联赛 -0.32268474 0.022447662 -0.26395887 -0.04548461 0.39923504 -0.590912 -0.6964376 0.047457557 0.51003844 -0.27819383 0.37634107 -0.40974143 0.21596645 -0.034616496 -0.3189877 -0.38290066 -0.46007583 -0.5264903 0.7661103 0.023535792 -0.6340632 0.18905634 -0.24002239 0.48992863 -0.8750201 0.14608318 0.5403003 0.4682534 0.14011417 -0.6061331 0.5977853 0.10947522 -0.35334945 -0.11344369 0.39209342 -0.30167183 -0.2392398 0.057669155 0.37334698 0.15843782 -0.33420745 -0.97086924 -0.4809919 -0.7792098 -0.14320673 0.08432632 0.0899075 -0.29715726 -0.5040772 -0.4534593
比 0.39710125 -0.413783 -0.49751183 0.118078284 0.11908707 -0.22763683 -0.8575004 0.24092142 0.77760845 -0.38146645 -0.1733861 0.08649253 -0.27174762 -0.27197352 -0.8309978 0.04393665 0.05853244 -0.31403443 0.35604197 -0.27226204 -0.5198322 0.039320346 0.14886597 -0.42151204 -0.023242597 0.48077884 0.6828943 0.38662633 -0.21785149 -0.0394802 0.17522442 -0.23892547 -0.46309596 0.043528475 0.27396396 -0.14435989 0.57860667 -0.8629894 -0.14609692 -0.7168008 0.10000878 -0.4726691 0.35858673 0.1356884 -0.33811733 0.32234722 -0.0669553 -0.6621902 0.21734537 -0.4569775
丁俊晖 -0.14392838 0.021367101 0.4829007 0.01854567 0.89378655 -0.048526395 -0.1537946 0.8246692 1.1034567 -0.6415973 -0.33679354 -0.1406699 -0.79173803 -0.40373975 0.22657554 0.35334662 0.37421387 -0.8935715 0.40184563 -0.27122614 1.0946245 -0.07556088 0.79328316 -1.4054815 -0.20472686 0.6730818 0.08744696 0.6294805 0.8829029 -0.17377275 0.5120448 0.46175647 0.47508854 -0.33801183 0.5567146 0.081411906 0.06320869 -0.2883509 0.12799828 -1.1074758 -0.22334602 -0.25302905 -0.11122308 -1.006422 0.16910288 0.06471802 -1.0364654 -0.8103416 0.023651056 0.25257036
中国女足 1.0475836 0.5498698 -0.49020103 -0.745797 -0.2664227 -0.47884345 -0.051208384 -0.03401731 0.469706 -0.7793815 0.012414423 -0.18559551 -0.65039384 0.34313688 -0.41246188 -0.06349295 0.4347259 -0.8870816 0.2614974 0.08791853 -0.021451568 -0.5430562 -0.48625788 -0.39937058 -0.2551174 -0.50362843 0.32057184 0.5897534 -0.49737954 -0.04490895 0.6044258 -0.64919275 -0.21446009 -0.24591601 0.5465822 0.18332237 0.05043592 -0.5860673 0.53712976 -0.6400983 0.34968606 -0.18293352 0.045420386 -0.22536682 0.72191757 0.18898329 -0.35437363 0.21252532 0.72911763 -0.36825863
下 0.07594017 -0.54206103 -0.49343878 0.1906036 0.7906783 0.027092341 0.5555701 0.13902405 0.81310457 0.03204127 0.2873123 -0.23900501 0.1894199 -0.50433916 -0.6529294 0.11526621 0.10378059 -0.47990516 -0.12693627 -0.62819445 0.1158177 -0.001626171 0.34519103 -0.32775348 -0.7756507 0.00052866654 -0.5969005 0.38949957 0.76971924 -0.5523027 -0.2855795 0.0031878897 -0.14503275 -0.34909064 0.35796833 -0.5265093 -0.011658243 0.13147543 1.2662659 -0.38252038 -0.7313462 -0.24379958 -0.39795956 -0.036415637 0.033895828 0.36262646 -0.14995052 -0.12408547 0.7293747 -0.51026005
机会 -0.44998252 -0.34830573 0.21191639 0.38729572 -0.14541791 -0.18807983 -0.20545407 0.17218812 1.0967373 -0.1553295 -0.26061487 -0.093569785 0.27666706 -0.37007156 -0.016048197 -0.35596615 -0.20483723 -0.42406732 0.31978285 -0.34137028 -0.24575487 0.34527993 -0.4042524 -0.46234456 -0.1120457 -0.00062703365 0.44892654 0.4624722 -0.36470997 0.49342266 -0.2730017 0.2951961 -0.04294732 0.92307657 0.51667964 -0.43916208 -0.06348176 -0.46543562 0.024076331 -0.39307508 -0.49380842 -0.3746097 0.096535824 -0.015089834 0.47152948 -0.20756128 -0.85466295 -0.13767132 0.21480234 0.109873764
前 -0.36889747 0.0079103215 -0.2623089 0.10658522 0.19961354 -0.37438017 0.23839654 0.036756676 0.3825959 -0.19485475 -0.14573513 0.20868644 -0.223406 0.41968817 -0.27294812 -0.27600157 -0.50640035 -0.1603931 0.34068272 0.18196835 -0.30336797 0.31232715 -0.07146397 -0.29734856 -0.36427075 -0.3906027 0.08284082 0.50831264 -0.047974203 -0.6229047 -0.29616913 0.041950908 -0.0723922 0.04811212 0.11764279 -0.4581661 0.36056188 -0.110424004 0.65313363 -0.27849838 0.19216293 0.35356 -0.43539295 0.19632499 0.37721622 -0.07882576 0.17019112 -0.051076803 0.13035502 -0.15597066
会 0.04991996 -0.6129399 -0.2885668 0.0067725875 0.029287634 -0.74745214 0.16076942 -0.1769781 0.44522104 7.210265e-05 0.044739477 0.4882672 0.09073821 -0.32021195 -0.28469563 -0.22866131 -0.18153244 -0.59590566 0.13033329 0.162423 0.10784142 -0.10232204 0.33510208 -0.66882235 -0.57851934 0.14498404 0.32783735 0.21213664 -0.03376014 -0.25412107 0.31547767 -0.08194975 0.3109589 0.18089782 0.3646387 0.10430503 -0.23280263 0.06383497 0.3042364 0.042386442 -0.09456317 -0.16578358 -0.009274247 -0.07045583 0.41535217 0.42911667 -0.47948563 -0.54767865 0.17413145 -0.028818823
北京 0.1739486 -0.20329031 -0.22699949 0.079500146 0.7492111 -0.2789818 -0.45818952 0.19964767 -0.05425142 -0.79401124 0.048834004 0.24671572 -0.72362 -0.81879485 -0.41127825 0.025422916 -0.39528966 -1.1583115 -0.45983154 -0.5475973 -0.10737935 -0.06684623 0.06968039 -0.69760364 0.24336374 -0.3887783 -0.18832546 0.41075072 -0.048788216 -0.8317856 1.030242 -1.1750661 -0.07511921 -0.06095626 0.43578607 -0.047853716 -0.15924358 0.07242174 0.29863697 -1.1000346 0.01676446 -0.969535 -0.39973462 -0.63552374 -0.3081343 0.036062576 -0.6466667 -0.8487531 0.283878 -0.4821224
进行 -0.47687468 0.33980194 -0.13771085 0.14962377 0.6655525 -0.30882078 0.267916 0.7532082 -0.53868306 -0.42116717 0.20392588 -0.087244175 -0.3355238 0.10633207 -0.02070478 -0.19468303 -0.74993646 -0.32768255 -0.017567797 0.5320594 0.06225508 -0.14254862 -0.19053927 -0.42361045 -0.32764372 -0.2058146 0.033227243 0.5176445 -0.4951065 -0.8163025 0.562982 0.1792903 -0.37617216 -0.17019361 -0.25275508 -0.1165413 0.21420754 -0.45502815 0.77358764 -0.49617586 0.37414488 -0.4381976 -0.47225252 -0.003490135 0.6936438 -0.16711876 0.18256035 -0.44592816 0.15593937 -0.08280663
22 -0.50843817 -0.02712632 -0.6694478 0.5147802 0.74092937 -0.45423475 -0.66715074 0.067479186 -0.25420257 -0.6764377 -0.17887455 0.22937092 -0.86421824 0.27763942 0.22518288 0.10368305 -0.1896573 -0.86439764 -0.4821174 -0.41576868 -0.66421384 0.30158427 -0.263466 -0.390114 0.4081758 -1.0051408 -0.078087375 0.60803276 -0.33868462 -1.1505955 0.6771641 -0.58707976 0.25280645 0.47047964 0.21646579 -0.78940326 0.29237548 -0.34088692 0.625225 -1.0938231 -0.0028385897 -0.4629868 -0.70942163 -0.3669319 -0.3427795 0.07824319 -0.4182447 -0.9997272 0.108115785 -0.62882215
从 -0.3837856 0.062460255 -0.1410876 0.3201375 0.3676014 -0.44250342 -0.097015105 -0.13023293 0.32365662 -0.012090634 0.13554326 0.43058002 -0.031009644 -0.19062345 -0.13306777 -0.623572 -0.27000764 -0.48473537 0.39007002 0.46874833 0.0040769656 0.004664094 -0.07480122 -0.1510689 -0.12586534 -0.09080358 0.1785409 0.26486185 0.003116285 -0.068873554 0.095119834 -0.35777783 -0.21007358 -0.21735598 -0.13300395 -0.1706312 0.66579974 0.089595385 0.4283385 0.040879197 0.06834705 0.10735695 -0.2950652 0.2900889 0.29569915 0.10795064 -0.23131348 0.08543634 0.056863807 -0.017379707
世界杯 0.35220435 0.5269076 -0.5662138 -0.460225 0.48244345 -1.0285652 -0.3062587 -0.074672185 0.3300127 -1.0265845 -0.11353243 0.7468847 -0.17733766 0.42357442 -0.008256786 -0.50185555 0.4887602 -0.9159473 0.031131787 0.83941495 -0.021291263 -1.0405487 -0.5009646 -0.28645483 0.28195843 -0.756572 0.0811553 0.45101947 -0.5980443 -0.18246023 0.64145344 -0.6608191 0.11103482 -0.13453802 1.2909268 0.0280168 -0.0628889 -0.21734881 0.8972752 0.07072377 -0.23714635 -0.46027732 -0.2857596 -0.44004446 0.68630517 0.00801719 0.2195928 -0.71224844 0.5597463 -0.2712588
更 0.41438243 -0.6357065 0.5458681 -0.19150889 0.160929 -0.07252247 0.2304681 -0.7485556 0.5091905 -0.21245359 0.22946109 0.14854568 0.4016878 -0.04777953 -0.48297477 0.07672612 0.15536137 -0.7482761 0.19478765 -0.17592011 -0.078257225 -0.7049527 -0.20380037 -0.9636665 -0.53920716 -0.44223776 0.5339928 0.06039813 -0.30012915 0.93913776 0.15967909 -0.31850967 0.60885054 0.28902802 0.0013590954 0.23377131 0.6672714 -0.1755679 -0.2338838 -0.28833285 -0.46924055 -0.891075 0.18593314 -0.5424776 0.08415516 0.89058274 -0.030718952 -0.8443304 0.48065004 -0.118584014
要 -0.18208309 -0.6957096 -0.305531 -0.0029965548 -0.036771175 -0.7527764 0.07638763 -0.002949494 0.2655034 -0.011705302 0.11123509 0.2806706 0.11317348 -0.14721206 -0.26173505 -0.31876013 -0.28607807 -0.47040933 0.13468598 0.012016567 -0.25420198 -0.33905384 0.09014265 -0.90642464 -0.52232426 0.07772432 0.53707147 0.053809147 -0.096180566 0.061234485 0.23808311 -0.19840805 0.23171437 -0.11517783 0.0017406982 0.3275691 0.25128308 -0.12926193 0.18783714 0.25523773 0.24378157 -0.49510908 0.038647734 0.23304617 0.4258069 0.050452467 -0.58538 -0.33003768 0.026838455 0.015753787
非常 -0.057961095 -0.49390602 -0.009831284 0.055064265 0.3590799 -0.34274977 -0.10468483 -0.034644034 0.45244825 -0.07348781 -0.002062453 0.07658431 -0.29051355 0.00885833 -0.43713078 -0.37757564 -0.016051423 -0.867305 0.62820697 -0.14842346 0.07716092 0.16680948 0.07010564 -1.1188691 -0.3138716 0.11407576 0.45807803 0.13894032 -0.5771765 0.21950796 0.036852118 -0.15379798 -0.06277761 -0.015943015 -0.102490924 0.27293763 0.15165946 0.14534992 0.2801649 0.012467649 0.12573609 -0.40068227 0.09685991 0.117335044 0.30107215 -0.27685767 -0.10198227 -0.16238835 0.31328475 0.46443537
人 0.33349192 -0.2393563 -0.017195292 0.1719862 -0.04290916 -0.4252634 -0.21800524 -0.043462317 0.44414663 0.12927032 -0.100995585 0.021266254 -0.07307301 -0.48310223 -0.14974059 0.2629154 0.3809785 -0.697767 0.11214808 0.019841526 -0.11097229 0.3933971 -0.055364817 -0.5592026 0.086864725 -0.028504748 0.2413595 0.14840329 -0.042752225 -0.21009108 0.41206676 0.15405276 0.11521654 0.12698276 0.40102455 -0.048829153 0.2793576 0.15330175 0.32960457 0.13574253 0.06355593 -0.32250762 -0.17225659 -0.43758246 0.070423394 0.5651105 -0.6242512 -0.2872534 0.047961038 0.32199636
好 -0.14515296 -0.5922767 -0.17090335 -0.075496346 0.35608235 -0.53616154 0.009172668 -0.017990174 0.7996736 -0.06840881 0.04287475 0.4237126 -0.05915857 0.04816233 0.1330251 -0.72666883 -0.112572275 -0.5226822 0.46491566 -0.39221993 -0.22194916 0.12207185 -0.025912585 -1.1409419 -0.0821312 -0.13937098 0.27741495 0.114560686 -0.77354294 0.16112573 0.05466122 -0.26659766 -0.073058575 0.08192921 0.3984207 0.32400042 -0.20815924 -0.0023749613 0.3959593 -0.035276257 -0.099392764 -0.51473314 0.17794788 0.13923746 0.13512856 -0.19616683 -0.7629412 -0.10729342 0.51715386 0.42225394
球迷 0.2341719 0.13609092 0.31118703 -0.18278421 0.20013016 -0.6637086 0.16573513 0.20786783 -0.046142843 0.20005257 0.49286783 0.039460327 -0.31156334 -0.870576 -0.40979692 0.5104912 -0.040200528 -0.68951523 0.05614699 0.09522586 0.36103886 -0.016890163 -0.15424399 -0.91866785 -0.15414713 0.075890526 0.3426731 -0.29648295 -0.12026458 -0.48261416 0.65612036 0.2355173 -0.05342812 0.16125576 -0.019931726 -0.23619597 0.39445567 0.0763475 -0.13015905 -0.41171452 0.04129908 -0.5554273 -0.20199466 -0.02332185 0.64505076 0.6380557 -0.15013547 -0.13191833 -0.12863074 -0.116852805
最后 -0.45177564 0.09425972 -0.091971934 -0.10614502 0.30353007 -0.28892782 0.3762425 0.46907127 0.5367873 0.013291073 -0.07368878 -0.17616399 -0.44207415 0.60895514 -0.32581136 -0.12650245 -0.6195226 -0.11750876 0.17525877 0.3154123 -0.22881445 0.055795904 -0.1300987 -0.3957082 -0.83314174 0.1339572 0.23760688 0.998663 0.08022916 -0.34735635 0.029156437 0.06442945 -0.014575378 0.21713212 0.21450578 -0.24151841 0.33912668 -0.50621563 0.6445105 -0.29321626 -0.052878052 -0.20282568 0.06444956 0.016033681 0.28736487 0.06783256 -0.45939055 -0.2594197 0.40239057 -0.014957727
抽签 0.6398956 1.0991743 -0.14183058 -0.6656116 0.62182665 -1.1635782 0.2735703 0.35965455 0.17760974 -0.9685559 -0.09190591 0.6408675 -0.28823033 -0.04282862 -0.40655115 -0.208749 -0.04109974 -0.7314242 0.23829247 0.77488035 0.033556387 -1.1078539 -0.47737718 -0.421027 -0.08994594 -0.71055007 0.07118683 0.2555707 -0.6052422 -0.48918176 0.27587238 -0.528011 -0.11249728 -0.45402536 1.4250067 0.027035195 0.08600944 -0.20351113 0.9916251 -0.38074064 0.1099786 -0.19577187 -0.16107301 0.17858455 1.1797271 -0.15572256 0.017743438 -0.726165 0.70512354 -0.028119506
获得 -0.62072057 -0.32244432 0.019123118 0.30310875 0.306419 -0.29346168 -0.35924724 0.40488198 1.0493923 -0.5133682 -0.8382839 0.46783367 -0.060967002 0.20000336 0.07515121 -0.5429585 -0.13897571 -0.02089602 0.37316877 -0.008690192 -0.13291146 -0.23348603 -0.48357102 -0.42843428 0.24886024 -0.4095644 0.48194838 0.6291392 -0.03133252 0.45847479 -0.13174443 0.33605146 -0.20636234 0.12233333 0.56400645 -0.035202645 -0.08559727 -0.38950154 0.37317753 0.09373899 0.12110196 -0.2690778 -0.24823497 -0.2913776 0.0349575 -0.61598366 -0.446526 0.21103804 0.008922736 -0.70326984
打 -0.2013957 -0.55892617 -0.07855343 0.18620664 0.06781816 -0.37730822 -0.11390406 -0.086155094 0.47684938 0.007697348 0.099828005 0.20576547 0.38995332 0.16709727 -0.06092128 -0.5359777 -0.4844087 -0.5084922 0.21932115 0.08746107 -0.40538964 0.53384274 -0.0088834455 -0.65725005 -0.5513264 0.1452406 0.19109215 0.4887798 -0.58673644 0.37513942 0.36838606 -0.11817577 -0.08890729 0.15763512 0.036889374 -0.13217738 0.105213806 -0.059473097 0.5288227 -0.084271625 0.16602963 -0.2096077 -0.23088719 0.21306083 0.078891136 -0.089929484 -0.17852378 -0.2516946 -0.03939441 0.101293124
队员 0.037091453 -0.4368773 0.16464035 -0.15669267 -0.0051545035 -0.26151484 0.31867385 0.11667582 0.31968048 0.24099673 0.13626641 -0.0028768203 -0.32602194 -0.3290959 -0.28562564 -0.04865807 -0.042446118 -0.63518125 0.09177362 0.077554464 -0.005235681 0.46400788 -0.46025604 -1.0062289 -0.12677643 -0.38627282 0.44414282 0.22503057 -0.714793 -0.20522554 0.15838045 -0.16545573 -0.26083338 -0.06669758 -0.23089094 -0.08140712 -0.07851597 0.11577411 0.49992207 -0.08561857 0.08695089 -0.4378759 0.018564105 -0.05318661 0.78233266 -0.02856652 -0.3245166 0.3035569 0.30438906 0.123346284
来源 -0.016440524 0.057837628 0.2093111 0.02369229 1.0451779 -0.21719317 -0.32106328 0.2345855 -0.039659504 -0.28707296 0.10764338 0.50952196 -0.3330121 -1.1308706 -0.4831585 0.15269025 -0.36351082 -0.90093595 -0.8199558 -0.99452484 -0.349209 -0.30552256 0.038562287 -1.0121746 0.5961141 -0.7074532 -0.38045934 -0.08056448 -0.059728626 -0.2862063 1.3522662 -1.1448095 -0.29952452 0.045423273 -0.08749008 -0.07548367 0.029088363 0.24968627 0.045751352 -0.7066033 0.5426543 -0.61071455 -0.24705178 -0.33561465 -0.10786975 -0.12591481 -0.15143971 -1.0632893 -0.23185141 -0.9682219
冠军 -0.5710463 -0.4338287 -0.23229589 0.053343255 0.5028666 -0.7128384 -0.52903885 0.19082882 0.68436044 -0.63922596 -0.3970622 0.33095962 -0.2891645 0.46562368 -0.35028073 -0.22930433 0.17951767 0.006779355 0.54484415 0.34064078 -0.13301334 -0.5015732 -0.20452495 -0.27797478 0.11432989 -0.34575608 0.25156608 0.54165876 0.38366747 -0.122009106 0.36720914 0.57842046 0.15857305 0.08825002 0.58554137 0.113440685 0.045711126 0.11364108 -0.11283575 0.19585215 -0.43740052 -0.7519555 -0.6330137 -0.64444906 0.023780357 0.24089047 -0.022752514 -0.57426846 -0.5287578 -0.5485323
今天 -0.295338 -0.14081152 -0.2103457 -0.04162026 0.3878738 -0.5309101 -0.11501334 0.09072031 0.0015915905 -0.1849954 0.111801095 0.026956666 -0.6449707 -0.06440983 -0.09626947 -0.15178865 -0.08816579 -0.5945505 0.21736012 -0.07855261 -0.053086583 -0.11616583 -0.08111622 -0.6222484 -0.16920269 -0.16788235 0.09929085 0.071215704 -0.47041962 -0.26252076 0.24400897 -0.37198213 -0.27867752 0.0053711743 -0.007549805 -0.14095989 0.16364834 -0.0415994 0.23876423 -0.25911692 0.3995238 -0.22209972 -0.028744347 0.22060768 0.52862936 -0.11365069 -0.30539328 -0.40404242 0.65574783 0.4891447
球 0.083959565 0.06143689 0.41948217 0.32146528 0.5084123 -0.07874806 -0.306858 0.3095058 1.0425513 -0.16748811 -0.15642476 0.10502585 0.25637454 -0.7411147 -0.19849062 -0.06207119 -0.19824658 -0.48034123 0.24870633 -0.14648075 0.010764476 0.6268109 0.1788439 0.048396856 -0.5503446 0.17112145 0.19096604 0.4070405 -0.36784968 0.028997254 -0.39383262 -0.2941886 -0.5119847 0.21694 0.31072345 -0.5808522 0.31509206 0.01857511 0.4398033 -0.45462996 -0.19508983 0.24233827 0.15797308 -0.28061092 0.08459103 0.16909324 -0.6193044 -0.36981475 -0.21077499 0.16727032
给 -0.30874264 0.3049253 -0.17110004 0.6288715 -0.22737834 -0.16597392 0.22277893 -0.18506922 0.5163736 0.15232271 -0.21963143 0.28943357 0.18760951 -0.41095364 -0.047812946 -0.10388139 -0.108174026 -0.43338916 -0.018621057 -0.372765 0.02703257 0.18754531 -0.07066126 -0.9099843 -0.063880965 -0.35194415 0.027630685 -0.038169865 -0.25055575 0.25263172 0.17738539 -0.38832363 -0.2411814 0.35824993 0.27990025 0.08107117 0.2766514 0.11262739 0.100116484 -0.47897136 0.2339587 -0.20250718 -0.10832002 0.04072284 0.2203535 0.45325664 -0.7680753 -0.11231583 0.2614826 -0.07194889
还是 -0.014185154 -0.29483253 -0.12375717 0.13500707 -0.067890905 -0.3017162 -0.12114836 0.17323229 0.5855091 0.018602468 -0.068551704 -0.10566187 0.036061823 -0.16523118 -0.4254614 0.014020244 -0.26304772 -0.29114917 0.31732768 -0.19549978 -0.047804512 -0.06613705 -0.22113459 -0.7188816 -0.34465703 -0.21875368 0.38375375 0.1495247 -0.23905377 0.34291625 0.07012708 -0.22353195 0.08879155 -0.17701572 -0.106651135 0.064075515 0.04868254 -0.049667995 0.22552174 0.034193292 0.22838491 -0.35119754 0.13564178 0.13219172 0.31383228 0.4512595 -0.25034314 -0.22422534 0.19595017 0.2526034
开始 -0.4327976 0.20225608 -0.26496816 0.04050447 0.18489625 -0.2799933 0.3796312 0.18448032 -0.07199694 -0.8125119 0.26359558 0.46866572 -0.44139975 -0.07617758 0.09184442 -0.60576487 -0.25843543 -0.6191341 0.06858124 0.18797058 0.09721219 0.25324985 0.1756687 -0.6473959 -0.50902414 0.19250935 0.035661984 0.35663766 -0.01606139 -0.5722648 0.26535514 -0.05609224 0.18467936 0.13616802 -0.21160407 -0.82618415 0.6663597 -0.25613362 0.48013547 -0.39865527 -0.070629895 0.38168648 -0.38214347 -0.1198122 0.45671004 0.09642718 -0.06437279 -0.16670954 -0.0024080896 0.027177058
9 0.029536748 0.40192822 -0.6937314 0.91030604 0.09652187 -0.14957857 -0.7224312 -0.41805565 0.45233014 -0.44721806 -0.7134681 -0.15778658 -0.6992082 0.088403 -0.41565228 -0.094667666 -0.34282443 -0.7438504 0.19661924 0.03254359 -0.68416137 0.19737889 -0.11122708 0.11485835 0.41885263 -1.0529591 0.18330538 0.3964392 -0.1545268 -1.0086435 -0.61484784 -0.19549431 0.5040669 0.087157845 -0.23760593 -0.44035545 0.13131581 -0.22440253 0.5941863 -0.33957693 -0.22532359 -0.54947597 -0.10183352 -0.64810216 -0.40275598 -0.024708876 -0.44426152 -0.686667 0.4256735 -0.5306685
得 0.09052443 -0.58664495 0.042379245 -0.10360351 0.20347337 -0.4541983 0.2408804 0.010794643 0.6722149 -0.027183969 0.037517544 0.2951641 -0.010584555 0.14772238 -0.17217343 -0.90297836 -0.28710517 -0.5501126 0.106001966 -0.23859286 -0.39429462 -0.10230737 0.09361455 -0.9760115 -0.5719818 0.3003393 0.42751932 0.30528766 -0.72466534 0.13966034 0.095523916 -0.26632753 -0.19808388 -0.26116782 -0.026585426 -0.0017831845 0.12943766 0.07722018 0.536168 0.084043376 0.13054334 -0.4987828 0.35429913 0.21080783 0.04926768 -0.108062185 -0.27300623 -0.35153684 -0.120762214 0.3750536
这样 0.2724067 -0.16382343 -0.42370838 -0.025873236 0.025756931 -0.65663236 -0.0695607 -0.149344 0.5061153 0.054716706 0.15053123 0.16121155 0.2569058 -0.06261816 -0.21843891 0.010467636 -0.015490038 -0.39614058 0.45358968 -0.076441824 -0.23869552 -0.19233197 -0.11407726 -0.6647216 -0.54920644 -0.093985625 0.28696477 0.19021942 -0.08451815 -0.010019481 0.102566786 0.023026267 0.03529642 0.32058868 0.34611702 0.06209177 0.17137317 -0.11765044 0.28769776 -0.02967509 0.07949811 -0.3389027 -0.06336999 0.00084894866 0.30623943 0.3831155 -0.37162277 -0.3756122 0.18804678 0.20985208
着 -0.2425309 0.070454046 -0.13265714 -0.13630341 0.03427475 -0.30226827 0.34260103 -0.30634362 0.15306604 -0.015043759 0.21107697 0.30111378 -0.1316929 -0.33197704 -0.28642866 -0.16888808 -0.0060392385 -0.61306876 -0.07626585 -0.019266564 0.078668065 0.0325221 0.07965048 -0.7237122 -0.21015202 -0.056166332 0.04181818 0.049158357 -0.35319656 -0.122409806 0.35406414 -0.116840035 0.018463269 0.1961488 0.035398927 0.02651987 0.3318068 -0.080456086 0.17279097 -0.24876744 -0.012931923 -0.014346849 -0.2791385 0.10008195 0.49021688 0.38084984 -0.35006955 -0.03550158 -0.1404035 -0.22012742
之后 -0.29874197 -0.22094464 0.012147183 -0.038302746 0.24462418 -0.3812998 0.069362134 -0.26430917 0.2668586 -0.07528576 0.15658608 0.3639891 0.13989113 0.017378734 -0.19314367 -0.073121525 -0.5264725 -0.3549623 0.38443917 -0.050453164 -0.2312333 0.19879338 -0.24489416 -0.47427306 -0.26714316 -0.10305031 0.0048514097 0.28800344 -0.13051137 -0.33651382 -0.04936302 -0.1205453 -0.16310099 0.21382576 0.07863185 -0.1417885 0.44309556 -0.2896111 0.4036846 -0.090318926 0.06356739 0.5086292 -0.25724015 0.38655743 0.11153698 0.13009514 0.08342673 0.025419649 -0.14216033 -0.36948293
但是 -0.059350606 -0.41109496 -0.15760376 0.08851994 -0.059850447 -0.50170094 -0.26409957 0.07425193 0.42834535 -0.011569482 -0.07133049 -0.11787536 0.0952673 -0.16006367 -0.23247078 -0.13562833 -0.15906608 -0.40901202 0.4716215 -0.24805415 -0.18761079 0.19693248 0.021276675 -0.7517087 -0.51200634 0.098558515 0.4308228 0.12946431 -0.1995056 -0.126502 -0.15773082 -0.166854 0.19250299 0.089248694 0.39600796 0.07201533 0.21833833 -0.21664153 0.40610448 -0.039273273 -0.0323897 -0.35214168 0.08530181 0.040948205 -0.14706428 0.08831822 -0.5476566 -0.19091696 0.26965347 0.011881449
个 0.13989069 0.034396444 0.05276912 0.39593962 0.50257593 -0.18629402 -0.2747852 -0.35092312 0.58686626 -0.058440644 -0.25862214 0.16537085 -0.52749723 0.23676172 -0.26918912 -0.088845745 0.56394553 -0.81740546 0.7371891 -0.24785441 0.047608588 0.14752889 0.10700689 -0.015843268 -0.35943717 -0.059414547 0.19503939 0.37142044 0.3469902 -0.31702444 -0.59710133 -0.5645891 -0.021493398 -0.039584 0.49875712 -0.4794847 0.99007344 -0.12729216 0.85120136 -0.15324968 -0.21305566 -0.75917065 -0.30606863 -0.84271735 -0.65741533 -0.027334826 -0.40693283 -1.0243477 -0.16227749 0.6456748
记者 0.078055345 0.14494728 0.41388068 -0.22106667 0.07620113 -0.46305537 0.15790623 -0.11657068 -0.047717173 -0.5730443 0.21079187 0.22448336 -0.5851728 -0.3321689 -0.18297724 -0.004378367 0.33620843 -0.90538865 -0.33115572 0.08198447 0.14473197 0.24341618 0.3397818 -0.94845825 -0.01643832 -0.33200544 -0.0059917914 -0.2984616 -0.28919724 -0.7977833 1.1326483 -0.14648493 -0.5764087 0.13989103 0.19554707 0.3749055 0.24005842 0.259846 0.15736045 -0.66507024 -0.022572197 -0.7283674 -0.4636854 -0.5344475 0.584053 -0.008896072 -0.52974856 -0.34056824 -0.091496885 -0.46518582
5 -0.10066445 -0.024475105 -0.21396089 0.57947314 0.19756807 -0.24449906 -0.7392505 -0.313611 0.3309954 -0.56386983 -0.4288292 0.21477243 -0.37603635 0.019868903 -0.27664936 -0.34254056 -0.3506691 -0.5930861 0.28722602 -0.108047746 -0.7461385 0.14394788 -0.069099285 -0.032991067 0.019633202 -0.34450385 0.19207948 0.347269 0.08873333 -0.39654022 -0.122289844 -0.20582707 0.037302267 -0.036232494 -0.10581042 -0.022089958 0.21693765 -0.2995861 0.22548877 -0.54795164 -0.13066675 -0.616661 -0.07087806 -0.2760972 -0.47101226 -0.2871923 -0.4447168 -0.14144924 -0.0983387 -0.4125028
一场 -0.03874796 0.25036943 -0.4678542 -0.06287388 0.36319986 -0.44839036 -0.1692412 0.59437716 -0.1234162 -0.4154999 0.4354614 -0.08754512 -0.35494626 0.13518356 -0.042273328 -0.17322907 -0.12716796 -0.43086398 0.42103747 0.043514807 -0.5465995 -0.2814412 -0.29909638 -0.6098631 -0.744092 0.33111146 0.32135576 0.3557129 -0.33185783 0.1289375 0.6614529 -0.097362146 -0.3827701 0.32278317 -0.028430153 -0.3445036 0.6159057 -0.46083924 0.30085546 -0.16871932 0.32296768 -1.1428322 -0.2019833 -0.10523794 0.3793688 0.13443866 -0.03493161 -0.14243086 0.05477344 0.18272662
不过 -0.12553592 -0.21766831 -0.12608142 0.04600145 0.13975835 -0.49194062 -0.23762703 0.017033381 0.41508317 0.13902138 -0.10286638 0.020891137 0.07891089 0.122071914 -0.10399859 -0.26951218 -0.1268594 -0.3644292 0.45633096 -0.11293862 -0.30317473 0.14503397 -0.10181103 -0.49457857 -0.27996826 -0.1365883 0.3519175 0.063537486 -0.29708642 0.0027542438 -0.12733908 0.10052759 0.14776444 0.17614327 0.23815137 -0.05786715 0.22916737 -0.2876419 0.35239992 0.12581082 0.17537032 0.06880248 -0.07298218 0.13706768 0.16672063 0.102446206 -0.3342538 -0.19290031 0.13339296 0.0040473
结束 -0.25385892 0.0014476962 -0.20657171 0.27249727 0.010956676 -0.16509442 0.41755834 0.115566954 0.35503098 -1.0477962 -0.10150821 0.38489684 -0.56760323 0.62252754 -0.51791847 -0.49540526 -0.46536055 -0.2692015 0.07137932 0.3949609 -0.10253735 0.1453314 -0.14651652 -0.38889846 -0.81516635 -0.2617501 0.06385621 0.4700766 -0.19851214 -0.9730281 -0.030155906 0.08715024 -0.29640564 -0.20724797 -0.077106476 -0.4665717 0.48716503 -0.2642645 0.59158766 -0.585611 -0.031350333 0.33506587 -0.12923509 0.015575907 0.3089873 0.25469032 0.17440277 -0.44853887 0.11606982 -0.10776191
10 -0.2332581 0.06792952 -0.14373739 0.737794 0.3633229 -0.22805807 -0.960726 -0.22032483 0.57852286 -0.56765985 -0.559039 0.12417183 -0.11441202 0.00024253495 -0.34763297 -0.16766065 -0.38605893 -0.35680252 0.29251736 -0.15797988 -0.3749185 0.16752931 -0.019257706 -0.14374089 0.20106825 -0.2712858 0.18123072 0.15536916 0.26286075 -0.3595884 -0.18635446 -0.17582358 0.056205966 -0.030786099 -0.15206684 -0.21896556 0.21663523 -0.11848703 0.21676154 -0.37605083 0.016299568 -0.11030221 -0.093563244 -0.3294795 -0.40456706 -0.120624214 -0.31501642 -0.2056028 -0.36807677 -0.6486358
篮板 0.25628176 0.25020474 -0.31147844 0.7911855 0.30060148 -0.21874902 -0.30996707 -0.31202033 0.83536404 -0.41252 -0.16539526 -0.13120355 0.17717206 0.3043187 -0.39373183 -0.7863254 -0.26563862 -0.78833497 0.28540766 -0.21078509 -0.16039488 0.4265026 0.24627306 -0.25166473 0.21598306 -0.24682777 -0.012228176 0.4062979 -0.68532205 0.16334309 -0.8132693 -0.4678778 0.7813738 -0.28994516 0.11479892 -0.71414554 0.66392565 -0.45531783 0.9925714 -0.066791184 -1.2972902 -0.49914932 -0.17336461 -0.76940906 -0.16582179 -0.036594976 -0.8555871 -1.9402525 0.099526905 0.6009254
这个 -0.23097791 -0.11289069 0.04020903 0.15407453 0.13436617 -0.76640445 -0.003215418 -0.13291338 0.41358775 -0.05849354 -0.040166143 0.27322668 0.19941293 0.026378093 -0.1623271 -0.160573 0.014003818 -0.30524048 0.47267503 -0.1092252 -0.14284033 -0.18379714 -0.21956903 -0.45893022 -0.59675956 -0.14775008 0.3139732 0.23295462 0.05510968 -0.097214155 -0.010111245 -0.28010106 -0.005237125 -0.04490107 0.57742876 0.15303868 0.30188242 0.09568556 0.3224507 0.13483846 0.3221802 -0.058478 -0.16634399 0.13616349 0.3164308 0.13784301 -0.47855237 -0.16796981 -0.33753243 0.075598985
能 -0.20093393 -0.39261624 -0.38942105 0.016859572 -0.19069569 -0.6534979 -0.07651002 -0.17757529 0.6246528 -0.28869492 0.032707155 0.25786665 0.19935925 -0.05632791 -0.43260783 -0.35437158 -0.041751422 -0.5696826 0.16106254 -0.2558007 -0.3157498 -0.07068348 -0.01243687 -0.6547613 -0.75371855 0.17634122 0.38647708 0.24579217 0.01049875 0.0064114383 0.10734299 0.113307185 0.020724451 0.3785525 0.5668784 0.1527649 -0.07505156 -0.14370808 0.23450005 -0.2240753 -0.009677116 -0.49594423 0.015220226 0.14099321 0.29527178 0.16868822 -0.56310385 -0.38039362 0.20163487 0.08682669
赛季 -0.053883675 -0.17408074 -0.19742803 0.1919502 0.32757697 -0.6784453 -0.3193977 -0.13597246 0.468292 -0.018082563 0.129062 -0.021644646 0.10545478 -0.19314365 -0.02546922 -0.26564345 -0.4498427 -0.362983 0.58871126 -0.17534798 -0.038300887 0.18173167 0.09550286 0.17087176 -0.5520306 -0.13022594 0.32132307 0.2306455 0.59566915 -0.59141916 0.1422729 0.15111071 0.32391506 0.15611778 0.5909214 -0.28909886 0.13373505 0.24592955 0.56035215 0.21862574 -0.7799845 -0.5430909 -0.6856799 -0.4625435 -0.26418456 0.3146904 -0.01518585 -0.5855377 -0.3033815 -0.04034977
就是 -0.0062016253 -0.15323022 -0.2343163 0.25650215 0.21530329 -0.80450517 -0.14318451 -0.018328346 0.22375964 0.103851944 0.25221297 0.16425568 0.051549904 -0.35475427 0.16801962 0.05855198 -0.1761293 -0.44569007 0.38120532 -0.05391516 -0.11359178 -0.26545623 -0.08816008 -0.7256339 -0.49250987 -0.03567064 0.18405782 0.25476342 -0.11634562 0.17368516 0.345967 -0.20757295 0.18360348 0.29595792 0.22365598 -0.05930595 0.25423583 0.16970891 0.21696408 0.43676826 0.16235591 -0.2086166 -0.22013165 0.06747523 0.39932013 0.12101158 -0.31170964 -0.20039986 -0.079584666 0.0903168
可以 0.13130583 -0.06597158 -0.4746089 -0.041133743 0.017597577 -0.7754815 -0.12540036 -0.11565774 0.5336494 0.14540194 -0.004697577 0.10448487 0.09795312 -0.13238667 -0.119556986 -0.16498823 -0.1873573 -0.42081198 0.33252952 -0.1312574 -0.10413041 -0.058842316 0.31756184 -0.40310755 -0.48299715 -0.041522533 0.30716914 0.17491773 -0.16225427 -0.09830331 0.16002317 -0.19675721 0.15715851 0.06589434 0.28961688 0.084996276 -0.06100228 0.103445604 0.3311262 0.10096678 0.14153168 -0.22542432 -0.09167048 -0.023799088 0.4574909 0.13145703 -0.49875188 -0.4988191 -0.08719285 0.20087336
又 0.00088735606 0.04821064 0.12222349 0.0389047 0.19402458 -0.27318522 0.10681468 0.098980874 0.49664256 -0.14353175 -0.10087766 0.37228116 0.1642149 -0.20992474 0.103806734 -0.09908779 -0.44815588 -0.29268217 0.21165733 0.023251364 0.13608596 -0.015979802 -0.13570587 -0.60892045 -0.146153 0.2721595 0.15777066 0.2989552 -0.08411871 0.09738977 0.122410804 -0.1511398 0.25806606 0.13425504 0.20824471 -0.24249591 0.35630813 -0.34192652 0.3576671 -0.5119643 -0.07800276 0.16885522 -0.36145395 0.14351435 0.11823948 0.11398634 -0.4912604 0.11231329 -0.1570161 -0.07884738
禁区 -0.0014307986 0.05246907 0.9218347 0.29048833 0.56454694 0.016887216 0.096961565 -0.0014880799 1.0954677 -0.1643377 0.21626337 -0.20037551 0.7279827 -0.64304054 -0.25379714 -0.22153632 -0.7395356 -0.6656142 -0.2628417 -0.07911334 -0.14718981 0.89677584 -1.1586835 -0.15335117 0.6793867 -0.64976263 0.05545621 0.5841315 -1.0639591 -0.21283661 0.035554357 -0.033349995 -0.40820685 0.21533108 -0.027681787 -0.70306426 -0.11589802 -0.12299121 0.6939381 -0.508127 -0.63417083 0.7181794 -0.17975491 -0.29112393 0.71213377 -0.12845625 -0.6235261 -0.021448718 -0.35067397 -0.8048435
地 0.08803137 -0.30105105 0.26943484 -0.09024825 0.055497028 -0.38681337 0.40241215 -0.14371589 0.45535332 -0.33160305 -0.089630336 0.2463133 0.18781202 -0.064294174 -0.124721974 -0.13975182 -0.01984223 -0.63351953 0.11637776 -0.14622074 0.06283465 0.12079435 -0.0048802523 -1.0658796 -0.4485578 0.1662177 0.07948771 0.16396108 -0.36168972 -0.07676839 0.3118697 0.020878552 -0.2029546 0.061576106 0.14084497 0.13519004 0.27193192 -0.15979736 0.21961397 -0.27631202 0.01722553 0.11376398 0.042343114 0.22975889 0.43459156 0.2608964 -0.45723403 -0.0139640635 -0.31456774 -0.21436226
胜利 -0.07785515 0.40254116 -0.45131585 -0.008474339 0.044856437 -0.315716 -0.23720258 -0.1857591 -0.020635469 -0.68948096 0.40013826 0.03537495 -0.38670486 0.27241436 -0.50415295 -0.5349215 0.224028 -0.40472978 0.34877908 -0.0997841 -0.31431577 -0.26177913 -0.31999582 -0.7283387 -0.8664127 0.3316381 0.43851316 0.1248233 -0.19352059 0.24703754 0.22047138 0.19885029 0.3444105 0.5667692 0.40357518 -0.29001233 0.8968865 -0.73168665 0.47224817 -0.31806397 -0.12701884 -0.96975815 -0.15875825 -0.04955734 0.3141964 0.3208333 0.29491174 -0.68083924 -0.1361116 0.29259178
现在 -0.13539739 -0.22002533 -0.41095015 0.10020669 0.19860952 -0.84822625 -0.074605964 0.04295368 0.37553418 0.13331284 0.227299 0.23504713 0.33826104 -0.3293343 -0.17741166 -0.27891132 -0.35232905 -0.28967696 0.23658893 -0.028277755 -0.048935592 0.0024870052 0.38227224 -0.6602172 -0.4537778 -0.13800621 0.27473962 0.04859746 -0.038972918 -0.21257333 0.24990925 -0.05811115 0.3919406 -0.058445282 0.47018623 0.14925325 0.031533178 0.3707864 0.30767316 0.13198383 -0.02219291 -0.5881535 -0.39963865 -0.12602076 0.4121607 0.3502474 -0.56659085 -0.53889644 -0.1106 0.25238582
表示 0.12401474 0.03185869 -0.07149023 0.09133604 -0.1498512 -0.48954383 0.15978308 -0.15500294 0.20436713 -0.23965374 0.045414336 0.090572536 -0.3133981 0.25153348 -0.34130025 -0.058104914 0.062097013 -0.69974846 0.3070966 -0.018927887 0.00412945 0.29444182 0.27379444 -1.0306485 -0.5875604 -0.33413327 -0.08384165 -0.17816074 -0.342772 -0.31434047 0.09425249 -0.16619584 0.08564628 0.016086128 0.041135505 0.22497128 0.34666106 0.07039544 0.54708767 0.031206928 0.1501885 0.03525562 -0.14074317 0.02891612 0.5680488 0.56598777 -0.05811065 -0.6399776 0.16322935 0.14951593
虽然 -0.16477524 -0.26585722 -0.15703528 0.046967573 0.09089106 -0.38817555 -0.16188183 0.16124469 0.381666 -0.013086945 -0.026152786 -0.18436538 -0.14111948 0.03899817 -0.17013869 -0.111552514 -0.052999254 -0.3765713 0.19479573 0.043789368 -0.28871158 0.007904554 -0.13400522 -0.4998423 -0.622037 -0.18649255 0.2614831 0.16509178 -0.21472998 -0.18166137 0.03317331 -0.015619256 0.16593397 0.18983349 0.05755516 -0.09829764 0.26374057 -0.3216884 0.17770576 -0.046500724 0.027123237 -0.31808445 0.18177356 -0.055026386 0.046599023 0.466885 -0.23482075 -0.1074597 0.26182488 -0.1163241
比分 0.16564628 0.30833015 -0.17463724 0.070024215 0.49816802 0.25999847 -0.23918168 0.53613716 0.8204118 -0.55061615 -0.5595361 -0.38386962 0.13575782 -0.2731263 -0.8348948 0.20699403 -0.6012586 -0.5759682 0.29263264 -0.17459902 -0.52182466 0.10295765 -0.19456987 -0.047513217 -0.47218773 0.53720903 0.3762759 0.71523 -0.3173341 0.036525697 -0.5447541 -0.36263204 0.05573709 0.35160094 0.2687678 -0.75384164 0.31191352 -0.84460545 0.25353152 -0.9257238 0.23103629 0.36144564 0.356652 0.62141216 0.50143135 0.6498894 -0.1869718 -0.27006376 0.19371966 -0.03401852
最终 -0.26002738 -0.1109297 -0.350233 -0.18481512 0.11638636 -0.30917367 -0.14794219 0.42759857 0.5582794 -0.21588507 -0.49087444 -0.06683825 0.013649765 0.21069668 -0.60168105 -0.044862714 -0.42793176 -0.12678854 0.62578607 -0.035678294 -0.5281718 -0.22446923 -0.40498388 -0.41186973 -0.31973255 -0.10725278 0.29316708 0.44010124 -0.26041582 -0.15621394 -0.17470989 0.06025549 -0.30734685 0.19455872 0.17647348 -0.16503955 0.3291614 -0.8721431 0.14115533 -0.18172139 0.38487038 -0.05058872 0.32277685 0.46685123 0.23991327 0.29439777 -0.1243676 -0.101477906 0.35794586 -0.18995258
世界 0.2810194 0.49566242 -0.33119348 -0.58337384 0.6022718 -0.53624356 -0.3525972 0.5513048 0.46221977 -0.8159583 -0.13872774 0.2854598 -0.9592188 0.1323718 -0.55537176 0.08231956 0.5597352 -0.33146408 0.38064134 0.076828934 -0.012224704 -0.16929068 -0.31606156 -0.35965395 0.14805949 -0.47877494 0.5073674 0.5778648 -0.26114568 0.14636636 0.49180332 0.07688301 -0.09190654 0.004870864 -0.015626352 -0.018615 0.34050533 -0.7085273 0.077756576 -0.7418031 0.50917745 -0.43954107 -0.15719083 -0.6439807 0.60130715 0.01781631 -0.4231542 0.3797892 0.50822705 -0.42538658
这场 0.10983661 -0.31504267 -0.039229333 -0.17783542 0.24743654 -0.5641146 -0.03625403 0.16979948 0.05902343 -0.4907736 0.22168186 -0.016958058 -0.37496147 0.029992133 -0.2500753 -0.03958237 -0.030780694 -0.6904809 0.50492316 0.04882083 -0.15233706 -0.04190071 -0.08864854 -1.0354097 -0.77169657 0.29499063 0.15846267 0.26727095 -0.21294822 -0.037486926 0.46299392 -0.16848914 -0.30265525 0.18028848 -0.18686372 0.09312342 0.47837207 -0.45291135 0.13081299 -0.167599 0.26012334 -0.32287276 0.30291814 -0.1583883 0.509405 0.119995296 -0.21799178 -0.36450475 0.14218113 0.3328679
上半场 0.0045883334 0.23036905 -0.11511867 0.41989294 0.22891153 0.15348484 -0.069692746 0.30447832 0.6761356 -0.68029785 -0.21774602 -0.2985199 0.028919157 -0.053296216 -0.6109251 -0.5427788 -0.66902083 -0.46458593 0.1316018 -0.3165609 -0.44881305 0.71972096 -0.22315668 -0.46038464 -0.26387417 -0.09411592 -0.08610742 0.27906024 -0.85975105 -0.2107325 -0.5996703 -0.52725464 -0.59806865 0.17422707 -0.26884693 -0.7098687 0.25605068 -0.561112 0.85927975 -0.72954684 -0.34434125 -0.087265514 0.29084498 -0.12423048 -0.03136644 -0.22265103 -0.35597795 -0.59675986 0.5739047 0.033544086
一次 -0.34280562 -0.05858688 0.087792516 0.27468866 0.100082114 -0.2987059 -0.041778408 0.36434248 0.5388917 -0.23028858 -0.36317277 0.31222275 -0.08546593 -0.04017279 0.44256088 -0.24333753 -0.2572918 -0.28194654 0.21167694 0.057521448 -0.14130276 0.2518695 -0.38002047 -0.6631025 0.031552423 0.0738167 0.22812301 0.51768076 -0.21648495 0.43006483 0.013752281 -0.056087166 0.108355105 0.5571757 0.12476855 -0.46558782 0.24407978 -0.49276805 0.56712484 -0.18254176 0.052740697 -0.038366605 -0.21597624 0.008048229 0.2810779 -0.18859133 -0.7067639 0.2250573 0.013013799 -0.02118583
麦迪 0.5442247 0.03035295 -0.4933147 0.2846983 0.17916468 -0.5021342 -0.2575044 0.004986495 0.543531 -0.47746924 0.19412723 -0.12337129 0.00024333876 -0.037902113 -0.3106541 -0.65763736 -0.4331833 -0.5781653 0.033081736 -0.39514858 0.13723691 0.072685435 0.3078635 -0.7259817 -0.036880676 0.21140927 0.09928326 0.012460964 -0.5668308 0.16878353 -0.6026471 -0.29180858 0.78803957 -0.4621767 -0.091888525 -0.3999402 0.3844637 -0.6106278 0.9013542 -0.06400636 -0.746318 -0.23044235 0.20625134 -0.020997947 0.23844309 -0.1626625 -0.66138446 -1.2003611 0.15561059 0.79172456
本场 -0.089834034 -0.2141636 0.06830383 0.26314238 0.4015152 -0.087215506 0.042611454 0.36333272 0.050524376 -0.19802277 0.06741302 -0.359142 -0.060981 -0.16396211 -0.25515896 -0.02397888 -0.43937135 -0.41339615 0.45519647 -0.13849804 -0.29172903 0.21956803 -0.3154174 -0.5335332 -0.486566 -0.029286826 -0.08294568 0.28948343 -0.18289791 -0.08973457 -0.043450724 -0.309597 -0.38899857 -0.12533288 -0.6852852 -0.27148008 0.49228218 -0.24620005 0.3348746 0.13539945 0.22434287 -0.15993251 0.15878214 -0.46024814 0.42266595 0.09387283 -0.19372772 -0.4771066 0.028299747 0.46750915
对于 -0.16428119 -0.077316634 -0.24081759 0.1440552 0.14048809 -0.38386887 -0.0062036375 -0.02522643 0.04862044 0.13629732 0.048086207 0.046592914 -0.47396877 -0.10323515 -0.15426442 -0.025266098 0.031286843 -0.5612428 0.6163954 -0.10620889 -0.11341737 -0.2020942 -0.12710226 -0.99317044 -0.5353041 -0.11502395 0.27937827 -0.0494272 -0.3185573 -0.1435853 0.06131641 -0.12862965 0.14838867 0.36765912 -0.031837527 0.06303442 0.54741645 -0.09102953 0.14194013 0.28366923 0.1386216 -0.3816956 -0.03681735 0.15761994 0.3652889 0.42254257 -0.029155709 -0.3377199 0.33706138 0.09410929
如果 -0.079805106 -0.4159954 -0.3490304 0.19299948 0.11781133 -0.6613627 -0.18190123 0.23672745 0.5337134 0.15517452 -0.021361746 0.17961979 0.33464682 -0.08173786 -0.1409768 -0.10945653 -0.31065258 -0.33767587 0.39076445 -0.16967097 -0.23223554 -0.009526847 0.09133754 -0.6788184 -0.5487459 -0.04601771 0.3039407 0.19610174 0.0017314351 -0.15043132 0.1180514 -0.057086002 0.20660324 0.089396924 0.32102373 0.09741051 -0.074892215 0.073544316 0.14875418 0.006540134 0.16955087 -0.24342413 -0.119681194 0.0675495 0.19845289 0.3564186 -0.48713854 -0.2685333 0.13031657 0.08509595
21 -0.34542358 0.36991635 -0.0698708 0.2713252 0.43990588 -0.029490894 -0.70374864 -0.06148042 0.09882697 -0.7545038 -0.17991276 -0.3314542 -0.79314846 -0.13004091 -0.16374731 0.2816509 -0.33310175 -0.62363255 -0.25413692 -0.43883225 -0.5962365 0.30100426 -0.4244874 -0.23890269 0.07623772 -0.62866586 -0.05881648 0.19118002 -0.13632706 -0.7649147 0.73614174 -0.38844258 0.15082054 0.59400845 -0.041340355 -0.40217957 0.063800424 -0.35250968 0.16873695 -0.99348134 0.1924948 -0.5738381 -0.27152848 -0.5121597 -0.3049848 0.17851663 -0.29314014 -0.47553912 0.038771816 -0.9945069
队 0.23127085 -0.17123985 -0.75516194 -0.08669022 0.19975995 -0.4984018 -0.6709639 0.365763 0.095502384 0.083118014 -0.070626706 -0.5137571 -0.063919775 -0.54043686 -0.44889438 0.3010896 -0.7492519 -0.055990912 0.27206987 -0.10873275 -0.34263378 0.07842445 -0.21430495 -0.30848935 0.02824274 -0.051236194 0.30779502 0.089003555 -0.15259597 -0.10586198 0.63298255 -0.22656724 -0.3186958 -0.36993706 -0.30274022 -0.47148415 -0.471754 -0.060022987 0.22040114 -0.37607834 0.44962826 -0.46078014 -0.34344378 0.05915341 0.6759337 0.023230486 0.01981664 -0.19220783 -0.29613325 -0.25289756
却 0.14671282 -0.12929554 0.07008988 0.21979342 0.004011894 -0.32384995 -0.063513644 0.19915408 0.4488249 0.10825913 -0.08170254 -0.26388016 -0.123600535 -0.26035148 -0.06891458 -0.009903585 -0.059907716 -0.43259203 0.27466342 0.11390405 -0.209577 0.14800645 -0.28950676 -0.5624803 -0.37365445 -0.25268552 0.36534953 -0.117606476 -0.46514803 -0.1546389 0.1189347 0.038180847 -0.06649597 0.14535409 -0.10899937 -0.050248355 0.23966818 -0.29264322 0.24258079 -0.14307636 0.003158073 -0.25205818 0.119943224 -0.052081086 0.15327844 0.5858444 -0.42077866 0.18500912 0.12168945 -0.0712529
本赛季 -0.24908754 -0.20116395 -0.45113197 0.13624604 0.4942034 -0.58576995 -0.54975885 0.033116587 0.19112636 0.03248769 0.16996314 -0.40813687 0.044239547 -0.08728339 0.034651022 0.017333116 -0.4594826 -0.23438758 0.68130875 -0.15514381 -0.24129352 0.23860787 -0.17819864 -0.19721775 -0.51893294 0.18579832 0.16535875 0.39162967 -0.068560265 -0.23206282 0.15637788 0.07838949 0.31379133 0.28664893 0.07692156 -0.58087426 0.18121004 -0.21865678 0.3088903 0.16710432 -0.25365746 -0.38767388 -0.4312402 -0.167392 0.05854757 0.3824201 0.034940585 -0.38609573 -0.36315873 0.021106713
她 0.18699457 -0.27503973 0.2140734 -0.32018393 -0.14820865 -0.45440367 0.28164324 0.06807957 0.53104067 -0.65825534 -0.053016413 0.2035338 -0.24037665 0.20142646 -0.27475902 -0.2758945 0.37742278 -0.6663329 0.060084455 0.15827858 -0.09614428 -0.1384282 -0.3103231 -1.0388757 -0.071548656 -0.09654159 0.2460277 0.3881907 -0.33941868 -0.23620006 0.32399124 0.13027877 -0.104790516 -0.1879857 0.5060117 0.54953885 0.21145703 -0.22165343 0.21638533 -0.1598292 0.021541068 -0.24348223 0.012740898 -0.353986 0.5411764 -0.10643273 -0.5353704 0.21794857 0.067198165 -0.19059056
世锦赛 -0.55654824 -0.07480551 0.0690311 -0.36234865 0.9861276 -0.8370915 -0.52528805 0.51558006 0.7546365 -0.95871603 -0.26865864 0.5055004 -0.5957751 0.17293602 0.016084902 -0.28994772 0.27299073 -0.37085572 0.3374083 0.3435538 0.7892785 -0.1374464 0.38225168 -0.5715105 0.06402807 0.1265471 0.27592596 0.5360266 0.5607472 -0.28304708 0.5481302 0.36172676 0.5428972 0.052414168 0.666526 -0.053324714 0.24612796 3.8541926e-05 0.16947383 -0.21203952 -0.19989368 -0.109199874 -0.53261125 -0.9845956 0.21567695 0.20516747 -0.3964957 -0.7762591 -0.23804542 -0.37214547
武汉 0.560323 0.56516355 -0.22711545 -0.93191826 0.6307338 -0.7057643 -0.18538925 0.39505112 -0.19448206 -0.72608346 0.26301968 0.20780383 -0.6607364 -0.24063136 -0.50297934 0.413713 0.09444249 -0.83285075 -0.11239757 0.23379204 -0.24615405 -0.6279141 -0.28132477 -0.40066326 0.04742659 -0.5589367 -0.06957231 0.14633723 -0.6816767 -0.6325596 0.84016174 -0.58824724 -0.56150997 -0.1467362 0.45098957 0.04190927 0.36198482 -0.6258211 0.2524695 -0.81829834 0.43918702 -0.5639246 -0.073626265 -0.20861198 0.44498497 0.10229422 -0.019953478 -0.35794145 0.54975486 -0.62231517
6 -0.059525646 0.12673335 -0.32727164 0.67175007 0.091163166 -0.16211833 -0.7456156 -0.49014318 0.38469926 -0.6109107 -0.32046908 -0.018569723 -0.3543412 0.20064037 -0.40233356 -0.30014035 -0.4183288 -0.59344375 0.3824203 -0.15069123 -0.7908231 0.27877042 -0.26667663 0.044559926 -0.09734043 -0.40341818 0.24998806 0.35394654 -0.17127442 -0.3379287 -0.46036878 -0.3727825 0.14578283 -0.027178364 -0.23996359 -0.26768854 0.41084802 -0.35952136 0.47885013 -0.5146207 -0.08104421 -0.32431185 0.09053732 -0.17238866 -0.42572016 -0.15859547 -0.37256575 -0.47288272 0.18634097 -0.120088786
进入 -0.069055445 -0.028363774 -0.8090078 0.058328662 0.40208137 -0.40466282 0.5290943 0.8865086 0.40128088 -0.46775046 -0.17730603 0.4937071 -0.048350096 -0.1672375 -0.3136207 -0.3852727 -0.2617132 -0.3066011 -0.103017904 -0.037468925 0.3614387 -0.31224552 0.38366106 -0.36489058 -0.2083633 -0.3053083 -0.031919252 0.65629303 0.6766659 -0.6234532 -0.01519031 0.037522297 0.1944066 -0.15180694 0.37927446 -0.59626234 -0.08221646 -0.14542347 0.8694304 -0.19041432 -0.22929774 -0.24968636 -0.4686425 -0.3905797 0.28659418 0.24856985 -0.10099752 -0.49920583 0.49646088 -0.016563734
11 0.056154117 0.37023464 -0.54791325 0.7923186 0.14961968 -0.1837211 -0.8310144 -0.2592608 0.2303365 -0.39033395 -0.59205896 -0.4426896 -0.2437342 0.04664002 -0.2610541 0.040064752 -0.4000638 -0.5857842 0.44765538 -0.11737495 -0.80952615 0.14327829 -0.32639527 0.20049985 -0.33898443 -0.27227452 0.16482279 0.44548678 -0.12089993 -0.5122211 -0.3214119 -0.28403658 0.108971365 0.11893711 -0.31008607 -0.6408857 0.26208755 -0.3378006 0.46973538 -0.29740953 0.081768095 -0.52686524 -0.065487415 -0.45749912 -0.26279804 0.19290154 -0.20418233 -0.3451936 -0.18622957 -0.3981601
不是 0.012304204 -0.56225646 -0.3047959 0.13934797 -0.074445404 -0.74194384 -0.20007876 -0.10064741 0.438825 0.4396853 -0.12769932 -0.0025396997 -0.04213292 -0.43957826 -0.042757384 -0.4876875 -0.10524359 -0.560685 0.33591366 -0.24937378 -0.2438362 0.22393027 0.095480435 -0.8896325 -0.44037917 0.0045485008 0.43040898 0.0069559137 -0.39942604 0.08677519 0.28082895 -0.18725502 -0.0012170007 0.41477743 0.21194567 0.13831505 -0.07167891 0.11260808 0.34259105 0.5534367 0.19129083 -0.4080426 -0.045465447 0.108101636 0.3974031 0.15469123 -0.6595895 -0.31452805 0.21590698 -0.02012641
火箭队 0.4452611 -0.04943194 -0.7075262 0.034288704 0.15109387 -0.52017254 -0.16356017 0.20552626 0.266975 -0.5695214 0.23150578 -0.24860823 -0.056217294 -0.059795372 -0.1319135 -0.66282904 -0.523327 -0.60890704 0.19622955 -0.15096654 0.13135861 -0.21531142 0.36199102 -0.5537137 -0.26847693 0.52636623 0.45498103 0.1688868 -0.27501234 -0.10532417 -0.39804623 -0.04022381 1.1206609 -0.53344554 0.08274119 -0.2572579 0.36780903 -0.8511687 0.59559536 -0.096779004 -0.51077104 -0.22306222 0.0068557253 0.10833153 0.14160344 0.23235922 -0.6526595 -0.56406647 0.15319218 0.42498216
得分 -0.07874178 -0.16352925 -0.15101282 0.50027806 0.24254958 0.0005249839 -0.43341312 -0.0343699 0.7538619 0.054278657 -0.1920149 -0.40332776 0.3002729 -0.3223836 -0.09351026 -0.3287674 -0.54372084 -0.42683327 0.45401737 -0.46054852 -0.28234893 0.32665235 0.04296629 -0.20693825 -0.035952773 -0.03303915 0.21904306 0.20022346 -0.3468754 0.426262 -0.546053 -0.074858904 0.713064 0.2816115 0.12081299 -0.5901972 0.15528207 -0.2881467 0.4795914 0.15254009 -0.65331244 -0.2787813 -0.053200286 -0.14756401 -0.07826378 0.21227439 -0.5330158 -0.6121996 -0.10070777 0.09107687
选手 -0.31697345 -0.55517286 0.30411476 0.048098635 0.5623313 -0.075662024 -0.24773248 0.7277448 0.52877617 -0.6584672 -0.6502886 0.21432254 -0.725794 -0.029235383 -0.43177438 0.15166707 -0.14163588 -0.3374442 0.66938263 0.07217934 0.08846181 -0.45251247 -0.15021154 -0.817567 0.6903911 0.077008575 0.5352949 0.7452999 0.5048085 -0.25749007 0.21337156 0.3834574 0.57576895 -0.29345295 0.17279884 0.090402335 -0.09410455 -0.33945596 -0.44425857 -0.052323923 -0.098113924 -0.16872811 -0.26996303 -0.56270295 0.18054944 -0.053177424 -0.12198699 -0.19807072 -0.0021591042 -0.76167417
位置 -0.18665844 -0.042781048 -0.029124418 0.11201396 0.12645999 -0.057334978 0.00082505494 -0.34227905 0.36897063 0.4485155 0.16050725 -0.10470519 0.25542462 -0.49345624 0.011190892 -0.22711547 -0.6054658 -0.362581 0.7832727 -0.004673126 -0.25576666 -0.08459695 -0.2940179 0.08153052 0.15385346 -0.74566746 0.23459025 0.5661183 -0.5664274 0.05103234 0.0757063 -0.43266317 0.2754889 0.115192756 0.06870685 -0.039461665 -0.36949244 0.4525659 0.68046844 0.4794949 0.07766712 0.05006467 -0.41215977 -0.2267216 0.72194797 0.2830449 -0.2444619 -0.0278566 0.35867366 0.020733304
因为 -0.1845669 -0.43223953 -0.024345506 0.19306768 0.10520892 -0.59622294 0.037902363 -0.023767622 0.39249054 0.22707139 -0.047028106 0.21206963 -0.006962754 0.000983644 -0.040481076 -0.17655697 -0.12039209 -0.40320492 0.5275034 0.06808047 0.045472562 0.15947673 -0.045675013 -0.9823372 -0.2964667 -0.20023216 0.43025175 0.18428151 -0.17718749 -0.12866712 0.0863713 0.13973784 0.1763188 0.08842366 0.17166942 0.14526059 0.19247915 0.078773 0.19909182 0.21153045 0.0577786 -0.2610957 -0.22852403 -0.04121231 0.30014765 0.2815857 -0.49653918 -0.052112695 0.108885735 0.009772364
最 -0.09481598 -0.21831213 -0.22554433 -0.16954778 0.4371934 -0.35748327 -0.022319118 -0.034142613 -0.027285757 0.22467849 0.14761196 -0.06712014 -0.4403764 -0.20780732 0.10970397 0.0019230199 0.20045002 -0.5585478 0.3906063 0.06778688 0.039322257 -0.2351 -0.12251302 -0.5563481 -0.26423985 -0.04832254 0.5233593 0.18529737 -0.17989515 0.28293005 0.42333588 -0.06805213 0.702801 0.45374396 -0.0007193061 -0.21449392 0.4997528 -0.18734187 0.056041963 0.09734763 0.1275558 -0.4427106 -0.49601954 -0.25733286 0.32678214 0.45402965 -0.36198777 0.005309945 0.27795053 -0.09375107
领先 -0.21312788 -0.2539011 -0.40331528 0.21697454 0.35875997 -0.06141744 -0.39473256 0.36482444 0.9945092 -0.5063298 -0.14288248 -0.30102274 0.22417697 -0.02492913 -0.71063507 -0.13228895 -0.54906476 -0.16817938 0.51013166 -0.36776793 -0.39239234 0.34101447 -0.019282445 -0.39415514 -0.4521404 0.51654214 0.31893557 0.35783213 0.19519153 -0.24749407 -0.36661056 0.19140415 -0.04895685 0.25545368 0.11574084 -0.6075656 0.37599784 -0.80143064 0.62427753 -0.5489216 -0.43057382 0.013356695 0.1399327 0.16750163 -0.38086545 0.33940676 -0.046645474 -0.55247957 0.0075481664 -0.42018974
客场 -0.0007583314 -0.19122645 -0.58162516 -0.04964099 0.3808983 -0.4833588 -0.6848785 0.30861217 0.2361806 -0.19812183 0.46592894 -0.6683097 0.07251755 -0.3029764 -0.37006634 -0.0077660265 -0.8249031 -0.40606794 0.4659272 -0.12171521 -0.5724579 0.043427706 -0.1339922 -0.11597992 -0.8148176 0.3336026 0.40363142 0.24552959 -0.03918734 -0.51905733 0.6148983 0.011035592 -0.20433997 0.14142255 -0.19789715 -0.45861694 0.111762345 -0.69816786 0.13059306 -0.36234543 -0.21873146 -0.742535 -0.1800997 -0.14021029 -0.14530192 0.36992115 0.08018649 -0.13991114 -0.35060298 -0.56713456
来 -0.13623747 0.13353774 -0.3363131 0.15582515 0.010746848 -0.5911829 0.07622504 -0.05385195 -0.07419186 -0.12992847 0.28153485 0.4148787 -0.013955451 -0.29032487 0.05656543 -0.34679887 -0.09952998 -0.50386643 0.06687093 -0.021763729 0.030096505 -0.1979873 -0.066219576 -0.72731525 -0.35960892 -0.21392071 0.09689464 0.056996413 -0.31147745 0.1383997 0.40361923 -0.22440411 0.16114464 0.16447689 0.26058608 0.029123066 0.36121124 -0.047082324 0.27051044 -0.119518675 0.25164825 -0.3033691 -0.26245645 0.10489145 0.5805941 0.3598315 -0.3876419 -0.3039723 -0.005193761 0.23441663
状态 -0.18743 -0.5401095 -0.2543154 0.08927433 0.33951113 -0.43015724 -0.1468796 0.37546676 0.7447928 0.08694436 0.012156032 -0.13173229 -0.22526874 -0.27252612 -0.2576658 -0.37160555 -0.2870935 -0.33689773 0.6430821 -0.25147384 0.19912763 0.2512682 0.17494822 -0.9100118 -0.3647706 0.37063086 0.34673518 0.2880489 -0.11250185 -0.15018964 0.17033897 0.2970286 0.14362839 0.0036052605 0.20190391 0.06235254 -0.17258926 0.006717892 0.24589132 -0.14534183 -0.06847281 -0.25919533 -0.17867285 0.08642609 0.34704754 0.11857974 -0.28528965 -0.18744336 0.016343532 0.18164006
曼斯 0.6696859 -0.043862015 0.40503997 -0.43656045 -0.34106675 -0.04887904 0.86953247 -0.5255106 0.34213898 -1.0219475 0.39640045 0.36597916 -0.052758522 0.096832246 -0.78959465 -0.5281944 0.8262388 -1.6106309 0.108952686 0.18297231 -0.4201907 -0.26439184 -0.4998167 -1.1998467 -0.35049137 -0.47107318 0.06737343 0.0099820895 -0.71880865 -0.19746208 0.3326139 -0.3272235 -0.25862747 0.05753691 0.42559212 0.3169726 0.86382645 -0.55394906 0.21970612 -0.23164172 -0.4161 -0.48065257 0.23868403 -0.64570975 0.7006819 0.3200203 -0.30622166 -0.057183463 0.5201905 -0.48052922
结果 0.20597692 -0.06120572 -0.27576765 -0.18940474 0.22201815 -0.7631598 -0.1190062 0.26714143 0.30332232 -0.16359599 0.0009760536 0.15340398 -0.09179869 0.09192635 -0.3741653 -0.017921846 -0.14389318 -0.33638033 0.4035564 0.20667078 -0.21516296 -0.3743957 -0.26144966 -0.58132 -0.5593727 -0.118029065 0.17516802 0.18670216 -0.31694308 -0.31952855 0.17702726 0.028251477 -0.3635165 0.029734049 0.29090837 -0.055365644 0.42714334 -0.28689018 0.32414067 -0.021021595 0.43439358 -0.13094269 0.100941546 0.28156888 0.43969873 0.25035542 -0.045395903 -0.23737751 0.20006801 0.18145241
战胜 -0.2967438 0.0030592103 -0.711942 -0.12592548 0.3999893 -0.07167616 -0.42632252 0.4976205 0.44024196 -0.34313524 -0.25267822 -0.18096031 -0.20620419 0.3288515 -0.44341284 0.06986001 -0.23731153 -0.040665716 0.78317255 -0.30558634 -0.4590517 -0.024536893 -0.33482185 -0.5199011 0.0073303776 0.04751805 0.3358475 0.43007424 -0.2275584 -0.035092313 0.41766483 0.24001415 0.058351763 0.4614945 0.12507984 -0.41401365 0.4446916 -1.0335475 -0.2947722 -0.35592815 0.034040168 -0.55454814 -0.19659972 -0.10994876 -0.12644029 0.69931704 0.3188732 -0.21864475 0.044371728 -0.77481693
00 -0.026028343 0.26639473 -0.13525556 0.62920135 0.48404506 0.011928097 -0.29054424 0.6587555 0.47047505 -0.59717077 -0.24393147 -0.26394632 0.36909553 -0.6560053 -0.7626822 -0.4340139 -1.1277188 -0.5131674 -0.08560454 -0.5195066 -0.6066347 0.4192851 -0.13919283 -0.3609606 0.02635152 -0.19625501 -0.16164 0.038199343 -0.677457 -0.243984 -0.32636544 -0.8779224 -0.65149736 -0.27550283 -0.5114496 -0.5184783 0.08614855 -0.4086705 0.6917417 -0.65767956 -0.079624474 -0.4003767 0.37261826 -0.1762788 0.034331985 -0.5956892 -0.6952064 -0.5445683 0.3737247 -0.17057358
7 -0.35013106 0.14197904 -0.35941586 0.74274254 0.56779695 -0.49835667 -1.0618405 -0.15313897 0.23240092 -0.31413236 -0.19952057 -0.07094093 -0.19086179 0.04590853 -0.26791215 -0.38707104 -0.53029346 -0.44418502 0.33642486 -0.22103736 -0.6838674 0.17621455 -0.1480711 0.10200289 -0.16782571 -0.28935018 0.20222178 0.26580977 0.0939912 -0.3167597 -0.15614127 -0.27413192 -0.0017980665 -0.04172562 -0.42266116 -0.32073376 0.44056424 -0.19630809 0.5847627 -0.276187 0.15331441 -0.5832159 -0.09164231 -0.3489415 -0.287401 -0.3079267 -0.15028699 -0.59091526 -0.36183244 -0.008857407
可能 0.40438905 -0.3961985 -0.22584477 0.08610611 0.2435023 -0.7283109 -0.08732702 0.08020054 0.39416555 0.19498181 -0.020498604 0.5726284 0.3170327 -0.19486658 -0.19138327 -0.024311004 -0.22385295 -0.6199357 0.46634275 0.043164566 -0.41883108 -0.3441306 -0.05585024 -0.39035204 -0.36997914 -0.0108140195 0.2836499 0.34551173 -0.08376587 -0.31001619 0.110588 -0.26000535 0.34117156 0.22230263 0.526423 -0.11636448 -0.2740676 0.07198013 0.16432722 0.18982187 -0.15070865 -0.44625404 -0.075211324 -0.08278757 0.096961774 0.3093358 -0.27240813 -0.19394475 0.29465038 0.11456631
把 -0.23619655 -0.22862306 -0.057129685 0.28889608 -0.16940086 -0.38394243 0.27245924 -0.058778755 0.5040661 -0.055294625 0.15110627 0.15186737 0.5374655 -0.24104674 -0.31765628 -0.07847764 -0.5634447 -0.38442275 0.18315886 -0.187626 -0.31971216 0.33455452 -0.039447796 -0.60668194 -0.48060003 -0.1381859 0.15040666 0.21023244 -0.2303007 -0.065840855 0.23433973 -0.16979533 -0.19932655 0.29421288 -0.058278225 0.042595886 0.2147713 -0.009830754 0.045683842 -0.025965262 0.2732113 0.052334182 -0.09328824 0.108590156 0.53623635 0.31600758 -0.321577 -0.078423254 -0.05086086 -0.2048901
次 0.054317147 -0.16626367 -0.076941974 0.5306877 0.29528 -0.21971035 -1.0527699 -0.28867307 0.724118 0.04740984 -0.3803597 -0.21222785 -0.25364217 -0.12616879 -0.21228203 -0.39893574 -0.16793782 -0.47262397 0.77464837 -0.5380514 -0.7507442 0.45322186 -0.12621213 0.061094467 0.14903688 0.054181986 0.399604 0.40262905 -0.19859035 0.06019917 -0.28292292 -0.16177544 0.2501223 0.1960559 0.040314674 -0.5443581 0.41999927 -0.6364718 0.33821386 0.09569671 -0.46036795 -0.95454395 -0.16408825 -0.6728795 -0.81975436 -0.12444984 -0.41725904 -0.94673496 -0.46282795 -0.08839834
得到 -0.08418695 0.10881211 -0.03119881 0.6143541 -0.18749437 -0.24151601 -0.123986855 -0.24725284 0.32150376 -0.20559345 -0.1784378 -0.033355266 -0.17442702 -0.053752154 0.22855331 -0.52609915 -0.092244804 -0.46571678 0.14158733 0.020120533 -0.09310009 0.3900158 -0.14903001 -0.36297414 -0.24130194 -0.2598794 0.18192613 0.17701289 -0.31196314 -0.09879398 -0.32661188 -0.047613442 -0.0055737123 0.108561486 0.26352623 -0.41389424 0.33737558 -0.07579599 0.82708144 -0.25346693 -0.37039694 -0.3939301 -0.26691216 -0.31758997 -0.10596861 -0.010756612 -0.4311149 -0.6067148 0.14213133 0.22316518
场 -0.19360876 -0.24616238 -0.509363 0.556782 0.39036188 -0.47959852 -0.78866094 0.3708488 0.14224626 -0.35154665 0.22059321 -0.0046699257 -0.28500885 0.04634702 -0.00877273 -0.5436591 -0.39349008 -0.54255795 0.68761164 -0.07617515 -0.5997939 0.30468106 -0.121593125 0.0072434032 -0.2942902 0.22613166 0.2980253 0.70502084 -0.08238607 -0.6055598 0.100045696 -0.17083089 -0.38857114 0.19053946 -0.072905384 -0.5551637 0.3311482 -0.46875045 0.398399 0.09901498 -0.3077402 -0.90812266 -0.31251177 -0.63875663 -0.33862418 -0.20078726 0.07525575 -0.7988046 -0.23185067 0.29960352
时候 -0.058571875 -0.19897352 0.07781223 0.0083018085 0.18750392 -0.5906175 0.0588207 -0.29792234 0.5015798 -0.3233291 0.110758595 0.19688234 -0.076231755 -0.00604605 -0.078426 -0.051444482 -0.07469955 -0.3241624 0.32268444 0.15204495 0.12928438 0.55865186 0.22107449 -0.74127126 -0.60141957 -0.18839437 0.054948967 0.30508265 -0.3559529 -0.10995153 0.06776841 -0.1274511 0.028710151 0.29545578 0.32629177 -0.02915215 0.4036335 0.27081686 0.49569088 -0.07795868 -0.21440074 -0.19846824 -0.16627695 -0.19669107 0.41487166 0.17845438 -0.37898716 -0.3240043 0.12980506 0.20015101
实力 0.16294342 -0.34397846 -0.64105546 -0.14784549 0.09802098 -0.46311066 -0.14987467 0.3407702 0.3535046 0.26049492 -0.23378761 0.14977552 0.032440536 -0.34719098 -0.45448267 -0.18506251 -0.22686833 -0.26300693 0.814766 0.19832902 -0.25833565 -0.4669837 -0.09211786 -0.5204105 0.0891228 -0.15471311 0.5438524 0.35192373 -0.3333982 -0.28175926 0.07203069 0.006089959 0.45105386 -0.15738164 0.09119323 -0.009837028 -0.15454286 -0.39614925 0.0076904935 0.52954817 -0.037039917 -0.43347716 -0.001141822 0.08689017 0.28720054 0.4587994 -0.15540114 -0.15932742 0.34635723 -0.13640378
图文 -0.909634 0.36953732 -0.46759018 -0.008635295 1.3983191 -0.5487134 -0.4573821 0.41517636 -0.14875475 0.020318523 -0.16294572 0.102850206 -0.5585812 0.3612932 0.18206666 0.33674914 -0.3343753 -0.3648051 -0.35730702 -0.40640938 -0.41217643 -0.2895698 -0.27455243 -0.6229362 0.5452275 -0.9129039 -0.2022054 0.2609005 -0.22801605 -0.4405559 0.84821945 0.30798584 0.46849284 0.6503296 -0.09547847 -0.9362439 0.74721855 -0.4304448 -0.0075027416 -0.21343966 0.31506342 -0.06831426 -0.5527406 -0.11097815 0.010262045 0.57610565 0.8457802 -1.1466401 -0.48429817 -1.2074751
取得 -0.19109583 -0.28385633 -0.53451955 0.16318375 0.2855889 -0.3757555 -0.6124076 -0.0029678647 0.578675 -0.46827525 0.03724961 -0.14773412 0.052455924 0.16433069 -0.258804 -0.29423633 -0.20309047 -0.32987794 0.71727914 -0.26278538 -0.5352108 0.1383305 -0.13798027 -0.42710555 -0.60055804 0.39508232 0.52278125 0.33805782 -0.05409069 0.16543171 0.14197719 -0.047497336 -0.09781533 0.45924643 0.16408674 -0.5190413 0.5058325 -0.74439096 0.35448498 -0.25363737 -0.11385184 -0.530141 0.06886852 0.09905592 -0.4917873 0.1531648 0.032621674 -0.4069593 -0.16657849 -0.28805932
奥沙利 0.04369183 -0.054164305 0.13807689 -0.10154852 0.5228749 -0.16864958 -0.15063728 0.9533436 1.1619632 -0.47303668 -0.39535335 -0.17873803 -0.7613897 -0.061313067 0.16522174 0.08866705 0.15287347 -0.48365107 0.44620633 -0.102192424 0.59697187 0.26716486 0.60007054 -1.5486941 -0.043992516 0.59582937 0.06385399 0.54317886 0.48916283 0.044210736 0.55117893 0.61307 0.9136251 0.012623222 0.11840245 -0.08863985 0.2612541 -0.5559163 -0.042117752 -0.76350635 -0.21993071 -0.020538414 -0.10055454 -0.53488815 0.10393294 0.04064422 -0.6981755 -0.86744654 0.19968557 -0.29047385
出现 -0.08865949 -0.19736633 0.22711313 -0.061569013 0.17372517 -0.05012611 -0.02337616 0.060016375 0.32368857 0.002563466 -0.17487532 0.007983756 -0.03596605 -0.17518955 0.16624668 -0.024860958 -0.10315756 -0.42786288 0.63457817 0.15555121 -0.00075172546 0.19628555 -0.3307346 -0.55307245 0.0438476 -0.2821994 0.14231186 0.358673 -0.15916696 0.03234599 0.03432864 -0.21561028 0.28896824 -0.06908939 0.0023239236 -0.2244523 -0.026260672 -0.23843895 0.52537423 0.0962113 -0.14991102 0.08862153 -0.07202618 -0.2198799 0.20283371 0.06250711 -0.32691246 0.025284184 0.26094067 -0.24350277
