6230 50
的 -0.28528997 -0.37620163 -0.22518054 -0.11953099 0.24581099 -1.2941309 -0.07337919 -0.45414656 1.1841804 0.26385772 -0.39052117 0.77406365 0.01838139 -0.13419248 -0.31995654 -0.26267618 -0.17589884 -1.188252 1.2121367 0.33628017 -0.06844789 -0.2398338 -0.459092 -1.5903332 -0.5317799 -0.35700193 0.5500347 0.72840977 -0.35899138 -0.33761695 0.3857587 0.29601178 0.33323863 0.12700647 0.32156542 -0.017752107 0.38472188 -0.17046814 0.545658 0.23296484 0.4188426 -0.22162469 -0.48217753 -0.28647408 1.0065858 1.0320588 -0.5575986 -0.08939428 0.13403888 -0.079326674
在 -0.79620284 -0.08966981 -0.37994766 0.24998096 0.3382118 -1.4002681 -0.660957 0.031795267 0.9227593 -0.09627883 -0.44814608 0.46220034 -0.6191569 -0.025135556 0.040594053 -0.57718754 -0.6505344 -1.1373951 1.090645 0.42899182 -0.2635601 0.065939814 -0.69424766 -1.1231736 -0.38784987 -0.21994668 0.5569895 0.9332551 -0.037900493 -1.007726 0.4153214 0.5055621 0.26432094 0.15870611 0.10702316 -0.66435987 0.34249705 -0.5059694 0.76223546 -0.035061873 0.46664637 -0.119893454 -0.6987995 -0.38725334 0.40873834 0.6090938 -0.15375206 -0.081869386 -0.19429325 -0.7991589
了 -0.45212317 -0.56033015 0.2025349 0.18745837 0.05189639 -0.8703102 -0.42522433 -0.32312748 1.5201364 0.11629764 -0.37236062 0.5709406 0.32794297 -0.8218359 -0.5536167 -0.3817185 -0.06679724 -1.402476 1.5946313 0.16816413 -0.5385971 0.35942712 -0.66853243 -1.4298171 -0.5364755 -0.12432367 0.8344591 0.62214285 -0.45836383 -0.22986786 0.2769128 0.07143435 -0.44403523 0.378476 0.2496374 -0.03815792 0.3520937 -0.22512816 0.62893826 0.06047984 0.2341656 -0.4276275 -0.033473376 -0.16188572 0.8428203 0.38205823 -0.9762709 0.16531378 0.18058662 -0.21305737
比赛 -1.3784378 -0.4535742 -0.39862067 0.177797 0.281549 -1.2953731 -0.9628914 0.48048863 1.0884587 -0.1418474 -0.3803336 0.6333832 -0.6864494 -0.60034627 -0.22359861 -1.1835706 -0.987345 -1.5283968 1.9070197 0.6386649 -0.2899687 0.05648134 -0.6987496 -1.8718761 -1.0938749 0.5579409 1.2531008 0.8419598 0.102376424 -1.228359 0.21535921 0.60446656 0.2543289 -0.18746535 0.59224117 -0.23533191 0.3179797 -0.8541242 0.6909527 0.2685051 0.48975575 -0.91286963 -0.5631317 -0.13331415 0.42571652 0.3450808 -0.32342413 0.36062258 0.19044885 -0.2630408
是 -0.14262348 -0.6742964 -0.33310345 -0.32530922 -0.08508734 -1.8141097 -0.35571244 -0.6712701 1.3197054 0.5928531 -0.22112797 0.7514909 -0.44585755 -0.2524116 -0.11124258 -0.2072752 0.1531735 -1.4299474 1.2029026 0.39151633 0.0855874 -0.09489908 -0.084851906 -2.258014 -0.715815 -0.098521575 0.61126125 0.39274156 -0.49609596 -0.05739293 0.65896374 0.29377398 0.36398152 0.15093334 0.76442987 0.48292425 0.2669479 0.25116 0.63674587 0.90848494 0.35017172 -0.17133734 -0.21334893 0.11927294 1.2864405 0.91544956 -0.5888353 -0.7541145 0.31653604 0.6524573
和 0.26671925 0.43492132 -0.14944097 0.01862299 0.47965226 -0.9205389 -0.4205268 -0.27751353 0.9949115 -0.26805407 -0.35678294 0.16615148 -0.598614 -0.091408476 -0.34121042 0.045547336 -0.12790132 -0.8571126 0.51574814 0.053449854 -0.12651451 0.15850419 -0.26248175 -1.2630229 0.3371369 -0.8061315 0.046619844 0.3904432 -0.46289495 0.10950688 0.45484936 -0.19504026 0.54423434 -0.118838966 -0.0101809185 -0.069292165 0.33847505 0.067198366 0.79066104 -0.057608746 0.00097262167 0.29021177 -0.43511823 -0.3999891 0.7369178 0.6124482 -0.24954888 -1.507061 0.12395033 -0.14764562
也 -0.06721888 -0.79933006 0.22901927 -0.17255516 -0.18701963 -1.3324997 -0.19489418 -0.8493249 1.658642 0.4450507 -0.07885653 0.7429763 0.28690487 -0.56940424 -0.4982533 -0.3274642 0.27644843 -1.6289363 1.5207733 0.2666839 -0.2735399 0.08551753 -0.5021592 -2.240809 -0.7870061 -0.3368164 0.937696 0.47535396 -0.75105363 0.2367787 0.3850086 0.13528705 -0.027236557 0.26489186 0.71488917 0.5491483 0.37642112 0.22811097 0.6083554 0.50632226 0.12390269 -0.4898566 -0.031084487 -0.01538755 1.4311132 1.0162134 -1.0806073 -0.19135442 0.3688658 0.5923661
他 -0.16744868 -1.032088 0.41787615 -0.144368 -0.44937295 -1.4583913 -0.25729373 -1.061602 1.9093778 0.3946241 0.19242455 0.48556384 0.0649174 -0.6232374 -0.46072832 -0.6580904 0.13663283 -1.5569726 1.4605521 0.14293548 0.02570051 0.6694841 -0.49410462 -2.594035 -1.1955435 -0.033289287 1.1208684 0.58576256 -0.7428688 0.36969766 0.33844456 0.34267923 0.15055798 0.43209165 0.57093066 0.13220221 0.6586206 0.08455802 0.82072437 0.3632816 -0.042349927 -0.43366665 -0.1952491 0.09034639 1.3996043 1.3910594 -1.3029833 -0.4072607 0.007241499 1.0209749
说 0.9207211 0.8999708 1.7978797 -1.0017235 0.09565889 -1.9683682 -0.7013035 -1.8015486 2.3758764 -0.9798734 0.51652205 -1.0068046 -2.1668139 1.1063628 -0.520986 0.3637226 0.14286801 -0.8505811 0.32661775 0.08698205 1.3197324 1.4018972 -0.96799237 -3.5655088 -0.5919959 -1.2548132 -0.10109146 1.1415377 -0.783588 1.7427273 1.3464406 0.76656675 1.1393299 1.4098159 -0.081186906 -0.6947821 1.608154 0.44401354 0.8747593 -1.1087677 -0.061952304 1.8984399 -1.2374932 -0.66681135 1.8530439 3.251208 0.20085534 -2.9363685 -1.0182548 0.23094423
中 -1.1789297 -0.4546555 -0.8579495 0.4264063 0.41283256 -1.5003252 -0.9534746 0.3633777 0.78394157 -0.3248168 -0.64922094 0.46442732 -0.9528763 0.15335435 -0.09272081 -0.722211 -1.197407 -0.95171314 1.4525492 0.36672643 -0.26626167 0.1344983 -0.6371008 -1.1099795 -0.78392285 0.11059616 0.74504477 1.1654595 0.31888136 -1.4294441 0.094736084 0.39440736 0.095569365 -0.2336747 -0.049650718 -0.7603985 0.63028246 -1.3533318 0.43906265 -0.034997303 0.42472854 -0.56185585 -0.53716266 -0.56937134 -0.14399895 0.26631886 -0.28475976 -0.1476516 0.013644934 -0.48514828
将 -0.4313266 0.3608816 -0.5344608 -0.034741092 0.74101865 -1.2883276 -0.41384047 0.35182446 0.6859947 -0.23474912 -0.84950435 0.76880723 -0.48604035 -0.031005375 -0.17482512 -0.01851756 -0.36970127 -1.3414843 1.1498225 0.4565713 -0.6180902 -0.6090009 -0.64600486 -0.81013995 0.40266544 -0.81642956 0.2106056 0.7412967 -0.076873384 -1.1816057 0.52796704 0.018783247 -0.040324554 -0.3502088 0.450283 0.017708048 -0.0056011747 -0.53506494 0.5386263 -0.070337914 0.5746811 -0.010577702 -0.46552926 -0.46839082 0.7657022 -0.022637732 -0.015402416 -0.4615357 0.5550411 -1.1495564
我 0.13718031 -1.3724233 0.8334489 -0.928265 -0.7605801 -2.4790895 0.27009287 -1.889841 2.744485 0.8719607 0.49231356 1.2343934 -0.0050671753 -0.4332486 -0.5616111 -0.54132664 1.018643 -2.595967 1.7693295 0.43105793 0.33382607 0.26591808 -0.5209411 -4.4549084 -1.5667808 -0.521854 1.2010002 0.58454007 -1.3024805 0.6177419 1.2377044 0.58491385 0.12036966 0.6884594 1.3363185 1.1905388 0.6580375 0.7459359 0.8847221 0.93678504 0.23043628 -0.439075 -0.24414787 0.19827937 2.894625 2.2973235 -1.548657 -0.6879028 0.44939205 1.4709044
都 -0.1364039 -1.3081759 0.1334656 -0.12250262 -0.29135558 -1.6361636 0.00021155778 -0.9847942 1.9462353 0.9142392 0.10885226 0.9662634 0.55428845 -0.94329256 -0.5374814 -0.5104339 0.18004212 -1.9049476 1.6989198 0.22266555 -0.23342206 0.25278628 -0.33903995 -2.9344606 -1.1546887 -0.12690844 1.2067844 0.48025927 -1.0513293 0.1940098 0.5125991 0.06570229 0.045392532 0.30382788 0.8380842 0.6427099 0.19435123 0.4330327 0.85499465 0.81717455 0.106519245 -0.7724245 -0.06812298 0.1833267 1.8696407 1.2708967 -1.5899255 -0.09608171 0.4204007 1.1255374
火箭 0.54127395 0.508417 -1.7807304 0.35674044 0.89819187 -1.7990817 -1.3496201 -0.28625268 0.9557513 -0.821784 -0.12593587 -0.5893196 -1.4181489 -0.44380412 -0.30195233 -1.0528185 -2.053215 -0.29772365 0.101632595 -0.36616322 0.5135156 0.90587974 0.6366568 -2.3096619 -0.45137537 0.3061854 0.48690557 0.216597 -0.65610415 1.1551206 -0.052120123 -0.23200136 2.5309074 -0.47508654 -0.7129187 -1.7362765 1.5943254 -0.9469414 1.6305387 -0.15426475 -0.6461456 0.3094837 -1.0907859 0.35077396 0.2816707 1.8432186 -0.46943116 -3.6518416 -0.5725319 1.4926656
吧 1.491208 1.7950228 1.4939498 -0.9607293 0.2958148 -1.7912297 -0.7844151 -1.6362405 2.162337 -2.0007212 0.31115526 -1.4474441 -3.2326283 1.7605529 -0.50027114 -0.014329499 -0.16367093 -0.72427046 -0.54468185 -0.2979081 1.2494832 1.3702323 -1.3849989 -2.783683 0.34870481 -1.9314823 -0.6792121 1.5374182 -0.5436634 1.8060808 1.4066288 0.51206243 1.5459846 0.7886895 -1.0848345 -1.7003083 2.394089 -0.49496073 1.6184033 -2.2877316 -0.085810825 2.5842721 -1.433819 -1.0897466 1.4227136 2.6786156 0.5893887 -4.5992336 -1.5262496 -0.42296192
搜狐 0.8921265 2.2225075 -0.5881338 0.989905 2.3421748 -0.6033007 1.390959 2.1100924 1.042437 -1.0333765 -0.391691 0.7552815 0.09640286 -2.2714906 -0.8249391 0.57360506 -1.7116681 -1.2218791 -0.20406054 -0.8906443 -0.38917404 0.34401432 1.5729271 -2.3580759 3.3404174 -3.3284802 -0.8322998 -0.66600317 -2.33075 0.44489607 1.3343899 -3.3275602 0.2487225 -2.1170015 -1.5640055 0.6214361 -0.33580065 1.7514141 3.661032 0.17372927 -1.2550207 0.23695321 -0.7545948 -0.114833325 2.8620906 -0.9143757 -2.1939757 -5.293741 1.3114343 1.2091079
上 -0.38202778 -0.31687516 0.060930002 -0.50011915 -0.055289187 -1.5880566 -0.43354827 -0.651704 1.1748339 -0.057225056 -0.297355 0.66583407 -0.4746571 0.3431766 -0.15187323 -0.28275394 0.13706458 -1.3228878 1.1673139 0.48671597 0.014836766 -0.23422928 -0.75301665 -1.7467831 -0.44065303 -0.57811576 0.6727248 0.69759333 -0.18506093 -0.5407545 0.44225323 0.48295954 0.13210985 0.035334535 0.77321225 0.14797941 0.5871442 -0.43511835 0.39282054 0.14734799 0.24955401 -0.027027672 -0.43091178 -0.21913941 1.0346719 0.8760695 -0.26098922 -0.28374952 0.32920063 -0.3817923
但 -0.3345045 -1.0959755 0.2071957 0.1646983 -0.11983354 -1.1099344 -0.38901424 -0.6820063 1.731906 0.55603284 -0.18564697 0.68746126 0.6449002 -1.025446 -0.6664069 -0.56526446 -0.018021904 -1.7142475 1.7796646 0.084625356 -0.6716915 0.4060329 -0.722562 -1.925959 -0.90285796 -0.076211944 1.2292705 0.6122899 -0.77826583 0.025137378 0.18846415 0.020489568 -0.31042933 0.3472656 0.44217214 0.1469325 0.33882275 -0.078696586 0.7356525 0.33578345 0.16145797 -0.7238319 0.07012319 0.025438134 1.1008798 0.7331328 -1.328353 0.28014445 0.3127478 0.2286749
分 0.33110425 1.6206663 -1.6370667 2.0868082 2.3943515 0.09861739 -1.7111621 1.5963392 1.7995766 -1.5617379 -1.5870769 -0.87498814 -0.32086167 -1.5823928 -1.2814484 -0.6225713 -2.2899473 -0.54069483 1.2130564 -0.9431974 -1.8983579 1.1087918 -0.40181452 0.2563568 1.6560004 -0.9401467 -0.13811728 0.6926992 -0.8872806 0.37232032 -0.74289167 -1.8372607 0.4981887 -1.2003742 -1.7645208 -1.8523296 0.9735842 -1.0774496 2.485949 -1.0393704 -0.68057853 -0.17880346 -0.35803485 -0.9250383 -0.646139 -0.8402167 -1.246332 -4.0029507 0.029571813 -0.36496267
我们 -0.15690587 -1.5582451 0.180134 -0.36180946 -0.5611409 -2.1855776 0.01198609 -1.3613687 2.3542213 0.9602132 0.25119275 1.2156389 0.43780994 -0.86150795 -0.56880486 -0.77514863 0.3583314 -2.3865852 2.0276487 0.33888876 -0.17950673 0.23760104 -0.4097227 -3.656899 -1.6086323 -0.131952 1.4358374 0.5299422 -1.2403442 0.28088906 0.6778412 0.29894045 0.01619636 0.3726318 1.061995 0.78426725 0.49891227 0.35461673 0.9615919 1.1190102 0.13029173 -0.91327614 -0.06851089 0.34444186 2.250889 1.6550235 -1.671253 -0.29014802 0.50905037 1.421386
有 -0.15922317 -1.2532301 0.22927174 -0.12867264 -0.30667722 -1.3096216 -0.11636184 -1.0142072 1.7957749 0.7202832 0.017648794 1.0104995 0.6292203 -0.9831002 -0.6010307 -0.5127678 0.4237684 -1.9458486 1.6380135 0.15561388 -0.48440233 0.06665232 -0.38461486 -2.3060536 -0.9731818 -0.15079634 1.1672183 0.3461539 -0.90656626 0.095509596 0.43526077 -0.012730817 -0.16796373 0.31723368 0.7796971 0.6292354 0.2583894 0.1791699 0.6469638 0.67891234 0.056041244 -0.95601565 0.17743827 0.056337234 1.3368932 0.88323504 -1.3501662 -0.04582731 0.5726675 0.57420063
姚明 1.0839924 0.5388573 -0.7874505 0.6389137 0.3631935 -0.9998451 -0.66200197 -0.7739823 1.8500236 -0.695622 0.050586276 -0.973161 -0.5654371 -0.7315841 -0.61760974 -0.8786096 -1.4827193 -0.068385445 0.2569565 -0.53471905 0.42157972 1.6243713 0.35956663 -2.2438757 -0.35118756 -0.19647059 0.33192062 0.09692766 -1.3692776 2.1862886 -0.4801826 -0.49741116 1.9975963 -0.28308174 -0.97511077 -1.432263 1.3969536 -0.049605936 2.1587353 0.1541171 -1.0573713 0.8042888 -0.8881883 0.57830215 1.006549 1.9130365 -0.97625065 -3.6706295 -0.5454728 2.2730954
这 -0.2122516 -0.9306766 -0.14050518 -0.16538979 -0.14763781 -1.8314438 -0.40968156 -0.751771 1.5979164 0.6349198 -0.054551776 0.6473961 -0.029736875 -0.3749361 -0.34582093 -0.42480448 -0.039898075 -1.4947412 1.6350118 0.32498685 -0.088327296 0.27817282 -0.28114012 -2.4537947 -1.1410505 0.09169377 1.0192165 0.60228205 -0.5792139 0.12803967 0.3764277 0.35511363 0.32489187 0.32583562 0.7944427 0.30009422 0.33159527 0.1362765 0.77143276 0.605864 0.24336101 -0.3707752 -0.24223131 0.17255585 1.4113214 1.215234 -1.0567315 -0.3960772 0.17217362 1.0212281
第 -1.430337 0.47659427 0.6067328 1.8208507 2.0791817 -0.07247855 -1.3394126 1.2494481 1.7335397 -1.2222155 -1.146442 0.017346615 0.34918654 -1.6281049 -1.1681064 -0.5698855 -1.65393 -1.9675572 2.3259792 -0.72789365 -2.537977 1.3943712 -2.3295176 0.39494297 1.1196071 -1.287931 0.7235132 1.9005477 -0.50432223 -1.3499947 -0.08483483 -1.3528067 -1.7304487 0.14598595 -1.5662788 -1.7320677 0.30951938 -1.2364616 1.9290491 -2.303441 0.20718992 -0.69001997 -0.5634027 -1.7688441 -0.17401062 -1.670958 -1.8597527 0.16929972 -0.23401943 -3.031896
与 -0.17310748 0.5172719 -0.7489875 -0.17071408 0.6807737 -1.4940643 -0.6887574 0.022744818 0.7400937 -0.47858053 -0.53333765 0.3612672 -1.3063921 0.26862976 -0.11409498 -0.26892754 -0.6327758 -0.97834307 0.6276325 0.29550648 0.057795916 -0.20565937 -0.28123492 -1.5178031 0.11149223 -0.605297 0.1829878 0.5935098 -0.12937592 -0.5377578 0.6416423 0.14665613 0.787191 -0.25410762 0.1398366 -0.34441823 0.5881002 -0.644167 0.6762672 -0.15740858 0.27248096 0.17134567 -0.72441405 -0.45140964 0.54375094 0.7761733 0.07945458 -1.4268835 0.13660267 -0.5541057
没有 -0.34134656 -1.3485502 0.56302917 0.031140525 -0.38748562 -1.2496816 -0.15245575 -1.0771067 2.2760642 0.71392685 -0.072008915 0.8232187 0.8449961 -1.3498142 -0.8365137 -0.7710498 0.15668324 -2.0474012 1.9651133 0.10230604 -0.5409727 0.6855083 -0.73554224 -2.5410569 -1.252082 -0.020448813 1.4648705 0.5950086 -1.0694613 0.1734093 0.25354794 0.07518255 -0.4485774 0.616479 0.53343135 0.29923585 0.4525366 0.0414239 0.93074304 0.5402858 0.11000854 -0.7857421 0.08053802 0.13569094 1.5487301 1.082516 -1.709079 0.3747727 0.36538148 0.45673886
4 -0.6655164 1.0996354 -1.2372973 1.0954375 2.4818656 -1.3122772 -1.4807658 1.2203358 0.7407172 -1.6392229 -0.9466142 0.965889 -1.3357273 -1.161675 -0.91983813 -0.46524844 -1.7336879 -2.5127666 0.8363851 -0.36532363 -1.728431 -0.25324002 -0.5947026 -0.9075907 1.6727946 -1.7274535 0.17978686 0.9490586 -0.0873493 -2.0155122 1.3144336 -1.6742134 0.19982545 -1.1424123 -0.79677695 -0.72489625 0.6019338 -0.99099934 1.7055495 -1.6052235 0.1748517 -1.39046 -0.9396421 -2.0829449 -0.5199919 -0.8005484 -0.95041424 -2.7686274 0.41305807 -2.480098
球队 -0.23053807 -0.68676215 -0.44223404 -0.039703164 0.07568814 -1.5108294 -0.5557778 -0.36579674 1.4240699 0.4944473 -0.41849673 0.90238285 0.1757276 -0.5969967 -0.41930318 -0.4661463 -0.042404562 -1.7225877 1.7523506 0.29214808 -0.6735378 -0.26244393 -0.49443302 -1.8395746 -0.5927534 -0.21173206 1.0761162 0.46711048 -0.55181724 -0.4103324 0.16479498 0.1468066 0.02939854 -0.13242713 0.83484465 0.43780786 0.12403592 -0.22563347 0.6551975 0.7542634 0.26920396 -0.6328653 -0.01881511 0.07641731 1.1798649 0.52871025 -0.86156565 -0.12954067 0.5786437 0.1838902
分钟 -1.3714067 0.7016009 0.6682421 2.3120441 1.9089141 0.570595 -0.9602129 1.6117176 1.8550638 -1.2831676 -1.1706207 0.23884267 1.0975308 -2.3026335 -0.96382457 -0.6003718 -1.4656897 -1.8429201 1.9064448 -0.49800092 -2.6639364 1.5525943 -2.2618625 0.9489427 1.7546084 -1.2372972 0.8122576 1.8785722 -0.66721094 -1.7875324 -0.08474575 -1.2085979 -2.1587164 0.33352152 -1.6763127 -2.4259477 0.08158033 -1.1168277 2.3605359 -2.4354627 0.24722153 -0.5135961 -0.7981289 -1.6466023 -0.37782556 -1.5482787 -1.8586038 0.10334301 -0.7145591 -3.0745294
新闻 1.863184 2.7830348 1.783979 -0.991537 1.1566215 -2.1909754 -1.0594478 -1.7829951 2.6049993 -2.3505168 0.15419368 -1.8906888 -4.1908984 2.1910918 -0.8496391 0.5834294 -0.36013553 -0.76425964 -0.74887973 -0.3635157 1.3006053 1.9308558 -1.5777723 -3.6627734 0.7768623 -2.7180846 -1.2373847 1.6841042 -0.8918909 2.4184728 1.6213747 0.4596844 2.2001998 1.1316638 -1.3642311 -1.9689488 2.7669892 -0.121812 1.9141476 -2.7724643 -0.20107356 3.4254334 -2.0047548 -1.4185612 1.7133312 3.7404757 0.97930354 -6.0984917 -1.6795107 -0.7302752
就 -0.52726334 -0.9917663 0.1681836 0.016717909 -0.1063613 -1.2751563 -0.37721872 -0.61945385 1.4369034 0.32870346 -0.018826012 0.89521897 0.32221124 -0.6779811 -0.500433 -0.5948261 0.043570463 -1.6900815 1.569105 0.21331854 -0.4340164 0.1843679 -0.62512493 -1.8991106 -0.96873665 0.00045554264 1.0426346 0.7208891 -0.42906708 -0.43645713 0.5021518 0.20607597 -0.2802549 0.32238397 0.55582726 0.1189035 0.37589622 -0.15316853 0.5235036 0.13402855 0.17503445 -0.899715 -0.10133255 -0.18336512 0.9305722 0.80506814 -1.1202055 0.36136344 0.19020015 0.004080764
被 -0.38874322 -0.20482062 0.101200506 0.9024411 0.60967606 -0.17589359 -0.3751881 0.25844032 1.4112589 -0.06098479 -0.63196427 0.21838607 0.7033239 -1.3901577 -0.67663705 -0.31937668 -0.74724257 -1.1518272 1.3470688 -0.23829722 -1.0170584 0.80998176 -0.8637558 -0.60214794 0.17316115 -0.3376887 0.6642913 0.75440717 -0.63794386 -0.30142736 -0.09792143 -0.53454816 -0.5885626 0.12262844 -0.5126766 -0.67275435 0.063235216 -0.23220347 1.1753758 -0.47023758 0.14981087 -0.28970763 -0.15349261 -0.29185492 0.466383 -0.16116315 -1.2891454 0.008745829 -0.06704319 -0.6379735
对 0.0683377 -0.33681422 0.08737801 -0.5734604 -0.19947873 -1.8292495 0.12700689 -0.91836655 1.4814289 0.43978304 0.10285545 0.6794079 -0.5753911 -0.08349814 -0.10374653 -0.23788843 0.19863008 -1.3770427 0.94133425 0.3799796 0.4993431 0.0054048514 -0.07086106 -2.8477824 -0.72154284 -0.45957786 0.44097143 0.37730703 -0.8210363 0.19688669 0.77743226 0.3745584 0.5022138 0.2034954 0.7006961 0.49265257 0.4719503 0.41225216 0.7664351 0.7833807 0.1918316 0.14219998 -0.5090817 0.21931905 1.8549948 1.5084276 -0.6084459 -1.0017998 0.23494834 0.9314452
月 -1.1382457 1.8046148 -1.7742401 0.6564692 3.1100273 -2.7775166 -1.5430434 1.5048443 0.45683864 -2.3193502 -1.022477 1.7570281 -2.8668747 -0.5393309 -0.41144764 -0.6276957 -1.8696551 -3.5410707 0.29701573 -0.012808403 -1.2675095 -0.95831376 -0.4167686 -1.9558071 2.6147685 -2.8379734 -0.33852297 1.4013122 -0.04595399 -3.7034113 2.8198822 -1.6970458 0.71831036 -1.7366716 -0.06995107 -0.63394284 0.7310234 -1.3525436 2.0629675 -1.8041819 0.30205792 -1.6437175 -2.0699883 -2.9464293 -0.4211901 -0.42578438 -0.4778527 -4.675661 0.81095415 -3.5011308
而 -0.26051816 -0.48726368 -0.2368704 0.05794153 0.16906694 -1.1856705 -0.36060935 -0.30582207 1.2288048 0.22099046 -0.28442445 0.61261654 0.040715124 -0.5516253 -0.38068274 -0.38110456 -0.22875783 -1.3241884 1.2446954 0.15762633 -0.35230762 0.1303273 -0.38255793 -1.5878321 -0.39475712 -0.22247607 0.74434066 0.5161986 -0.5133928 -0.27254304 0.31655177 0.012563528 0.08920896 0.023714118 0.35388747 0.016333723 0.2930091 -0.15902314 0.7358021 0.2714746 0.13972868 -0.38900635 -0.19890639 -0.08360592 0.9124872 0.57403165 -0.84853286 -0.3511897 0.2833112 0.105492115
爵士 0.73607826 0.71312565 -1.8339691 0.6454569 1.076298 -1.3566965 -1.2855798 -0.10834982 0.9843391 -0.91847247 -0.2363951 -0.7340167 -1.0693575 -0.8077965 -0.54152954 -1.0402752 -2.2152948 -0.01865462 0.101458795 -0.47237733 0.17425941 1.027576 0.6487337 -1.9363341 -0.25877297 0.33036363 0.39882705 0.05775535 -0.9184349 1.516119 -0.50430197 -0.44254628 2.53193 -0.6380587 -0.9624046 -1.7764429 1.5911193 -0.9806066 1.770734 -0.032971375 -0.7890404 0.38363537 -0.95681787 0.492548 0.09597342 1.6620576 -0.56783116 -3.7686865 -0.53315246 1.6250879
后 -0.62827116 0.009825087 0.28960553 0.4907367 0.56268317 -0.47101828 -0.2255717 0.19786961 1.2004861 -0.4808435 -0.5943483 0.49595404 0.09513862 -0.6804955 -0.5660125 -0.44004047 -0.5812274 -1.3552287 1.4035181 0.093162134 -0.74080974 0.2838552 -1.0023493 -0.7810077 0.12956145 -0.6349845 0.5676756 0.80195904 -0.38499957 -0.7323425 0.07535444 -0.25990218 -0.6436938 -0.10070062 -0.2871878 -0.43164787 0.31184047 -0.58986396 0.86763936 -0.458546 0.12978129 -0.25714517 -0.35846323 -0.49896362 0.57065815 -0.15073308 -0.8122607 0.098650396 0.2539136 -1.0916684
到 -0.41545567 -0.11526048 0.010829555 0.6260713 0.28945115 -0.5627356 -0.036189027 0.1096405 1.1387964 -0.036697634 -0.38816327 0.4147841 0.39090246 -0.8930077 -0.3371325 -0.45081297 -0.5162408 -1.0496765 1.0680742 0.034257434 -0.5647037 0.4684598 -0.528412 -0.8836886 -0.020367455 -0.39850256 0.46659222 0.61723906 -0.52551794 -0.40599608 0.029748496 -0.29440567 -0.34738672 -0.08779264 -0.17110005 -0.38520822 0.15436882 -0.013694818 1.0494332 -0.090728894 0.09257353 -0.34595388 -0.37850654 -0.2218519 0.7338362 0.17328277 -1.1283276 -0.11639055 0.026993832 -0.16964193
自己 -0.091778584 -1.1072857 0.49189007 -0.5249433 -0.5825735 -1.8592887 -0.2400389 -1.3252945 1.9888434 0.4794072 0.23179461 0.7283716 -0.043990713 -0.5330975 -0.46581873 -0.63464504 0.3933419 -1.9138676 1.6131343 0.28869024 0.17676681 0.36738598 -0.49738288 -3.1564968 -1.3328843 -0.06716158 1.216306 0.59666246 -0.7786291 0.33535674 0.62835413 0.56280994 0.22340822 0.5207781 0.95071816 0.44082546 0.69949687 0.12450306 0.6835851 0.54757696 0.07124463 -0.40980598 -0.20244145 0.19122113 1.8153371 1.7270362 -1.1665527 -0.34208867 0.16805758 0.90595764
很 -0.16121334 -1.6179378 0.3828624 -0.2588276 -0.47951722 -2.2092247 0.0844796 -1.3623986 2.7042403 1.1230083 0.12827332 1.3327321 0.76002806 -1.2249931 -0.7194064 -0.5883583 0.50911325 -2.6315186 2.2789376 0.34444985 -0.24210273 0.37145942 -0.36488572 -3.8867521 -1.5050591 -0.28834924 1.5570495 0.49180424 -1.4747962 0.31487766 0.8471146 0.1610356 -0.28942 0.5054569 1.1294032 0.9983201 0.24064142 0.7127595 1.05952 1.153273 0.21272916 -0.900096 -0.042151947 0.32631025 2.5339284 1.5088875 -1.9431963 -0.13306892 0.5622527 1.2760612
他们 -0.19149478 -1.2430774 -0.08907085 -0.041245174 -0.24773131 -1.5522654 -0.61252624 -0.89301896 1.8052145 0.6183657 -0.0051299985 0.70308757 0.3531463 -0.892242 -0.6198283 -0.7399462 -0.07526389 -1.751354 1.7080078 0.13149378 -0.40404963 0.38081595 -0.45540607 -2.4623477 -1.2803328 0.21221916 1.3527383 0.51512754 -0.736288 0.1938304 0.27930304 0.2749862 0.11701186 0.34756467 0.6648667 0.17712694 0.5830327 -0.1265839 0.68969697 0.51073605 0.06677839 -0.8251976 0.058888853 0.1980451 1.1836742 1.2180403 -1.3134037 -0.14346159 0.17456461 0.7871973
让 0.09106983 -0.97732484 0.41509283 -0.22293529 -0.37585127 -1.3152443 -0.06888206 -1.2402529 1.912996 0.51838213 0.08672337 0.6675462 0.346695 -0.84267515 -0.6609156 -0.51681846 0.25735918 -1.7529061 1.5275815 0.14682801 -0.13662988 0.35401428 -0.45392677 -2.6603835 -1.0267327 -0.14874496 1.1102293 0.40615204 -1.0069871 0.52827144 0.38941425 0.10832254 0.024273315 0.44943848 0.5249404 0.35431802 0.6484278 0.16164866 0.7285593 0.6013941 0.02089918 -0.41627324 -0.035620946 0.1809074 1.5799773 1.3633434 -1.24473 -0.29736888 0.2922841 0.79321694
1 0.29727954 0.6761792 -1.0271404 1.3690778 2.3118973 0.10261303 -2.3529882 0.9486508 1.774171 -1.2357987 -1.7750827 -0.24775219 -0.08579714 -1.6891125 -2.0714023 -0.36484355 -1.6773257 -1.6672112 2.2214293 -0.9004043 -2.7408793 0.52373827 -1.454745 0.16802868 0.9781524 -0.6536939 0.7009134 0.8631024 -0.41335094 0.26489395 -0.44236398 -1.3445113 -0.7423545 -0.5441173 -1.3809216 -1.0373646 1.2560184 -1.775817 1.0957931 -1.8848214 0.52641624 -0.6732908 0.69277906 -0.8337308 -0.9342806 -0.75715524 -0.8981274 -1.5510688 0.042475954 -1.924175
日 -0.9868221 2.0892572 -1.8953885 0.5548547 3.1148207 -2.8233688 -1.8920739 1.4589357 0.068593584 -2.6126382 -0.9503608 1.216529 -3.3792229 0.23955452 -0.2789026 -0.5434507 -2.205702 -2.747371 -0.056563098 0.031622797 -0.91662246 -0.71373713 -0.3967805 -1.5118864 2.2990756 -2.436765 -0.35854432 1.4875159 0.46443924 -3.3664987 2.3232543 -1.1891333 1.3586644 -1.52253 -0.54672825 -1.4332628 1.1338379 -1.66361 2.0031617 -2.222195 0.14925995 -1.0141438 -2.1700172 -2.9585447 -0.76528233 -0.19444573 0.04119431 -4.7259717 0.15575948 -3.482072
多 1.265656 0.054941345 2.93904 -1.9380196 -1.3641942 -0.12775382 1.2421706 -3.1325185 1.7672647 -1.4087061 0.8980333 1.2904205 0.39902705 -0.5004237 -1.8435454 -0.86023784 2.5729625 -3.6682458 0.71298856 0.38769776 -0.26107398 -1.5513117 -1.2319711 -3.1158879 0.2831465 -2.2708268 1.2000022 -0.40702042 -1.7107376 0.6625344 1.1141616 -0.58721894 -0.15784419 -0.1510775 1.0896294 2.2151613 2.0199769 -0.5242377 -0.42757002 0.08283667 -1.3992027 -1.0223408 0.7018427 -1.259311 1.4395643 1.3555474 -0.6108345 -1.0654535 1.4623111 -1.1049273
一个 -0.026120793 -0.75805825 0.1891444 -0.095052056 -0.11991215 -1.1887766 -0.13348657 -0.67042726 1.7109398 0.5025866 -0.17413767 0.6881187 0.36574018 -0.7588731 -0.5007752 -0.33663633 0.23612748 -1.6188215 1.5969058 0.1616662 -0.3702546 0.12863497 -0.5007718 -2.1393023 -0.70086265 -0.24514236 0.9528237 0.39731464 -0.8306093 0.18872975 0.3052163 0.07830737 -0.2000239 0.21128553 0.6824341 0.49521038 0.2989435 0.15978529 0.65501463 0.54642516 0.13654014 -0.44369847 0.010833251 0.1630639 1.4347949 0.8236718 -1.1119998 -0.13693978 0.39990047 0.56974757
时间 -0.86019284 0.5870093 -0.9803889 0.5105227 1.5330483 -1.6467762 0.07296654 0.9780113 -0.09634708 -1.0158304 0.065975584 1.6505079 -1.2225337 -1.0391496 0.004890816 -0.22293003 -1.1225259 -2.4500785 -0.04482029 0.011232945 -0.6039331 -0.6796297 0.47764888 -1.5719664 1.4330834 -1.4729662 -0.20271634 0.34965667 -0.19035941 -2.5245552 2.0925965 -1.4547286 0.23915984 -1.2041563 0.040577643 0.27237225 -0.21512891 0.11569843 1.5223657 -0.34001654 -0.042870887 -1.5561407 -1.4086804 -1.719197 0.23843671 -0.57996625 -0.93811643 -2.5869884 0.9614079 -1.3807456
季后赛 -0.20998354 0.22461922 -1.7679265 -0.116248704 0.70363945 -2.536257 -1.4735734 -0.45007303 0.5149572 -0.6871117 0.18907394 0.031377476 -1.9937733 0.27967793 0.11079142 -1.091295 -1.7216239 -0.5840862 0.17604005 0.18394558 0.87873346 0.4013248 0.5546618 -2.6545262 -1.0075575 0.4912365 0.592074 0.5296468 -0.044392295 0.18597862 0.47652832 0.45006946 2.7124715 -0.2565746 0.13650054 -1.4078038 1.426245 -1.0668241 1.0855179 0.01390874 -0.4289413 0.0092568565 -1.2607045 0.13767692 0.19822599 2.085467 0.057132863 -2.9312222 -0.47242504 1.1345319
对手 -0.24179767 -0.73503643 -0.29512477 0.3975345 0.20523308 -0.79775494 -0.66943866 -0.09468584 1.4885833 0.23517655 -0.4491542 0.34382924 0.43836248 -1.085602 -0.7315658 -0.5312322 -0.50251496 -1.2286603 1.7082585 0.0032631075 -0.77805483 0.4029925 -0.5361778 -1.359748 -0.637371 0.15493236 1.1157547 0.48791987 -0.56934327 0.07320247 -0.1488226 -0.056683723 -0.1690634 0.050654605 0.13621221 -0.113459416 0.38328034 -0.45694822 0.7109694 0.16834295 0.07731387 -0.5974222 0.17884427 0.08351056 0.61706305 0.43994692 -1.1580256 0.0027226973 0.2609272 0.25531518
不 0.081077665 -1.224242 0.75545233 -0.40847206 -0.56461674 -1.5478871 0.16828583 -1.4812262 2.3699038 0.7585882 0.2204711 0.9659062 0.6195527 -0.9729917 -0.7994032 -0.5484675 0.6260018 -2.1131864 1.6793263 0.11939528 -0.20410201 0.45811808 -0.4859361 -3.1352465 -1.2100785 -0.34305125 1.2064403 0.36920047 -1.2853328 0.5939408 0.589396 0.10619947 -0.18295066 0.5999856 0.7887985 0.7446259 0.4577695 0.5367009 0.9001708 0.74599385 0.023717515 -0.59432256 0.049205553 0.21367899 2.14663 1.5028167 -1.5534276 -0.2853517 0.46376643 0.9395625
以 -0.18317117 0.42810932 -0.9825433 0.7736313 1.5121266 -0.45184216 -1.8929597 0.7644712 1.4498919 -0.92618716 -1.4474248 -0.19412878 -0.57758504 -0.77216893 -1.2309608 -0.45659995 -1.3490908 -1.126563 1.8317126 -0.32896304 -1.549645 0.3289642 -1.1307961 -0.36771896 0.32813564 -0.21779186 0.6975511 0.95078075 -0.02912668 -0.12582454 -0.27849588 -0.33789548 -0.10509232 -0.25408342 -0.71396124 -1.0760605 1.023963 -1.654556 0.7645147 -1.2111596 0.47138664 -0.2970416 0.20858519 -0.56581336 -0.5927571 -0.16092713 -0.33189452 -1.1110948 0.040659793 -1.4259518
球员 -0.10654126 -0.66386527 0.23510326 -0.04151439 -0.103763774 -1.1533347 -0.0642937 -0.6435224 1.3741156 0.35948962 0.08662801 0.64175665 0.14272211 -0.73844546 -0.43954635 -0.3709697 0.0556518 -1.5008299 1.0682487 0.12692371 -0.17500353 0.32011086 -0.38038793 -2.051675 -0.48978782 -0.3670541 0.8147826 0.4105357 -0.75988823 -0.007987537 0.43827203 -3.209082e-05 0.032752883 0.17558411 0.38151783 0.23599738 0.28503475 0.19543786 0.75771606 0.3033842 -0.05068094 -0.44009054 -0.21208705 -0.09221534 1.2244178 0.84374374 -1.0531868 -0.39498806 0.26661712 0.3865142
为 -0.06851336 0.21405704 -0.41727105 0.30298808 0.7272424 -0.6252176 -0.5464951 0.19102505 1.0108418 -0.2038323 -0.73574847 0.45862356 -0.014621266 -0.64594233 -0.6335322 -0.22053014 -0.41234684 -1.172363 1.2067732 -0.029964276 -0.9233347 -0.14404418 -0.6157787 -0.69126433 0.31789094 -0.5163555 0.37972558 0.49708658 -0.40086666 -0.31425565 0.113087796 -0.3608596 -0.15636961 -0.28841254 -0.042515934 -0.09979861 0.30440667 -0.4779687 0.6594331 -0.13995352 0.30240548 -0.2503645 -0.036157608 -0.32495576 0.43846494 -0.026566643 -0.457872 -0.61579716 0.3750967 -0.67055625
直播员 1.2731903 3.0858126 -1.6010526 1.4260045 3.128965 0.06083528 1.3519136 2.2009563 2.0798805 -1.3734158 -1.4518964 0.16950019 0.22251706 -2.8519187 -0.60288596 0.1859634 -2.364325 -1.0889648 0.15155604 -0.6228949 -1.0918688 -0.2785306 0.6739838 -1.5282078 3.3912678 -2.3763304 -1.5893018 -0.5264602 -2.4311166 0.7893574 0.44624218 -3.365118 0.37759522 -2.3842027 -1.6363994 0.19788943 -0.5507762 1.1516188 3.6587949 0.41724128 -0.07195651 0.7046229 -1.652903 -0.40693766 2.4124527 -0.9947831 -1.7170608 -5.21354 1.0818491 0.2798317
还 -0.13727571 -0.79412717 0.39588097 -0.11828673 -0.21091756 -1.2936355 -0.06097156 -0.85362005 1.6773037 0.41037643 0.060874738 0.68782556 0.3055856 -0.6078518 -0.4951428 -0.43461373 0.19491854 -1.5413693 1.2920047 0.21082608 -0.14487767 0.24892789 -0.5242847 -2.2728405 -0.85476375 -0.36207396 0.8907173 0.5175818 -0.7844016 0.093639396 0.47905675 0.13404743 -0.1135724 0.29023895 0.5424456 0.38390186 0.39856577 0.25664335 0.6868141 0.38208553 0.08481828 -0.47185192 -0.12675616 0.016349563 1.4201254 1.1417421 -1.1623062 -0.15998825 0.2383665 0.47767797
已经 -0.33975762 -0.62848514 -0.019236656 0.0794277 0.049770653 -1.1604159 -0.35039303 -0.4052565 1.4634596 0.2847679 -0.23656261 0.6727287 0.30336368 -0.6953003 -0.47411874 -0.49303105 -0.07610322 -1.4790207 1.4875107 0.15926425 -0.42775205 0.14108159 -0.5659552 -1.7952405 -0.60732627 -0.19080569 0.8840109 0.5736932 -0.5370085 -0.2253676 0.30788162 0.12138714 -0.13475703 0.10026875 0.48971993 0.12523314 0.3416445 -0.08087371 0.7227156 0.28273663 0.110351935 -0.5961598 -0.114714764 -0.060174316 1.0421484 0.72180736 -1.0454187 -0.07067269 0.255514 0.13018967
3 -0.2954177 0.558442 -0.87941915 1.308342 1.9055204 -0.109278135 -1.9590802 1.0439945 1.466757 -1.0834284 -1.5650344 0.11485589 -0.016634244 -1.3544478 -1.5197651 -0.42783803 -1.3704711 -1.6076674 2.0233977 -0.54935396 -2.3993678 0.2568902 -1.379815 0.25261584 0.866126 -0.70127594 0.6965687 0.9571395 -0.1446137 -0.58385223 -0.21414502 -0.9997095 -0.779599 -0.51873046 -0.9757715 -0.8954986 0.74270695 -1.5147928 1.0583351 -1.4765257 0.4822699 -0.8684521 0.37106064 -1.0444801 -0.80822635 -0.96780765 -0.8388785 -0.89419943 0.1495713 -2.0508945
体育 0.96214676 2.251909 -0.94103044 0.28614336 2.1123195 -0.007326809 1.9473062 1.4229574 0.9052205 -0.82097566 -0.46442038 0.7473202 -0.22884981 -2.0144951 0.023253849 0.49136832 -1.1520778 -1.1134193 -0.76096934 -0.28349373 -0.042457633 -1.0865985 1.1158634 -1.6670575 2.4709148 -1.7416809 -1.7286327 -0.74952227 -1.584852 0.18571651 1.3256876 -2.4599683 0.11607164 -1.7558163 -0.57191306 1.1798574 -0.9009041 1.5215031 2.1363113 0.67660975 0.30105844 0.32622164 -1.4913552 -0.420077 2.1223252 -0.663897 -0.92113453 -3.789367 1.1642201 0.2212772
2 -0.009635855 0.7943054 -0.9531668 1.3250263 2.2214055 0.09968645 -2.021994 1.1828656 1.642157 -1.2777231 -1.8020667 0.044624947 -0.07854444 -1.5678439 -1.8280096 -0.36542335 -1.5227331 -1.7015188 2.1473207 -0.6976969 -2.6078017 0.26227233 -1.4246585 0.23670611 1.2204999 -0.92591333 0.6653329 0.85018474 -0.36034197 -0.2536118 -0.2702727 -1.2614032 -0.8513218 -0.6974349 -1.1992921 -0.8151466 0.9323694 -1.6379551 1.1369445 -1.6699983 0.53557664 -0.75766563 0.5297693 -1.0087947 -0.7473095 -1.031368 -0.85591704 -1.2518966 0.2569599 -2.1905315
中国 -0.34645322 0.57196134 -0.13985729 -0.58156455 0.6489821 -1.5021185 -0.24113323 0.07088479 0.50832987 -0.549654 -0.5113717 1.0461869 -1.2231722 0.6752951 -0.031847913 0.1502672 0.20127973 -1.554852 0.55260956 0.53224427 -0.027761437 -1.0542489 -0.56545097 -1.4526901 0.7112608 -1.3212564 -0.026194045 0.6260086 0.029811792 -1.3201863 1.2483584 0.18254499 0.14527306 -0.38050872 0.7461141 0.5526785 0.15544005 -0.26105565 0.31521448 -0.120491594 0.515447 -0.064420275 -0.64481044 -0.89196444 0.89893955 0.22042891 0.37001067 -0.96106327 0.6186358 -1.396868
防守 0.3758743 -0.34726623 -0.23963855 0.5028029 0.029951762 -0.72180086 -0.14079358 -0.5618852 1.8225987 0.19792044 -0.05730937 -0.23421274 0.37488753 -1.2301152 -0.50048333 -0.6386546 -0.7880475 -0.5983889 1.0388445 -0.1692088 0.02248259 1.1389716 0.093439996 -2.0190282 -0.5990084 0.11983473 0.74939823 0.12799941 -1.2073618 1.3066401 -0.43325204 -0.3050422 0.82558465 0.05235273 -0.28520846 -0.51266575 0.620483 0.18286519 1.4750879 0.5409829 -0.5483768 0.17547241 -0.37161073 0.5964345 1.2373523 1.1710218 -1.3359623 -1.3961716 -0.058112085 1.7139624
进攻 0.16315147 -0.29859287 -0.12106446 0.5614092 0.12857701 -0.52799356 -0.38832256 -0.42661047 1.7520832 -0.018704487 -0.1524851 -0.25887403 0.31164986 -1.2067283 -0.6004213 -0.64293325 -0.8025213 -0.6384224 1.0932336 -0.22818501 -0.16234471 1.1487019 -0.19345255 -1.6680572 -0.485102 0.09669643 0.8263175 0.30057183 -0.9939407 1.1009623 -0.4002086 -0.3225574 0.60145634 0.10372386 -0.40252364 -0.7199936 0.7057577 -0.11566931 1.3797113 0.16244504 -0.5134339 0.051343616 -0.3391625 0.34633172 0.8934073 0.95986956 -1.2960454 -1.1827376 -0.099686295 1.128792
女足 0.07005377 1.3760602 -0.26156586 -1.3994073 0.7004242 -2.7293258 -0.108429745 -0.30380386 0.75191385 -0.7594343 -0.94907755 1.5316949 -1.9798571 1.7577658 0.21393907 0.38616428 0.845718 -2.2394984 0.7252985 1.1419942 -0.06706055 -2.0373275 -0.93481374 -1.948645 1.2203207 -2.5520766 -0.27387664 0.6324794 -0.2893106 -1.5342028 1.4595511 0.49396664 0.27205935 -0.860624 1.5475606 1.2606049 0.27600858 -0.41688725 0.31401932 0.35583186 0.80784315 0.61025965 -0.87009114 -0.8297091 1.8477808 0.51660264 1.1562108 -1.8357396 1.2859087 -1.8583152
并 -0.12715995 -0.98268765 0.36678284 0.13428645 -0.2267761 -1.0089165 -0.15237631 -0.8011222 1.8668671 0.6086351 -0.02864952 0.71996534 0.7558169 -1.0816139 -0.7307003 -0.44977066 0.1691527 -1.6605566 1.6172352 0.11596568 -0.56765175 0.44785288 -0.69052553 -2.0997965 -0.90033984 -0.25846615 1.1548405 0.5153452 -0.90980124 0.34199223 0.20178892 0.021816785 -0.37984228 0.39998195 0.41706738 0.34336072 0.30116552 0.28855273 0.69704187 0.49665788 0.1167309 -0.6353164 0.16981094 0.08324578 1.4219347 0.93816173 -1.471017 0.23637652 0.35498706 0.55342495
主场 -0.5321141 0.43343723 -1.1068872 0.72292143 1.3759489 -1.1665509 -1.5910181 0.6723019 0.81610173 -0.91615874 -0.7958362 -0.09436263 -0.9911089 -0.47088483 -0.5849832 -0.69984144 -1.7876196 -0.9886732 1.0988944 -0.17452417 -0.76741725 0.38018656 -0.65013146 -0.74289 -0.041194987 -0.077505045 0.5311961 0.9059766 0.10073197 -0.715887 0.12323728 -0.27853104 0.4833841 -0.32045707 -0.7094536 -1.4322034 1.030348 -1.5419171 0.9678966 -0.93530375 0.2069528 -0.30177465 -0.6040994 -0.67506456 -0.47838697 0.30137387 -0.32254347 -1.4574246 -0.3338512 -1.0472662
时 -0.15456575 0.01583649 -0.0035668223 0.35567886 0.36068586 -0.7597626 -0.3061973 -0.1417605 1.1249881 -0.2288233 -0.31768686 0.2786775 -0.014841668 -0.5817738 -0.36925116 -0.29721743 -0.43277475 -1.0213617 0.83816016 -0.032805577 -0.4096246 0.46385998 -0.4357344 -1.1415253 0.0415219 -0.5091133 0.3732334 0.50356245 -0.50258404 -0.17316362 0.19183603 -0.3130134 0.0056518284 -0.039637893 -0.13653027 -0.31138438 0.31856817 -0.10470635 0.993665 -0.20720284 0.006673397 -0.11936329 -0.36698338 -0.25222197 0.68592596 0.30786908 -0.84670097 -0.69048786 0.09257604 -0.20185867
中国队 -0.3090422 -0.016228698 -0.10088643 -0.2803471 0.2915767 -1.1347111 -0.25048888 -0.06600014 1.0328523 -0.045099076 -0.85875726 1.0922558 -0.07316989 0.054346755 -0.3970762 -0.11368108 0.37329823 -1.7379048 1.5650728 0.54987097 -0.8993438 -0.9643059 -1.0089315 -0.9576064 0.2863248 -1.0080262 0.65022117 0.6018369 -0.30796474 -0.99326724 0.3011307 0.15999451 -0.5846165 -0.3689623 0.80594695 0.66856647 -0.0084859645 -0.54556555 0.31417245 0.2908399 0.54606134 -0.33322257 0.03080072 -0.29834273 1.0354638 -0.18418978 -0.17881936 0.27406144 0.950294 -1.2075124
表现 -0.26617068 -1.1061171 0.30983633 -0.03464797 -0.38206422 -1.3810174 -0.28080863 -0.9402257 2.0445662 0.5448927 -0.07262362 0.6268924 0.27212954 -0.8116137 -0.60501426 -0.7311803 0.04324869 -1.7287631 1.8907969 0.24144842 -0.31607056 0.5282191 -0.59769994 -2.511442 -1.207728 -0.036762863 1.2475076 0.58376265 -0.92478997 0.25440755 0.13151805 0.33549628 -0.15133506 0.41068572 0.51309866 0.27834702 0.5029316 -0.037634112 0.7999155 0.66321915 0.09133036 -0.48624364 0.0076979017 0.21460605 1.4289461 1.1389164 -1.1804949 -0.0038031195 0.28800097 0.7874175
年 -0.7107515 1.2075 -1.114922 -0.21744043 1.7476721 -2.003082 -0.9879162 0.8300278 0.028417544 -1.2558234 -0.8071868 1.2126801 -1.8755684 0.73375785 0.057988424 0.0021293047 -0.51430947 -1.7813141 0.17882003 0.35013837 -0.48719934 -1.1462252 -0.5425177 -0.89276445 1.5328006 -1.7916704 -0.3551554 0.8812444 0.39863387 -2.268418 1.6202698 -0.3267967 0.4965238 -0.99622715 0.46796313 -0.09199341 0.29344055 -0.89010185 0.72714895 -0.8279005 0.4472261 -0.44674858 -1.1572164 -1.6659929 -0.007341779 -0.31554967 0.5777174 -2.1411994 0.5104864 -2.3650393
进球 -0.32416198 -0.584006 0.6139713 0.4685497 0.237228 -0.27491775 -0.7495043 -0.31762475 1.5634402 -0.024140505 -0.39325455 0.19447377 0.46289423 -0.9331983 -0.9409562 -0.41048098 -0.079437815 -1.3595538 1.7063315 -0.16454525 -1.1213156 0.6505503 -1.2028422 -0.78437287 -0.44312757 -0.20240878 0.9936504 0.85898703 -0.43188003 0.055367507 -0.037323836 -0.12743741 -0.7964135 0.52177453 -0.17616636 -0.35356468 0.53781074 -0.46123517 0.5717574 -0.5877866 0.13778023 -0.6204595 0.28670442 -0.39844272 0.2803713 0.1427534 -1.0535724 0.3332108 -0.040286016 -0.5867301
联赛 -1.0150051 0.07009348 -0.42826065 0.6911945 1.0817903 -0.87982345 -1.2488745 0.667963 0.9805474 -0.54026437 -0.6879702 0.33723554 -0.3761181 -0.48602402 -0.45320076 -0.57287574 -0.98572636 -1.3621452 1.418025 0.015497749 -1.0983535 0.22161654 -1.0089054 -0.42927617 0.025004232 -0.31271955 0.63330376 1.0787755 0.18330997 -1.3188282 0.3835772 -0.08223742 -0.35300136 -0.08731443 -0.19981469 -0.8799169 0.4267233 -0.9716373 0.7955846 -0.79880005 0.3841299 -0.7610577 -0.40529346 -1.008994 -0.3245416 -0.21160483 -0.47868195 -0.31394845 -0.17116165 -1.504938
比 0.072163135 -0.021549206 -0.84927404 0.81264704 1.5160894 -0.10766918 -1.9582793 0.6359316 1.499894 -0.74049455 -1.2897338 0.024345864 0.019319978 -1.2682828 -1.6348764 -0.46858707 -0.98448133 -1.416217 2.037165 -0.5242442 -2.0824213 0.1266768 -1.1872298 -0.07300454 0.3021104 -0.009926964 0.9775756 0.81672025 -0.22115335 -0.0687081 -0.29780504 -0.7050426 -0.7932234 -0.26114708 -0.5252337 -0.70283115 1.1822147 -1.7678248 0.4262959 -1.2293813 0.3906779 -0.8859258 0.729915 -0.5501503 -0.9759431 -0.4539094 -0.5633385 -0.81938386 0.20867862 -1.5050654
丁俊晖 0.0073040333 0.70257294 0.10750215 -0.7014987 0.45253727 -1.5568109 -0.38662875 -0.03262158 1.327469 -0.8342678 -0.13704574 -0.19469696 -2.1045647 0.51524264 0.06216722 0.20255615 -0.3211818 -0.6622856 0.28681144 0.36741424 1.5083076 0.29038402 0.07302378 -2.6734633 -0.27884308 -0.325028 -0.23958619 0.873525 0.2936927 0.20802692 1.4006768 0.75052744 1.2503583 0.14901252 0.30273378 -0.22617278 0.82284904 -0.05777109 0.61397845 -0.68937564 0.24109618 0.8010666 -1.202417 -0.60422784 1.1431377 1.6858572 -0.03647287 -2.3178594 -0.31662524 0.39864406
中国女足 0.1003051 0.73569846 0.3382216 -1.0183967 0.2388407 -1.5386248 -0.4423466 -0.55755955 0.867972 -0.76233226 -0.5343791 0.68644744 -1.5498651 1.2385154 -0.31754068 0.029071804 0.6939992 -1.6194388 0.71554637 0.6271044 -0.063590884 -0.96123964 -1.0619515 -1.5198315 0.4512678 -1.5414171 0.1457531 0.73251057 -0.06453365 -0.69482493 0.9359247 0.5674921 -0.009666008 -0.088476084 0.7501197 0.5588256 0.7539781 -0.77118075 -0.004596404 -0.51764804 0.52518404 0.33140838 -0.37455973 -0.7899588 0.92601466 0.70840955 0.6125219 -0.82501364 0.5513164 -1.6105553
下 -0.2759395 -0.15383111 -0.45088777 0.5526019 0.71633923 -0.57819444 -0.30088264 0.31316143 1.2467837 -0.20054187 -0.37209666 0.24676543 0.19222952 -1.0847745 -0.5307996 -0.30366734 -0.589538 -1.0279188 0.97106683 -0.17440346 -0.46330276 0.4502125 -0.1937128 -1.2176502 -0.06437176 -0.26427823 0.38854703 0.435471 -0.47586688 -0.3004183 0.15302664 -0.37774998 -0.022185111 -0.28795496 -0.026872644 -0.28744355 0.16586022 -0.1040993 1.2142874 -0.12649024 -0.23526101 -0.32574528 -0.2837492 -0.116675586 0.7203874 0.24674472 -1.0874107 -0.7129997 0.3036961 -0.034384478
机会 -0.3624481 -0.9937243 0.46899304 0.6004413 -0.05153512 -0.3421419 -0.42846945 -0.39400262 1.9008752 0.29312137 -0.36274084 0.38452828 1.1139729 -1.4919578 -0.9128216 -0.57781667 -0.111534245 -1.506542 1.9185486 -0.17058986 -1.0319878 0.7225313 -0.9245656 -1.2274212 -0.63336426 -0.019846018 1.2823848 0.6343334 -0.8524793 0.3170747 -0.25632766 -0.19096102 -0.7673015 0.4292323 0.0069452985 -0.15794875 0.3379866 -0.20855421 0.7930778 0.011046716 -0.08330159 -0.81155217 0.30961886 0.016412295 0.81337124 0.22569281 -1.6196036 0.51277804 0.22905652 0.10427342
前 -0.6998677 0.07696655 -0.43666112 0.54928714 0.72116596 -0.8959568 -0.6364001 0.5064311 0.93213063 -0.3275967 -0.7719534 0.43386048 -0.23412977 -0.39546424 -0.3043738 -0.44501233 -0.82964444 -1.1201621 1.342549 0.14334087 -0.7599282 0.10110219 -0.73715097 -0.66119796 0.09058893 -0.43939766 0.47559536 0.7972483 -0.14903145 -0.9685648 0.032939453 -0.15534027 -0.202746 -0.2871233 -0.11427414 -0.5277986 0.1818651 -0.66851276 0.8800244 -0.23421241 0.32411242 -0.28650284 -0.40242255 -0.4310075 0.33168957 -0.21577986 -0.5447225 -0.19038062 0.20860063 -0.8894116
会 -0.25400758 -1.144136 0.31372 -0.39146692 -0.37141874 -1.7507297 0.060157232 -1.0378954 1.8489621 0.6982842 0.117795005 1.1155975 0.325036 -0.75393903 -0.50474995 -0.43228 0.39864162 -2.0417705 1.5881207 0.40419567 -0.06391542 0.011489615 -0.38648418 -2.8657978 -1.0698811 -0.26718664 1.0628756 0.4499515 -0.8813114 -0.10480705 0.7897472 0.26588917 -0.09334623 0.3690968 0.94824064 0.7282226 0.31423256 0.35266632 0.662332 0.76432717 0.1925242 -0.66420597 -0.1275771 0.0463467 1.8075354 1.2953213 -1.260961 -0.0782042 0.49902728 0.5923427
北京 -0.5501063 0.97684187 -0.8308599 0.46158803 2.0176551 -1.5733398 -0.2513296 0.9827811 0.5693657 -1.1068743 -0.3970504 1.4501134 -1.2562443 -1.1534388 -0.44598314 -0.26793915 -1.1827587 -2.580503 0.1877597 -0.1277951 -0.7672187 -0.60703033 0.066541776 -1.8574948 1.7886342 -2.0700538 -0.19179088 0.59049994 -0.5354924 -2.0761485 1.965891 -1.6695442 0.23570211 -1.2098987 -0.16956915 0.13462393 0.10450891 -0.06626164 1.7330137 -0.81600606 0.07676158 -1.2111986 -1.247966 -1.6717907 0.5506549 -0.33139685 -1.0859079 -2.9841895 0.72606075 -1.6204405
进行 -0.8973959 0.540569 -0.7368094 0.19348562 0.9040482 -1.4085326 -0.32538036 0.8076712 0.09890733 -0.5939896 -0.60141915 0.7810147 -1.0937082 0.30048078 0.2067175 -0.34668684 -0.8827498 -1.0818455 0.541146 0.4897998 -0.1720979 -0.57017404 -0.3110461 -0.78724945 0.39955622 -0.746185 -0.0071914135 0.72871757 0.23967391 -1.8240311 0.738233 -0.013876727 0.0401544 -0.7034591 0.12687324 -0.24383499 0.16364564 -0.7072634 0.6553144 -0.18259467 0.51170695 -0.37311023 -0.8831554 -0.7116729 0.2567395 -0.14214651 0.028317612 -0.70697916 0.2747461 -1.1487502
22 -0.60274947 1.4229178 -1.1584513 0.61768115 2.279798 -2.256928 -1.2383159 0.83692956 0.7576136 -1.8216243 -0.7465717 1.0632149 -2.1181293 -0.39302716 -0.42186144 -0.4233417 -1.5312765 -2.6749997 0.38237965 -0.09563707 -0.8647466 -0.38281983 -0.45548806 -1.8995962 1.6745583 -2.182781 -0.08409155 1.1160337 -0.18255855 -2.236203 1.9195718 -1.2157767 0.8719644 -1.091723 -0.40528166 -0.8252498 0.82688916 -0.8848001 1.9054408 -1.3893868 0.12461755 -0.8802265 -1.6369452 -2.121423 0.15373047 0.10471244 -0.5688812 -3.6578982 0.2652008 -2.2731426
从 -0.40067443 -0.26594707 0.009768567 0.040664896 0.22960754 -1.0836262 -0.29124367 -0.23585562 1.1271504 -0.0029708259 -0.31661943 0.6856543 -0.062221646 -0.41789427 -0.3558497 -0.38612288 -0.079748794 -1.4447863 1.2301698 0.26564947 -0.44550633 -0.028352221 -0.6203515 -1.3705187 -0.16995144 -0.5027876 0.5728729 0.5730321 -0.40950036 -0.53787464 0.44071835 0.025052011 -0.2127537 -0.022648608 0.3383794 0.107171625 0.3086066 -0.18975101 0.6392379 0.15619123 0.21308185 -0.34417114 -0.2467207 -0.25466222 0.8369196 0.38279313 -0.651432 -0.21196027 0.29947847 -0.36958003
世界杯 -0.091776595 1.4217964 -0.559376 -1.1709521 1.0329736 -2.6086633 -0.37982965 0.11202241 0.72033775 -0.68415934 -1.1588591 1.5283581 -1.775647 1.8847238 0.37367794 0.35187963 0.7254821 -2.2008157 0.7053774 1.1224072 -0.4608139 -2.2345333 -1.1236924 -1.461582 1.5505489 -2.560245 -0.53195155 0.6668295 -0.2297013 -1.8051904 1.4706739 0.32753596 0.13195744 -0.98742 1.5511876 1.0446049 0.07861827 -0.45469138 0.517574 0.3255141 0.95644426 0.68690485 -0.87809104 -0.7357621 1.7176472 0.19040641 1.3067913 -1.6409378 1.2982733 -2.238953
更 0.8893633 -0.38213074 1.9052941 -1.2178767 -0.7150734 -0.6115068 0.51720583 -2.3630655 2.1363041 -0.70651567 0.74501425 0.9846747 -0.11883905 -0.49309334 -1.4812033 -0.57202923 1.3311895 -2.4549885 0.78266025 0.21710204 0.08312627 -0.49391928 -0.75826883 -3.164876 -0.45740575 -1.5739626 1.1333864 0.10997074 -1.3911356 1.5990244 0.89997137 -0.0679237 0.17486757 0.26847503 0.43719304 1.2816604 1.5817537 -0.026592234 0.25955546 -0.025457446 -0.97334856 -0.7720163 0.11146041 -0.68819815 1.6392984 1.9124646 -0.65752435 -1.801525 1.0737952 0.16760285
要 -0.0767149 -1.1007174 0.21842259 -0.32039198 -0.37420347 -1.5828029 -0.08081287 -1.0815474 1.8893324 0.63751024 0.08097047 0.9034372 0.36524576 -0.72368693 -0.6003476 -0.5440505 0.2995106 -1.8493937 1.6073915 0.27669862 -0.18124987 0.15618664 -0.4177687 -2.76641 -1.1214259 -0.15282948 1.1214018 0.41732985 -0.9377575 0.26384374 0.49014097 0.2493985 0.0031018348 0.33607367 0.7627735 0.5959774 0.47598368 0.20234692 0.67707354 0.75219005 0.12583683 -0.58594227 -0.012267871 0.2413351 1.6895546 1.304662 -1.2204993 -0.15445 0.418304 0.8129369
非常 -0.11395609 -1.2034453 0.42962015 -0.24012837 -0.46514556 -1.5868293 0.046136644 -1.1807734 2.174423 0.75235987 0.109574564 0.88735044 0.5022391 -0.9215109 -0.624473 -0.52811885 0.3738846 -1.9799148 1.8074267 0.2762738 -0.11090837 0.37048948 -0.34518078 -3.0245354 -1.2231687 -0.18810979 1.2566099 0.41316128 -1.1423038 0.41375217 0.4937676 0.2427453 -0.10611428 0.4586804 0.7721008 0.70072526 0.38316634 0.44182342 0.81197226 0.8658887 0.07569072 -0.5665306 -0.04393936 0.245524 1.9447184 1.3291409 -1.4484341 -0.11775573 0.4111983 1.0766525
人 -0.037003558 -0.70695645 0.3062289 -0.21515916 -0.18936539 -1.0930676 -0.14183852 -0.73384285 1.4603086 0.29251474 0.050288733 0.6625024 0.16288242 -0.62198466 -0.5097498 -0.3798425 0.24952 -1.5596545 1.1912689 0.16520937 -0.23587441 0.15943296 -0.39252508 -2.0518732 -0.6049592 -0.28047132 0.80294776 0.3732073 -0.70353764 0.13043062 0.49267632 0.09719214 -0.030375943 0.20252463 0.5531437 0.46451795 0.41606057 0.14031889 0.61617553 0.40043452 0.0015772613 -0.5072564 -0.06517139 -0.08560166 1.1725259 0.90384185 -0.9693788 -0.38208193 0.39519897 0.42356238
好 -0.19999811 -1.2928034 0.2536125 -0.089651704 -0.2956716 -1.3651941 0.08156972 -0.93952364 2.2130928 0.80754715 0.0029003876 1.0254332 0.8618464 -1.2257661 -0.65663767 -0.63226855 0.2788638 -1.9891595 1.9774697 0.16325858 -0.47454077 0.27040836 -0.39760667 -2.7950242 -1.1084036 -0.13189353 1.2910423 0.34186947 -1.2173729 0.33449665 0.3085186 0.0022062028 -0.30083895 0.28962564 0.7829016 0.73699415 0.24650027 0.34385437 0.8667934 0.88142985 0.09844276 -0.86349154 0.13347386 0.30261102 1.8193308 1.0570854 -1.6704944 0.035458192 0.56978166 1.0356497
球迷 0.04685837 -0.35726625 0.21849515 -0.5061519 -0.107988805 -1.4580963 -0.040473226 -0.73604494 1.186379 0.18601362 0.08604563 0.77996063 -0.3759334 -0.19971462 -0.3276018 -0.21974044 0.28784278 -1.5668458 0.8791438 0.29376036 0.10563636 -0.19158417 -0.32124773 -2.3083267 -0.41836628 -0.5453521 0.5922477 0.2895412 -0.5883204 -0.061319668 0.7805124 0.20536518 0.21520375 0.094542265 0.6830777 0.5464405 0.45132375 0.16042052 0.4818332 0.33291212 0.079994984 -0.26288125 -0.2746029 -0.12626861 1.3822589 1.0426186 -0.5678162 -0.7528275 0.41069803 0.21299353
最后 -0.7233521 -0.34188625 -0.4028555 0.46388426 0.4536033 -1.0796446 -0.66350687 0.16162862 1.2653064 -0.06029347 -0.63915014 0.47682416 -0.120538734 -0.5323901 -0.43945423 -0.60045594 -0.75224066 -1.2124261 1.5410427 0.20978849 -0.6484324 0.25928417 -0.68332916 -1.2320447 -0.49125558 -0.12489272 0.8153627 0.83064765 -0.20188706 -0.72096527 0.08178424 0.061459497 -0.17554995 -0.062013946 0.09379529 -0.37827447 0.42015234 -0.68626463 0.80103534 -0.05799339 0.24589568 -0.53594524 -0.23026116 -0.24542949 0.43566012 0.28084362 -0.8497814 -0.079702735 0.16301212 -0.3884451
抽签 0.13920821 1.3939815 -0.43644375 -1.2240378 0.9426707 -2.6472225 -0.022504529 0.062217854 0.9086719 -0.5067684 -1.2260057 1.5813861 -1.5932484 1.5166843 0.12677471 0.36629868 0.69152457 -2.151588 1.1134664 1.0710417 -0.4430616 -2.0834808 -0.9875606 -1.7489336 1.2963437 -2.5204535 -0.27708393 0.52793604 -0.44332203 -1.5349857 1.1630138 0.2935162 -0.009152303 -1.0027665 1.5989718 1.2008457 0.08446044 -0.3304931 0.53721786 0.50497055 0.95621055 0.7063705 -0.73884094 -0.3942314 2.133315 0.2425299 0.93169886 -1.644743 1.464893 -1.7727585
获得 -0.7055881 -0.21435882 -0.057708766 0.42794895 0.6842358 -0.5273687 -0.5827011 0.4034523 1.2237186 -0.22838089 -0.8267529 0.6826314 0.30596665 -0.7373098 -0.5637216 -0.31999397 -0.29342967 -1.436124 1.5431426 0.04925724 -1.0435024 -0.020605661 -0.99553615 -0.61106205 0.21706285 -0.53015333 0.6896269 0.834781 -0.24065357 -0.8125476 0.22857781 -0.20126241 -0.7100244 -0.06964522 0.086161084 -0.13774574 0.09576057 -0.5883069 0.66622436 -0.34241474 0.37143424 -0.66460514 -0.022223487 -0.5970962 0.32126355 -0.4154821 -0.79159224 0.2864347 0.38944602 -1.2123061
打 -0.28698647 -0.93234766 0.19940208 0.1455082 -0.15765077 -0.99662757 -0.24356592 -0.6504313 1.5837244 0.36793816 -0.03711659 0.5783019 0.47313702 -0.84850013 -0.57284707 -0.5990041 -0.1172704 -1.4067997 1.5071985 0.13798892 -0.37856373 0.46448147 -0.46015212 -1.8850931 -0.9660199 0.023355512 1.0225042 0.5164682 -0.72531724 0.1875964 0.19592273 0.113172345 -0.20487411 0.3220945 0.27585104 0.071006864 0.44726044 -0.057168137 0.6768443 0.32305256 0.074203774 -0.6230112 -0.052864756 0.06909125 0.98029983 0.8527889 -1.1570545 0.006338254 0.15209612 0.49694508
队员 -0.21411325 -0.8366018 0.44283453 -0.24380033 -0.3045894 -1.2940599 0.0844906 -0.7569695 1.6500688 0.4566761 0.0029529803 0.92017365 0.24213694 -0.5862632 -0.45870858 -0.41749507 0.37057996 -1.7974806 1.418324 0.30489907 -0.2403221 0.09752686 -0.58299714 -2.311196 -0.66019064 -0.49098447 0.94644237 0.46439826 -0.82709754 -0.15461707 0.5066006 0.16054118 -0.29693642 0.19131331 0.6356286 0.5783719 0.26177973 0.16876766 0.6822975 0.51000047 0.1169517 -0.48274156 -0.088017486 -0.007702348 1.5893027 0.8423906 -1.0824147 0.033221584 0.48144543 0.28102535
来源 0.19871834 1.550686 -0.54828894 0.5753769 1.8946707 -0.624072 0.33879197 1.1324978 0.8150622 -1.0872117 -0.5001782 0.74418414 -0.60460687 -1.3459125 -0.4965354 0.13550891 -1.1548065 -1.5253373 0.0029297557 -0.40078357 -0.61903554 -0.28908533 0.27627546 -1.3874468 2.0598836 -1.9148785 -0.65208507 0.077898055 -0.97227114 -0.57925856 1.2631254 -1.8599137 0.046020016 -1.1193354 -0.76057667 0.1136477 -0.050712597 0.40996593 1.9591072 -0.49009043 -0.07617181 -0.2351298 -0.9635994 -0.9942309 1.068031 -0.5231029 -0.9987674 -3.1360695 0.6468003 -0.7989003
冠军 -0.6252651 0.23797391 -0.34273642 -0.13551578 0.74064815 -1.3646706 -0.7461869 0.20875321 0.7622977 -0.5235355 -0.59655565 0.6777997 -0.9245781 0.2952177 -0.1517576 -0.14440969 -0.22562689 -1.3254467 0.893071 0.32388136 -0.34124872 -0.4854313 -0.7191531 -1.0308357 0.25076532 -0.7989897 0.22286265 0.842306 0.21415801 -1.1347061 0.86096394 0.14852428 0.029819222 -0.22737762 0.38151938 -0.038956 0.3393782 -0.56145346 0.3942625 -0.36520103 0.45211232 -0.31374127 -0.51742715 -0.87964237 0.3079803 0.17021152 0.02932796 -0.768507 0.15749812 -1.2687707
今天 -0.1369038 -0.15641978 -0.21645023 -0.23271878 0.14391805 -1.2772524 -0.15563707 -0.30211204 0.85735863 0.0012639582 -0.12464118 0.57401884 -0.50534815 -0.047721297 -0.15103076 -0.2841648 -0.08731111 -1.1132799 0.7468633 0.26717672 0.03112975 -0.18372189 -0.13572101 -1.669637 -0.246181 -0.43366703 0.3705984 0.29386297 -0.39889413 -0.26448992 0.52782315 0.08398819 0.24346238 -0.15859477 0.42188543 0.2321948 0.34222302 -0.08683322 0.5040862 0.34880498 0.1520739 -0.17870507 -0.31726742 -0.076283835 0.9159407 0.6742315 -0.37685362 -0.806342 0.3343498 0.22241537
球 -0.22453946 -0.31887972 0.19990093 0.65009815 0.5092524 -0.31538656 -0.5659442 0.055046268 1.5378113 -0.08919018 -0.51545185 0.21535262 0.53969437 -1.2002271 -0.76895535 -0.40169036 -0.4654827 -1.2180176 1.4780767 -0.18727216 -0.9999828 0.667603 -0.8448219 -0.7632623 -0.063232355 -0.24112785 0.7801667 0.69217074 -0.62444013 -0.013793745 -0.05513829 -0.3520178 -0.6310066 0.2043576 -0.3157633 -0.4859942 0.35754612 -0.31821734 0.9483592 -0.43851686 0.1039167 -0.3789083 0.013250481 -0.29693556 0.50742835 0.042676188 -1.2256436 -0.072669946 -0.02451749 -0.43308717
给 0.027552027 -0.57575107 0.34162396 0.025552938 -0.08732946 -0.7917286 0.05042221 -0.6899905 1.5856637 0.35464844 -0.030707292 0.5873344 0.51078576 -0.9417124 -0.61250424 -0.34527948 0.14742053 -1.3933958 1.1680628 0.007089307 -0.3093406 0.31697014 -0.40281025 -1.888082 -0.45076275 -0.3529751 0.7770071 0.33139798 -0.88859314 0.3817101 0.32497466 -0.13459836 -0.15799306 0.24107896 0.2867385 0.3056582 0.3279268 0.2657443 0.7555786 0.30169874 -0.039566603 -0.3982989 -0.02481395 0.06439045 1.2770729 0.8288833 -1.1987963 -0.28425393 0.3175894 0.454497
还是 0.0076047527 -0.64731234 0.23986839 0.04446048 -0.06503159 -0.9628748 -0.10238003 -0.65096843 1.6946791 0.3479342 -0.097114906 0.53376645 0.3937837 -0.878924 -0.6395249 -0.38174832 0.026493924 -1.4251806 1.3588783 0.054805424 -0.3212972 0.33861324 -0.43147147 -2.0291674 -0.59581053 -0.30562067 0.8555199 0.39972687 -0.8772409 0.36255276 0.29340538 -0.091128975 -0.09440883 0.2171176 0.27894935 0.2633826 0.3782325 0.17161837 0.7869974 0.3707548 0.009304276 -0.40244588 -0.017143155 0.048079994 1.3197211 0.8734133 -1.1641313 -0.3810898 0.29283446 0.5384345
开始 -0.53791445 0.035250578 -0.37305918 0.00065151614 0.39480016 -1.3384376 -0.2689519 0.07430805 0.7222983 -0.38320044 -0.29947025 0.6414532 -0.6945383 -0.022535594 -0.100689314 -0.49141282 -0.5466553 -1.0841254 0.82992244 0.34373337 0.062185656 -0.114276744 -0.27691895 -1.4359747 -0.23678407 -0.39325735 0.3441418 0.6131971 -0.12876491 -0.8205887 0.56763685 0.15911488 0.24916627 -0.26843974 0.13020498 -0.28060493 0.4836871 -0.44450656 0.64576364 0.028035603 0.20544776 -0.2573505 -0.6567564 -0.39539462 0.62972814 0.57062125 -0.33305177 -0.71640414 0.09018875 -0.24120308
9 -0.2074755 1.5324271 -1.2353666 1.3321236 2.2779336 -0.90602934 -1.587284 1.114972 1.221226 -1.7042656 -1.4031261 0.23132622 -1.0062053 -0.8900142 -0.96666807 -0.3808909 -1.6666207 -1.7688538 0.9949268 -0.40447578 -1.707381 0.14616261 -0.78703105 -0.3628763 1.7467746 -1.7564757 0.013171595 0.95177615 -0.3758505 -1.1683818 0.43137974 -1.4328946 0.4169745 -1.1319278 -1.0464251 -1.1837821 0.7204865 -1.0678022 1.9583423 -1.3358603 -0.04008505 -0.59236676 -0.7357826 -1.7061653 -0.36615402 -0.7031557 -0.80505526 -3.023998 0.24441934 -2.023318
得 -0.10962053 -1.2408319 0.5643632 -0.12716615 -0.3849541 -1.1593081 0.10682428 -1.0911394 2.1623366 0.6202709 0.07626275 0.9365096 0.8898387 -1.1894256 -0.80668485 -0.68490666 0.38579056 -2.0378993 1.8364729 0.13357611 -0.5038254 0.2965344 -0.53389406 -2.626488 -1.0688795 -0.19240722 1.320041 0.36879796 -1.2053556 0.42089218 0.3241929 -0.005699397 -0.3656157 0.38602397 0.59322715 0.59391356 0.462451 0.21757507 0.7924769 0.66384965 -0.014631826 -0.8554175 0.17724483 0.12339868 1.6483785 1.0924922 -1.5691332 0.07714262 0.47149357 0.77361155
这样 -0.030525176 -0.77436423 0.23796488 -0.3557067 -0.28565434 -1.3066847 -0.18938853 -0.8628922 1.5721302 0.41575503 0.013412423 0.71175724 0.11278613 -0.4646769 -0.5041292 -0.38982686 0.30958554 -1.548813 1.3944659 0.26593027 -0.16454938 0.07451526 -0.45282617 -2.2405415 -0.85437673 -0.22987893 0.9517867 0.41755328 -0.7009889 0.17034002 0.40728888 0.2718667 0.015129023 0.29270178 0.7213317 0.48743847 0.4311073 0.05022877 0.49816903 0.5082823 0.076240204 -0.4206135 -0.0067804684 0.09943023 1.3575133 1.0522496 -0.8647802 -0.21713614 0.3672946 0.53457654
着 0.050777614 -0.22141542 0.3200062 -0.35014373 -0.034203973 -1.2113031 0.06069666 -0.7328814 1.3178118 -0.002268814 0.035649747 0.66673046 -0.24916102 -0.35015646 -0.43839115 -0.28040037 0.16448535 -1.5138652 0.8240023 0.1797043 0.057131007 0.023850799 -0.3243712 -2.1558893 -0.28102487 -0.67011124 0.4941576 0.37619406 -0.69323593 0.056284282 0.7322189 -0.0149231 0.1467596 0.09700018 0.40377784 0.3801513 0.47638255 0.14533061 0.6983824 0.17135589 -0.0014464883 -0.17498852 -0.3659495 -0.21764228 1.321291 0.99962246 -0.7139464 -0.8654829 0.29465556 0.12334492
之后 -0.35596597 -0.24409647 -0.051829036 0.29667738 0.47479388 -0.83255327 -0.40734813 -0.038717896 1.23206 -0.09345019 -0.44379193 0.5997173 0.1306611 -0.7536305 -0.550861 -0.3561445 -0.3902855 -1.4336704 1.334734 0.04727973 -0.7195971 0.13811907 -0.6953818 -1.1961735 -0.04474711 -0.47574756 0.64137673 0.60598266 -0.47746164 -0.4839044 0.29113388 -0.2658461 -0.33348528 -0.056952953 0.071686804 -0.10051721 0.31636044 -0.352675 0.795042 -0.14959301 0.18596548 -0.4549288 -0.17552248 -0.358284 0.63998896 0.18714462 -0.86331874 -0.2627289 0.2711563 -0.56777155
但是 -0.18166652 -0.8586727 -0.014963722 0.18788405 -0.028606512 -0.894257 -0.3471849 -0.5239412 1.4408057 0.40774745 -0.11566797 0.5245545 0.519577 -0.9650793 -0.6036189 -0.5124923 -0.12772697 -1.3276573 1.3749938 0.014148428 -0.5161869 0.3621955 -0.36110666 -1.6633786 -0.76341474 0.03303567 0.9706177 0.35490325 -0.6974791 0.16114636 0.102592245 -0.08961206 -0.1159103 0.18987416 0.2774637 0.13199428 0.3467953 -0.03458367 0.6805594 0.35862374 0.009559288 -0.67434907 0.1077666 0.09170531 0.84703696 0.65119064 -1.167654 -0.07156199 0.24337655 0.48460123
个 -0.1130771 0.3593012 -0.792612 0.97255707 1.0336893 -0.33438578 -1.2827654 0.40704253 0.92576146 -0.7383501 -0.7184174 -0.30075055 -0.30332774 -0.53465074 -0.597196 -0.36037442 -0.89937174 -0.56320304 0.87844765 -0.38608465 -0.9619868 0.5498546 -0.36174303 0.021180471 0.3643861 -0.28878 0.2414569 0.59462404 -0.10217903 -0.09620446 -0.26693872 -0.60279316 0.31944436 -0.33793062 -0.5374063 -0.9843772 0.6493991 -0.7333412 0.99814695 -0.6178845 -0.20806587 -0.42868724 -0.14646131 -0.71777123 -0.6044371 -0.23773651 -0.635572 -1.6477809 -0.1522579 -0.355162
记者 0.121058054 0.6041203 0.12561186 -0.43904853 0.44443154 -1.0661734 0.37545168 -0.12751277 0.37205833 -0.53405267 0.13007507 0.79873633 -0.90467817 0.065513395 -0.048273228 0.09825895 0.14328678 -1.3161747 -0.24834448 0.15083933 0.26564258 -0.50668937 0.15823424 -1.5917354 0.7761589 -1.3159626 -0.30213025 0.07995037 -0.35509115 -0.6199908 1.2956798 -0.4454288 0.2569363 -0.45765865 0.24296272 0.58008665 0.18938348 0.3736454 0.67586946 -0.1417236 -0.02214807 -0.11950644 -0.7060285 -0.6684967 1.0020741 0.3493999 -0.24751428 -1.7078022 0.46564147 -0.42477316
5 -0.5927482 0.6078089 -0.86486536 1.0775872 1.5998093 -0.4579692 -1.3495134 0.993575 0.7289094 -1.0652268 -1.07118 0.40983054 -0.3924735 -0.82776237 -0.80329853 -0.4447716 -1.1872011 -1.4290621 1.1320661 -0.2660196 -1.6325426 -0.0067765894 -0.8269197 0.14398289 0.9507945 -0.8515477 0.33100697 0.83141524 0.04123453 -1.2738662 0.23365825 -0.9137586 -0.26821148 -0.6916546 -0.6818859 -0.8068535 0.43175927 -1.1128544 1.0027649 -1.0924419 0.2273014 -0.9497918 -0.24389417 -1.251486 -0.7358969 -0.89698523 -0.62836856 -1.1164402 0.16699077 -1.8614806
一场 -0.62786674 -0.51651603 -0.28641522 0.046325024 0.15645412 -1.3338512 -0.5659139 -0.15794845 1.0983179 0.08031445 -0.34331426 0.6322092 -0.34332865 -0.1618437 -0.31497598 -0.6112887 -0.36703935 -1.307753 1.4847612 0.3797589 -0.36912563 -0.09035651 -0.591034 -1.5745081 -0.82113546 -0.022837734 0.85254437 0.7196947 -0.20998356 -0.565544 0.25652254 0.38947475 -0.058564156 0.03850324 0.32387573 -0.109028324 0.53231436 -0.6234969 0.41390902 0.24420856 0.40581834 -0.57694924 -0.22497348 -0.17227443 0.5960891 0.6515274 -0.5121605 -0.0012130069 0.12243685 -0.060378537
不过 -0.1284964 -0.5250012 0.14073527 0.07488193 0.054006256 -0.9670715 -0.30909857 -0.52105373 1.4913121 0.1915412 -0.19009309 0.4860367 0.2632444 -0.7084324 -0.55017656 -0.4041878 -0.047843784 -1.3596456 1.3261739 0.07026492 -0.43449107 0.3188479 -0.52926767 -1.6779835 -0.48270535 -0.29477286 0.82175785 0.46942648 -0.70012283 0.108298935 0.22865881 -0.021033123 -0.08328439 0.19153476 0.27777743 0.04604763 0.39612663 -0.07374807 0.7593334 0.19601443 0.057697777 -0.35962412 -0.098891705 -0.05390291 1.021082 0.6786624 -0.9891901 -0.30179775 0.214441 0.17287712
结束 -0.6432503 0.2457736 -0.38994512 0.60148543 0.66678226 -0.7715193 -0.5547893 0.47352988 0.9250762 -0.6208735 -0.81265885 0.3946087 -0.34867388 -0.17776394 -0.3851318 -0.5710285 -0.8698454 -0.9428379 1.2623748 0.23274499 -0.6470004 0.033123787 -0.814477 -0.51516306 0.02421769 -0.52244824 0.3907409 0.85455966 -0.114180304 -0.9354059 -0.012956967 -0.057692815 -0.28942284 -0.3860602 -0.31961083 -0.65910745 0.44731688 -0.8848081 0.7334558 -0.31526336 0.254522 -0.24278687 -0.40894046 -0.46257284 0.15078527 -0.00085256645 -0.3723542 -0.3493223 0.11441369 -0.81675065
10 -0.38705358 0.7639667 -0.6961266 1.065769 1.6092527 -0.35093743 -1.2655356 0.936388 0.9636212 -1.077482 -1.0887741 0.13415308 -0.37757882 -0.8528027 -0.82422423 -0.3484843 -1.2569811 -1.1669431 1.0891445 -0.33630684 -1.4242741 0.2527068 -0.82296705 0.0019271366 0.9670636 -0.8520613 0.23450676 0.84560853 -0.12112619 -0.7920871 0.14682333 -0.9062777 -0.19753896 -0.55453026 -0.83880675 -0.9612654 0.4805862 -0.95754886 1.1723684 -1.1389334 0.20242614 -0.5018295 -0.28949076 -1.0703641 -0.46671686 -0.6637759 -0.633267 -1.3243446 0.023634402 -1.6232984
篮板 0.59486544 1.3026912 -0.95729506 1.4881302 1.4506886 -0.25494197 -1.125154 0.32547554 1.7332578 -1.2729926 -0.9308502 -0.7656061 -0.31956017 -1.13005 -1.0325096 -0.57801026 -1.6543264 -0.45887178 0.66027 -0.70629174 -0.9604128 1.2876582 -0.22749355 -0.56238025 0.9806843 -1.0126029 -0.06862047 0.40279564 -1.0751476 1.0767041 -0.56477046 -1.3694174 1.1344806 -0.7533945 -1.4845685 -1.4930573 1.0653417 -0.461165 2.2509031 -0.6950036 -0.8533854 0.22778912 -0.5934837 -0.59051406 0.037244115 0.16141185 -1.1870109 -3.644574 -0.19385847 0.34078765
这个 -0.104458265 -0.7015564 0.32442594 -0.20917732 -0.16142055 -1.2296275 -0.07475789 -0.7784366 1.5570853 0.39675024 -0.02747354 0.73461074 0.2637289 -0.5845126 -0.47594306 -0.34742084 0.28915384 -1.5847428 1.3670701 0.18741179 -0.26991323 0.101024464 -0.5085311 -2.0832741 -0.6708337 -0.37844232 0.86196417 0.44611293 -0.7440053 0.043460716 0.4513194 0.09503478 -0.12798202 0.25317526 0.64701056 0.44697562 0.33727866 0.15883632 0.607218 0.42121255 0.1284423 -0.42981163 -0.06423054 0.025805255 1.3737633 0.8985051 -1.0013909 -0.1479333 0.3407202 0.31767723
能 -0.15724654 -0.926798 0.23883997 -0.20725402 -0.28664348 -1.2604892 -0.16536064 -0.8856216 1.6599364 0.4119571 -0.03635536 0.77110595 0.3293923 -0.6666471 -0.57916003 -0.479613 0.24572222 -1.667044 1.459312 0.21378356 -0.29254085 0.12634501 -0.487579 -2.2190542 -0.90436107 -0.1700725 1.0298581 0.4400142 -0.7280593 0.13938442 0.37914622 0.20866698 -0.11421416 0.32436258 0.6309907 0.41462204 0.45319366 0.0065074577 0.56744283 0.47192502 0.0685567 -0.58873415 0.0104825925 0.08134069 1.3030782 0.9993762 -1.0581322 -0.13234164 0.37753144 0.45207804
赛季 -0.2670003 -0.09749449 -0.36035085 0.35545158 0.5716579 -0.95462656 -0.5494974 0.059708245 1.1116174 -0.1524771 -0.3383881 0.39712334 -0.13296348 -0.63638866 -0.39401814 -0.41769996 -0.5622695 -1.152368 1.0106477 -0.04266806 -0.47831297 0.24854921 -0.37701684 -1.1747607 -0.07355679 -0.39899662 0.48857993 0.5378232 -0.3575586 -0.38754755 0.34159005 -0.26055148 0.15460806 -0.115582295 0.0055832556 -0.29544026 0.34334382 -0.22906679 0.91161865 -0.11403161 0.0030305055 -0.46566814 -0.35355192 -0.416029 0.4793486 0.31044114 -0.7677457 -0.86750335 0.10559036 -0.19044553
就是 -0.08134249 -0.7142025 0.21647812 -0.26528156 -0.17284639 -1.4452194 -0.08853849 -0.8131014 1.542366 0.40221623 0.040528774 0.7591013 0.039213497 -0.53177524 -0.3865816 -0.3808944 0.19387606 -1.5912687 1.2814444 0.2452062 -0.10592906 0.1181963 -0.35716215 -2.3573022 -0.7381943 -0.34140936 0.8197098 0.42568406 -0.77936953 0.10309231 0.5576985 0.16034833 0.04145752 0.26439318 0.6054573 0.41362756 0.38471004 0.20510022 0.66547483 0.56240183 0.10306846 -0.36522305 -0.18955334 0.026541907 1.4417949 1.0377169 -0.95283526 -0.4077376 0.31557906 0.5584849
可以 0.13451703 -0.57381684 0.26904824 -0.33063245 -0.22705705 -1.3501054 -0.00096128625 -0.9034791 1.5342034 0.38550052 0.110668495 0.52167743 -0.035610553 -0.35186425 -0.36278608 -0.2758937 0.24586898 -1.3508468 1.008966 0.15945777 0.03458408 0.24920101 -0.2973825 -2.2469008 -0.6925258 -0.36825612 0.6252732 0.3982423 -0.7687478 0.36029476 0.55405456 0.1713825 0.19929579 0.3149558 0.51428825 0.35499862 0.43309158 0.3048227 0.71077263 0.37570822 0.09067739 -0.08400961 -0.19939895 0.075639546 1.478622 1.1738145 -0.88138145 -0.6788536 0.15432622 0.66865444
又 -0.19050689 -0.29894736 0.05417075 0.20973669 0.27786866 -0.87766904 -0.3278683 -0.20363937 1.3936908 -0.024662122 -0.30875444 0.45517135 0.12912253 -0.7659415 -0.5234462 -0.37885594 -0.29548472 -1.2981291 1.2846495 0.045993134 -0.47036391 0.29229102 -0.55872476 -1.501443 -0.26878753 -0.33338794 0.7135909 0.55692 -0.57746667 -0.05017608 0.27056354 -0.13867538 -0.1447462 0.069036186 0.107787065 -0.059116617 0.35454008 -0.15069643 0.84445137 -0.05943726 0.08048705 -0.38714358 -0.21834575 -0.18361953 0.8581308 0.493558 -0.98121315 -0.39194524 0.18611467 -0.05323711
禁区 -0.596132 0.26957643 0.39655396 1.2344515 1.1185478 -0.08736918 -0.34600312 0.6160695 1.4501241 -0.5976875 -0.7408581 0.29521248 0.6906597 -1.5669768 -0.7387485 -0.34816188 -1.0218036 -1.4443396 1.3268721 -0.36111903 -1.3295786 0.91460115 -1.2064047 -0.26955196 0.8558993 -0.9985425 0.5642203 1.0297209 -0.76721567 -0.7187196 0.08886131 -0.9565456 -0.9310405 -0.0052497047 -0.88430566 -0.96394736 0.08390076 -0.3509876 1.594455 -1.0576311 0.042762075 -0.29066733 -0.48014638 -0.82635045 0.4186993 -0.60391 -1.5645978 -0.17283377 -0.05232926 -1.4767468
地 -0.057029013 -0.712625 0.5375969 -0.2503036 -0.22434624 -1.2096033 0.11081252 -0.94465464 1.7469876 0.30360812 0.02626836 0.7871272 0.28547588 -0.6882741 -0.60831255 -0.42235428 0.2740262 -1.7260128 1.3363031 0.18566653 -0.14601646 0.2171948 -0.5261291 -2.4073105 -0.7027269 -0.4383167 0.8835289 0.47227964 -0.87633115 0.1845126 0.5714917 0.089912154 -0.14370212 0.3230262 0.48814 0.43397942 0.49112013 0.18250126 0.7223892 0.30482426 0.07419631 -0.40930483 -0.13132136 -0.03190952 1.5759836 1.1288489 -1.1622555 -0.26274866 0.29693332 0.37554786
胜利 -0.33288965 -0.385458 -0.26929855 0.0011511659 0.113292895 -1.2228979 -0.6793224 -0.3600485 1.1637409 -0.035818763 -0.22748491 0.5026549 -0.37937415 -0.26253715 -0.43444973 -0.67132866 -0.31668264 -1.2170211 1.3136468 0.26103547 -0.28251565 0.066942334 -0.49515867 -1.6717538 -0.77202463 0.009474837 0.864258 0.5519792 -0.32936049 -0.15362208 0.20008619 0.33615354 0.25033996 0.058912504 0.34506664 -0.13718463 0.645416 -0.55515546 0.55365264 0.19791849 0.14507547 -0.47132087 -0.22113194 -0.08435784 0.6315409 0.8214365 -0.47542343 -0.43797013 0.11344639 0.17907831
现在 0.032839436 -0.71208286 0.1721476 -0.2039406 -0.17089169 -1.2063793 0.094809934 -0.74946976 1.57522 0.4971277 0.1152631 0.6850027 0.31709293 -0.75288427 -0.44498783 -0.33011103 0.17272443 -1.4270664 1.1425848 0.16317686 -0.07184559 0.21065666 -0.15685812 -2.314642 -0.7511663 -0.23696569 0.75480694 0.26269016 -0.8455115 0.34551588 0.48933735 0.023522833 0.056682214 0.24596736 0.5892408 0.5442176 0.251023 0.43978986 0.7102234 0.60311645 0.05155529 -0.41848132 -0.13001388 0.14966077 1.5273502 1.0532966 -1.1073416 -0.45265138 0.3423163 0.84824145
表示 0.11350287 -0.37505856 0.29077128 -0.43542746 -0.23025441 -1.41132 0.09231452 -0.9383246 1.3831842 0.21826375 0.14584509 0.61134684 -0.22137587 -0.22377549 -0.29335877 -0.27979603 0.2717345 -1.3904407 0.8405053 0.28355336 0.2621049 0.08565414 -0.1838723 -2.3981936 -0.5698949 -0.49859166 0.5436588 0.28689432 -0.7499114 0.2301758 0.6415322 0.20693202 0.36120832 0.1710387 0.58527774 0.44789955 0.4753176 0.29844427 0.6538174 0.5062584 -0.006979577 -0.060616042 -0.38976535 0.040568717 1.5270916 1.3250803 -0.6535476 -0.8659709 0.27015334 0.5899323
虽然 -0.18779908 -0.33385053 -0.068509474 0.15293294 0.26054698 -0.8194803 -0.3961158 -0.26096028 1.2102928 0.0068367925 -0.29792944 0.45808652 0.07096992 -0.6225102 -0.53293085 -0.41404665 -0.22323135 -1.2278596 1.1249319 0.06835822 -0.49891213 0.136224 -0.48134443 -1.3144736 -0.30676493 -0.30271104 0.67088234 0.47152793 -0.5004608 -0.09564267 0.19241858 -0.09031825 -0.06982913 0.010707447 0.14678128 -0.013753764 0.39704904 -0.24308917 0.63095284 0.0602614 0.085745096 -0.4388448 -0.06988725 -0.18455927 0.64638215 0.4674662 -0.7503727 -0.38413274 0.22785941 -0.07776188
比分 -0.2672238 0.0034423 -0.31906712 0.8401243 0.99554145 -0.25174496 -1.1954514 0.49092126 1.3704833 -0.4214159 -1.0993643 0.0068855225 0.17997034 -1.0253537 -0.97131693 -0.43830654 -0.98038197 -1.128743 1.6892661 -0.23917791 -1.4560088 0.44774508 -1.0759783 -0.20570154 0.15450038 -0.21691272 0.81288517 0.8065852 -0.3221103 -0.14014083 -0.41476405 -0.4171063 -0.55898774 -0.08607003 -0.5118217 -0.8261126 0.55306256 -1.0285937 0.83684343 -0.7563 0.3538694 -0.3053033 0.20054841 -0.22800535 -0.0123637095 -0.22010662 -0.7981361 -0.19603994 0.03271088 -0.9946093
最终 -0.27540243 -0.17970505 -0.31855935 0.36212113 0.6336581 -0.68633866 -0.7967115 0.14559336 1.3694986 -0.12971349 -0.87465936 0.44189763 0.16311127 -0.70739335 -0.7851052 -0.39364508 -0.47960836 -1.3218895 1.6577479 0.023401694 -1.0530171 0.021627005 -0.8497968 -0.88181305 -0.03413594 -0.3585886 0.7494529 0.6654075 -0.4032331 -0.30848455 -0.037590493 -0.17154004 -0.42985862 -0.13737349 0.006572458 -0.18322705 0.44664666 -0.7497673 0.63528055 -0.21685678 0.3624309 -0.4367357 0.14992273 -0.19382557 0.4143657 0.0703244 -0.67980796 -0.1729288 0.33538088 -0.6604361
世界 -0.2272722 0.8439115 -0.37690672 -0.38868746 0.96825886 -1.266624 -0.8519066 0.31969827 0.8488126 -0.8966849 -1.0004256 0.8037687 -1.4305645 0.6403604 -0.5272298 -0.0055602733 0.11407566 -1.4414595 0.92170113 0.385933 -0.58898604 -0.7240382 -0.9566496 -0.9307655 0.76105636 -1.3499328 0.2682926 0.775566 0.10971341 -0.98216534 0.77891517 0.30730194 -0.081608646 -0.3160596 0.24086758 0.13853996 0.5918115 -1.1162665 0.2810821 -0.81482786 0.67409146 -0.084284194 -0.29089957 -1.0428655 0.41767037 0.021928985 0.2682463 -0.6343972 0.56714785 -1.9901581
这场 -0.53063554 -0.7420996 -0.05839507 -0.07130092 -0.16553436 -1.3903754 -0.008049078 -0.36091378 1.3073113 0.24630843 -0.18866584 0.7305618 -0.20612805 -0.19632852 -0.292237 -0.57457006 -0.2151677 -1.2826375 1.5040145 0.46272427 0.0065150345 0.007156308 -0.37224916 -2.019048 -1.0738224 -0.03947922 0.8096598 0.62644774 -0.41346446 -0.4013808 0.285767 0.39314443 -0.15381202 0.04455111 0.31781554 0.20743032 0.47054765 -0.3284304 0.43672028 0.6242429 0.33054063 -0.46588704 -0.19791993 0.01237424 1.0827075 0.86988467 -0.7570219 0.07704745 0.273227 0.56031775
上半场 -0.13931876 0.5071195 -0.5363433 1.2228252 1.317929 -0.05761183 -0.5139616 0.90667784 1.4577041 -0.6501999 -0.92835754 0.078563236 0.4377986 -1.6072757 -0.9202546 -0.48824146 -1.310724 -1.0779825 1.3004118 -0.43203226 -1.3360555 0.58563125 -0.51863813 -0.4822394 0.7833423 -0.6923785 0.37028822 0.4816254 -0.8394652 -0.1223004 -0.25673342 -1.2184144 -0.3573813 -0.59048706 -0.96687937 -0.71596724 0.28237462 -0.46146694 1.6089537 -0.47452998 -0.0907003 -0.46798107 -0.19216324 -0.48341128 0.28675675 -0.56788 -1.3557025 -1.261681 0.24889487 -0.49055225
一次 -0.42330357 -0.43914452 -0.012523264 0.33884853 0.19268762 -0.77083594 -0.40621984 -0.08952788 1.2187204 0.094114065 -0.36960825 0.41164696 0.27968654 -0.7525936 -0.4192634 -0.4286452 -0.3556341 -1.1478324 1.359173 0.07097581 -0.55094296 0.35618994 -0.59706163 -1.1629598 -0.36974728 -0.12795624 0.7869404 0.58933395 -0.46116108 -0.17360184 0.06036084 -0.059311252 -0.23073609 0.13154708 0.09221714 -0.20381628 0.290706 -0.2561884 0.7458424 0.011586179 0.12474674 -0.43510726 -0.15020013 -0.0903878 0.6603533 0.29404187 -0.9530839 0.05371757 0.12584871 -0.058762457
麦迪 0.55270237 0.40049434 -0.6086219 0.6407454 0.63138664 -0.58002514 -0.406009 -0.07833585 1.3679583 -0.39106327 -0.2948852 -0.33001614 -0.083564036 -0.9725585 -0.59914196 -0.43724826 -1.0337363 -0.43416637 0.54399204 -0.39517003 -0.228554 0.8733414 0.17574885 -1.3679763 0.14188755 -0.36784634 0.25544807 0.059851583 -1.0039215 1.0962064 -0.26849973 -0.7320915 0.9098657 -0.38935778 -0.6909683 -0.67766255 0.69953436 -0.02032032 1.5666507 0.07433664 -0.5594362 0.20275001 -0.3709238 0.18205175 0.73275316 0.70001596 -1.0024949 -2.3236792 -0.038403276 1.1177872
本场 -0.57080764 -0.32008362 -0.3381399 0.4462287 0.30189538 -0.87961 -0.10610993 0.26559708 1.047809 -0.0186762 -0.40840924 0.40787137 -0.105791084 -0.5287426 -0.28426015 -0.53133297 -0.8029086 -0.87885445 1.2485927 0.19259432 -0.27601382 0.267443 -0.29980376 -1.2644985 -0.48657256 -0.115197815 0.54119986 0.60019875 -0.38486296 -0.48865443 0.022515021 -0.09271208 -0.16736701 -0.24657607 -0.22858293 -0.25572336 0.33890417 -0.4176178 0.76700765 0.35047114 0.1578999 -0.36944333 -0.2852876 -0.12294829 0.6454244 0.2936251 -0.82845175 -0.28708193 0.15847482 0.34121832
对于 0.010020235 -0.41644418 0.10010334 -0.32410508 -0.09533583 -1.2548127 -0.093724474 -0.6977809 1.3443264 0.20191307 -0.036551457 0.6279371 -0.13647695 -0.36922216 -0.37283868 -0.37622792 0.15284728 -1.3758386 1.0838428 0.26319417 -0.00939649 -0.016887972 -0.2843284 -2.1387188 -0.5687304 -0.36547053 0.6851643 0.289457 -0.6933241 0.16969214 0.44932464 0.15361096 0.20981336 0.09758283 0.5225738 0.40112826 0.47030258 0.049871884 0.5718738 0.50664383 0.024078526 -0.2586692 -0.1939859 0.06830289 1.2841686 1.0109545 -0.6570208 -0.62706274 0.37034392 0.49119255
如果 -0.14808844 -0.79682285 0.111138806 -0.087930545 -0.15044598 -1.2149256 -0.20111167 -0.684985 1.4935033 0.43997607 -0.014815664 0.6354953 0.2808871 -0.64694697 -0.4637489 -0.3989963 0.0683672 -1.3979225 1.3078524 0.16819356 -0.21912694 0.23906578 -0.3814575 -2.0172172 -0.80641353 -0.12963666 0.87558156 0.43127307 -0.6728752 0.08499757 0.37314835 0.12233238 -0.009900972 0.28448915 0.5296934 0.28358418 0.3223151 0.09973831 0.60559434 0.41544658 0.09613573 -0.48364133 -0.05846342 0.06123708 1.1939104 0.9439106 -1.0329654 -0.16577393 0.2512135 0.52760506
21 -0.42609385 1.3353431 -0.8195128 0.59935033 1.8375796 -1.0672883 -1.0270917 0.912564 0.31032565 -1.5432023 -0.72507554 0.49588203 -1.5410318 -0.22422326 -0.36168057 -0.1962363 -1.2438829 -1.5584079 0.15346909 -0.17807983 -0.823325 -0.27437574 -0.4709651 -0.58783376 1.4865427 -1.5297016 -0.23636986 0.78450394 0.08977546 -1.6121347 1.1786536 -0.9734689 0.39751464 -0.8072498 -0.6150004 -0.76922965 0.55952877 -0.86279464 1.1725028 -1.3378506 0.20718986 -0.52739733 -1.0069366 -1.6508467 -0.42035276 -0.33438727 -0.14091077 -2.4544926 0.09598746 -2.1009634
队 -0.14152451 0.22710745 -0.24267428 0.29546103 0.68922746 -0.76458657 -0.5391411 0.15828167 0.9496465 -0.3743615 -0.4301888 0.25612754 -0.34256488 -0.5403716 -0.4838735 -0.22536841 -0.6010608 -1.0975255 0.8434752 -0.040609673 -0.57600087 0.1535472 -0.5233907 -1.0114716 0.28256625 -0.59288466 0.31670237 0.51045495 -0.34161693 -0.30704445 0.37927377 -0.33233848 -0.012806312 -0.2186687 -0.22068606 -0.29729992 0.3728748 -0.33563733 0.85642624 -0.40321255 0.14619905 -0.21706592 -0.3410543 -0.49021256 0.47024798 0.17227378 -0.539812 -0.9773 0.06373959 -0.6067002
却 -0.14334199 -0.51129514 0.115191065 0.090480685 0.09628257 -0.90642565 -0.3267789 -0.43341658 1.406308 0.15180154 -0.19042704 0.46558905 0.17894019 -0.71977895 -0.55203795 -0.40764365 -0.10871326 -1.318051 1.2445257 0.06948006 -0.4294008 0.29951286 -0.5210778 -1.593916 -0.46861613 -0.2665707 0.8034824 0.46750465 -0.5957854 0.034910053 0.24092346 -0.030076707 -0.099001475 0.1713045 0.21385597 0.04972069 0.39673048 -0.11754376 0.6809159 0.10194599 0.046754304 -0.45083028 -0.050765507 -0.103091344 0.8821543 0.66054285 -0.94450897 -0.27023125 0.22171865 0.1220031
本赛季 -0.299864 -0.024155078 -0.36981335 0.37350217 0.5539802 -0.9457843 -0.73030424 -0.010567615 0.96046066 -0.28407273 -0.3267393 0.10378832 -0.38315448 -0.4101042 -0.34515113 -0.4528518 -0.74954844 -0.87693566 0.8782029 -0.04431111 -0.37009048 0.4247258 -0.4397015 -1.0621003 -0.21942185 -0.18680212 0.46934682 0.6172281 -0.25527114 -0.21159863 0.19335961 -0.080505766 0.30491942 -0.0045331526 -0.16271256 -0.6815778 0.5501819 -0.4800921 0.8422559 -0.29910746 0.050918616 -0.19338791 -0.4148826 -0.34436747 0.25058207 0.510473 -0.53594315 -0.88533926 -0.1967378 -0.2232607
她 -0.1260564 -0.49497393 0.36383927 -0.51287115 -0.23913187 -1.2657493 0.07694532 -0.7660031 1.2618296 0.15587808 -0.055461828 0.89596826 -0.134376 -0.123671465 -0.3792351 -0.29568297 0.5025808 -1.6302073 1.0605463 0.36756682 -0.08784858 -0.28008842 -0.51851374 -2.0392358 -0.45991033 -0.5838512 0.64852595 0.42858025 -0.52007115 -0.2557916 0.67115295 0.25686884 -0.14820221 0.101613075 0.746556 0.6941157 0.3801941 0.0031311112 0.35209933 0.35160568 0.20612201 -0.39308497 -0.12959993 -0.16788647 1.2899185 0.83207154 -0.6105269 -0.1825383 0.50209975 -0.022904636
世锦赛 -0.18010315 0.7591207 -0.0899754 -0.56902003 0.77802235 -1.6709384 -0.551965 0.0040282644 0.79924935 -0.8961287 -0.2766498 0.35653326 -1.6470449 0.68949294 0.041166045 0.05086498 -0.21877934 -1.0071713 0.22082694 0.35539168 0.6147932 -0.2120934 -0.3049152 -1.7208073 0.3356551 -0.9120923 -0.22974843 0.73221743 0.18641715 -0.55891967 1.2820221 0.29110593 0.7299921 -0.079381436 0.3111807 -0.20723926 0.67260087 -0.27333027 0.6011661 -0.592976 0.33183277 0.4885831 -0.93289435 -0.89489937 0.73038495 0.8898406 0.25372016 -1.8586154 -0.059909925 -0.78284085
武汉 -0.03729429 1.327946 -0.4446753 -0.36315715 1.2395892 -1.3717668 -0.32703727 0.4873556 0.42422038 -1.0425766 -0.7754049 0.8862789 -1.4462566 0.48807347 -0.18937632 0.13539097 -0.22705473 -1.5817294 0.29975772 0.32676247 -0.43426067 -1.0693555 -0.48734817 -1.0232801 1.4259391 -1.9039184 -0.33322668 0.45799354 -0.17314728 -1.2839147 1.094202 -0.46512908 0.1146129 -0.8594002 0.25790447 0.28277045 0.32903668 -0.55803496 0.72743887 -0.5615569 0.39950493 0.03731153 -0.7550841 -1.0546676 0.65833193 -0.14031981 0.2902274 -1.9339643 0.731867 -1.7989368
6 -0.24900503 0.68859303 -0.6770175 1.2459023 1.4603757 -0.09853249 -1.3221009 0.77324 1.0616643 -1.0888422 -1.0266047 -0.12819238 -0.17172462 -0.97508544 -0.9396055 -0.4763607 -1.2953409 -0.97700363 1.1119485 -0.4659126 -1.5360327 0.5096151 -0.8254219 0.2031972 0.84011334 -0.6983014 0.33228353 0.7428474 -0.25090107 -0.38933524 -0.23214 -0.96223855 -0.13176069 -0.5102403 -1.0177792 -1.1502191 0.64846796 -1.0237786 1.2354031 -1.112154 -0.033362087 -0.52674073 -0.15857661 -0.9362294 -0.62371916 -0.65029377 -0.76729864 -1.3910749 -0.029805012 -1.2885901
进入 -0.24264449 0.46856683 -0.55640537 0.16879107 0.8098545 -0.9209134 -0.14267318 0.48011443 0.66273683 -0.50083876 -0.35101032 0.45500192 -0.54517287 -0.41851783 -0.17341629 -0.19075103 -0.65507776 -0.9309239 0.39842856 0.055692837 -0.11000085 -0.13473432 -0.05256077 -1.0470988 0.42626342 -0.7102962 -0.037201762 0.41098645 -0.20198263 -0.665858 0.5615934 -0.35257483 0.26450095 -0.4713823 -0.062613316 -0.1969731 0.17834175 -0.19710967 0.9487735 -0.1256852 0.031954434 -0.17929614 -0.59510314 -0.50641835 0.5638403 0.17747647 -0.39987507 -1.296311 0.27342275 -0.3813892
11 -0.23376895 0.90956455 -0.6923148 1.0748111 1.6214159 -0.4222609 -1.2686762 0.809066 1.1151307 -1.1447473 -1.0735154 0.007904584 -0.43197703 -0.9147391 -0.86433655 -0.38852614 -1.3168156 -1.229014 1.0531721 -0.3651337 -1.4098668 0.35632753 -0.82459956 -0.18555951 1.0001348 -0.95476 0.23893109 0.82885057 -0.30108136 -0.5727199 0.098957606 -0.93396264 0.004004339 -0.538952 -0.9342095 -1.1081947 0.63547117 -0.94212997 1.3855996 -1.1624825 0.0716731 -0.40930498 -0.39604697 -1.1086777 -0.33974728 -0.45719534 -0.67218554 -1.7485137 -0.032355685 -1.5084931
不是 -0.044845935 -0.95319194 0.2715532 -0.22831786 -0.28406602 -1.3643409 0.030070195 -0.92476994 1.7726625 0.64954513 0.05678853 0.83860487 0.47263956 -0.89466953 -0.52233845 -0.44537324 0.30357835 -1.7358942 1.4379548 0.1842356 -0.22872546 0.23265123 -0.30813032 -2.513452 -0.8832708 -0.22876689 1.0124873 0.30261067 -1.0065049 0.25774327 0.4740164 0.055232406 -0.0794771 0.32539275 0.6843969 0.60011894 0.2722943 0.38363388 0.77545285 0.7507929 0.09425035 -0.53789586 -0.02776893 0.17978334 1.6530137 1.062762 -1.2689707 -0.21594194 0.429746 0.7738864
火箭队 0.03073285 -0.22046782 -0.6102404 0.3784212 0.31227356 -0.8961516 -0.56945914 -0.20780317 1.1158211 -0.029143227 -0.26906538 0.07184443 -0.030953951 -0.7188924 -0.42617702 -0.5713754 -0.7633773 -0.72981673 0.9286579 -0.09091824 -0.25149533 0.49010754 -0.02953745 -1.3860497 -0.43467948 0.08528196 0.6600703 0.26291275 -0.5880668 0.39899367 -0.14650111 -0.16116466 0.5896807 -0.13474983 -0.09576648 -0.4411255 0.5830548 -0.31871843 0.91192144 0.2216999 -0.19032046 -0.22442916 -0.24514589 0.19780335 0.5267382 0.72883016 -0.80191284 -1.0307444 0.010630426 0.6969509
得分 0.1852658 0.11249534 -0.3114426 0.70335865 0.57156205 -0.29550922 -0.5008362 -0.020167397 1.2534101 -0.26900977 -0.37203878 -0.1833832 0.22502871 -1.0405802 -0.6275029 -0.38238585 -0.8055009 -0.618166 0.8322892 -0.37192264 -0.568099 0.77408 -0.20308156 -0.8626323 0.06482412 -0.2942391 0.4109714 0.269644 -0.78283334 0.6500954 -0.27334842 -0.6244699 0.33255273 -0.12424004 -0.5715701 -0.6167345 0.49382174 -0.121630445 1.2068117 -0.09957592 -0.3288025 -0.08788942 -0.15384279 -0.05287749 0.41638094 0.29616088 -0.99528885 -1.2960867 -0.03112551 0.40618291
选手 -0.48328716 0.28086564 -0.2925356 0.10811457 0.84655535 -0.9287148 -0.5290433 0.3990541 0.8362364 -0.5488294 -0.6475329 0.6338 -0.6521401 -0.26196545 -0.41170007 -0.11591404 -0.4742562 -1.3400869 0.917434 0.15009336 -0.4815031 -0.31634614 -0.5454367 -1.0787642 0.46150357 -0.76138955 0.26324087 0.69965297 -0.01616978 -0.9225788 0.7267919 -0.21638218 -0.020221189 -0.3797888 0.10619327 -0.015620081 0.26433724 -0.47087264 0.5883201 -0.39916885 0.30880082 -0.4084135 -0.41698122 -0.7944443 0.39692438 -0.014902519 -0.28732783 -0.84690225 0.38275823 -1.0827042
位置 -0.18101652 -0.2506136 0.12774543 0.031275492 0.19435498 -0.93543 -0.1997715 -0.3172952 1.1436684 0.08142481 -0.19914283 0.53268486 -0.0027095366 -0.5212979 -0.3492727 -0.27072135 -0.11204251 -1.3085493 1.0540874 0.12054374 -0.3553523 0.0816838 -0.4829144 -1.4257694 -0.112315424 -0.5367469 0.5474609 0.47651333 -0.56891364 -0.24747515 0.39680633 -0.10182159 -0.09395648 0.040564567 0.25769788 0.1320563 0.23124456 -0.013999258 0.7277355 0.113581456 0.11149675 -0.2185742 -0.20571652 -0.1970172 0.9331923 0.44248495 -0.740941 -0.38880038 0.29682833 -0.15323679
因为 -0.21560565 -0.78256166 0.18314506 -0.1716295 -0.16889702 -1.3128304 -0.112053156 -0.74136806 1.4987179 0.43291983 -0.012232519 0.7225543 0.1866723 -0.59180266 -0.41423097 -0.38727793 0.12751465 -1.4973586 1.3177468 0.22991191 -0.11556807 0.17826034 -0.38156164 -2.1701784 -0.78363365 -0.21553946 0.88465685 0.4654683 -0.6619114 -0.01042646 0.46325076 0.17839529 -0.0112712355 0.27854714 0.60002804 0.35648963 0.32612085 0.1352655 0.6163307 0.46506652 0.11808075 -0.4640704 -0.1588009 0.017737221 1.2973328 0.9718328 -1.0194758 -0.1487321 0.29949096 0.45766
最 -0.16998231 -0.47307277 0.024323141 -0.25284275 0.005448113 -1.3471134 -0.21934462 -0.5999331 1.2323337 0.18267266 -0.022340136 0.6566309 -0.26527867 -0.31223354 -0.30147102 -0.37418196 0.039141018 -1.4016505 1.0598456 0.28626603 -0.0124033345 0.010943251 -0.29802164 -2.0454502 -0.58180296 -0.3236395 0.7199385 0.44183248 -0.54544944 -0.046395984 0.5531782 0.2004488 0.251097 0.14460334 0.5405438 0.2910807 0.4177392 0.016193593 0.5870857 0.34855452 0.09356207 -0.33353734 -0.33156615 -0.12053848 1.1208941 0.93780357 -0.66315407 -0.5474024 0.29373056 0.30669764
领先 -0.2647241 0.0941088 -0.6437778 0.9266141 1.0662873 -0.3538135 -1.2345066 0.5245417 1.3463206 -0.508285 -0.9093145 -0.10981614 0.12599637 -1.0691593 -0.9559097 -0.53134716 -1.1945261 -0.93536747 1.5195602 -0.31952968 -1.2330916 0.5923382 -0.7983204 -0.42462602 0.072279 -0.08274508 0.68629247 0.74514484 -0.32633752 -0.10248137 -0.3465467 -0.4933246 -0.15804733 -0.19515494 -0.6443821 -0.97554606 0.6780361 -1.0024766 1.0602758 -0.7292973 0.07176242 -0.42037526 0.039977513 -0.37018716 -0.20601244 -0.08036178 -0.8930892 -0.7054043 -0.06563674 -0.65626365
客场 -0.3914601 0.17847513 -0.55053586 0.51905435 0.9243644 -0.79294187 -1.0163658 0.40918013 0.88516814 -0.5321268 -0.565567 0.14244373 -0.47558632 -0.51596564 -0.56662714 -0.46744105 -0.98287505 -1.0681877 1.0480726 -0.10162988 -0.79768306 0.24736394 -0.63714 -0.697299 0.07114487 -0.31738794 0.5094486 0.71173406 -0.10301978 -0.5826509 0.21071967 -0.28315735 0.02142868 -0.19782595 -0.33716804 -0.7476741 0.61781496 -0.8788372 0.78388524 -0.6762141 0.17768013 -0.44207406 -0.30898395 -0.591282 -0.12723637 0.08871105 -0.48457628 -0.8556466 -0.08639929 -0.8680166
来 -0.0015418907 -0.33664116 0.15425014 -0.2907277 -0.049528092 -1.2478479 -0.027265023 -0.6174474 1.2192445 0.19013251 0.02537107 0.6365173 -0.16797315 -0.34736395 -0.30585295 -0.2978221 0.14893375 -1.3349038 0.88898367 0.23150486 0.024087219 0.012814607 -0.28348097 -2.0209358 -0.4177199 -0.47027415 0.54765457 0.3413561 -0.6632445 0.063947365 0.57884103 0.094295636 0.17579454 0.0954326 0.4985926 0.35201514 0.3665488 0.17180714 0.6354724 0.3528477 0.06960068 -0.21923947 -0.28743595 -0.02966097 1.2713624 0.95085466 -0.6908019 -0.6570277 0.27764735 0.37381664
状态 -0.12411089 -0.66002905 0.07314356 -0.07503502 -0.10663494 -1.1366854 -0.2095677 -0.55972266 1.4584845 0.33367556 -0.026442017 0.449584 0.07132945 -0.59985125 -0.39928362 -0.4017986 -0.047586083 -1.2240968 1.2016764 0.13521613 -0.05052287 0.3462446 -0.28829283 -2.0073578 -0.75886023 -0.05130139 0.7636171 0.39923838 -0.6162936 0.18631731 0.3501414 0.15665135 0.076824546 0.23292467 0.39711854 0.18150045 0.3521332 0.07563579 0.6554061 0.33751747 0.07983845 -0.28745973 -0.13879436 0.09691668 1.1441629 0.9469979 -0.90789044 -0.3638934 0.1572914 0.59449434
曼斯 0.5583588 -0.19066307 1.9657298 -1.3555955 -0.6802706 -0.24561055 0.94697315 -2.045418 1.5418782 -1.0033398 0.47642088 1.6672199 -0.12734948 -0.0893182 -1.4351465 -0.5702402 1.943359 -2.99588 0.64834833 0.46581963 -0.3600627 -1.332232 -0.91330945 -2.4941306 0.24029402 -2.122058 0.7872798 -0.0026566251 -0.9629377 0.6081794 1.0800188 -0.08706959 -0.56506 -0.27204108 0.7469304 1.8758291 1.3367589 -0.23746756 -0.23428014 0.017314492 -0.76609993 -1.2272838 0.14834183 -1.0503676 1.4524455 1.0627643 -0.21354386 -1.112319 1.6979736 -1.0270704
结果 -0.10258261 -0.3103051 0.02670084 -0.32757062 -0.0038804277 -1.2466358 -0.15274735 -0.42271784 1.1661879 0.2302974 -0.32654113 0.72937834 -0.104530975 -0.051368654 -0.2379017 -0.2062016 0.24936458 -1.3376651 1.1741871 0.40349236 -0.27276507 -0.35535932 -0.5557321 -1.5510902 -0.32115492 -0.5059333 0.52363825 0.4285567 -0.49798894 -0.28411767 0.4125935 0.27671498 -0.16376528 0.006463576 0.67423177 0.46687195 0.24400887 -0.06605398 0.385359 0.4498131 0.3344349 -0.1428289 -0.10607308 0.0081791105 1.172681 0.58954215 -0.40530297 -0.16592516 0.45590562 -0.054867156
战胜 -0.3781802 0.3735527 -0.69992954 0.4107839 1.0423089 -0.66340935 -1.1469791 0.49878645 0.73342746 -0.675738 -0.82323265 0.1323334 -0.6447266 -0.27677596 -0.58776915 -0.3758202 -0.914365 -0.8868706 1.0063214 -0.0751872 -0.77782524 0.021964738 -0.6927441 -0.41532698 0.26905164 -0.31328517 0.42409268 0.74429023 0.10938486 -0.6007181 0.18972589 -0.16192333 0.08616873 -0.25757045 -0.32900876 -0.73072237 0.66107696 -1.1116555 0.54113036 -0.79964 0.32901794 -0.35784653 -0.17441458 -0.6503925 -0.33185223 -0.012918228 -0.16746825 -0.76748776 -0.040631484 -1.1820625
00 0.061633743 0.77274734 -0.5212654 1.2066305 1.3945025 0.26724228 -0.074720226 1.1342678 1.053308 -0.600544 -0.83583724 0.08493806 0.59360355 -1.700991 -0.78208154 -0.16071036 -1.2431381 -0.81028765 0.7883043 -0.49817115 -1.2116365 0.39677343 -0.15399715 -0.17870787 1.1912634 -0.8699478 -0.023064956 0.17969468 -0.87462634 -0.0017157585 -0.11586768 -1.5259154 -0.44385964 -0.8126976 -1.0825489 -0.41950423 -0.047599424 -0.0011677825 1.6096902 -0.3491487 -0.13472869 -0.33458498 -0.15616883 -0.4001208 0.43301055 -0.88062584 -1.2585703 -1.4561858 0.37553412 -0.3784905
7 -0.42986038 0.7186703 -0.8008503 1.1888858 1.5668905 -0.4263051 -1.3028568 0.90264285 1.0661641 -0.99337023 -1.03642 0.097865134 -0.25441816 -0.96111697 -0.8325192 -0.48947036 -1.354259 -1.2030582 1.17905 -0.36441892 -1.5073956 0.37268868 -0.8175987 -0.03347729 0.8362145 -0.77989566 0.32772166 0.8126386 -0.22492509 -0.7403333 -0.010261538 -0.9006535 -0.12543453 -0.56137806 -0.89315 -1.0598512 0.53794396 -0.97701174 1.3441026 -1.0134814 0.13439213 -0.5770474 -0.3170003 -1.024182 -0.43745688 -0.6241453 -0.78052264 -1.3872138 -0.017693901 -1.3557688
可能 -0.12391799 -0.7437142 0.05827833 -0.09773425 -0.021904333 -1.0599104 -0.08680496 -0.5500282 1.268602 0.45541137 -0.050918832 0.8372016 0.40301007 -0.7287242 -0.44193807 -0.30329674 0.18171602 -1.5182307 1.201349 0.1470782 -0.44729304 -0.08497399 -0.2891163 -1.7628516 -0.5390537 -0.26819715 0.78249264 0.26310807 -0.67405236 -0.09866832 0.44505498 -0.087020755 -0.17525809 0.115538076 0.60077196 0.5460618 0.12249469 0.20024969 0.53459716 0.48434332 0.093625136 -0.6997138 0.043401238 -0.034730047 1.1128538 0.57293564 -0.9771633 -0.12953465 0.4689411 0.29168242
把 -0.1479901 -0.50935674 0.29631603 0.046142507 0.03749829 -0.89154506 -0.06207059 -0.52034014 1.4671018 0.22052057 -0.11691318 0.61023474 0.35213286 -0.8042512 -0.5711595 -0.34427342 0.0032356698 -1.4390497 1.2524706 0.08883741 -0.38811916 0.25835764 -0.51301795 -1.7268472 -0.42758772 -0.3801144 0.73660636 0.4723174 -0.70421565 0.031573463 0.39435142 -0.0870822 -0.23982008 0.21889798 0.2554448 0.21802777 0.30811957 0.082464755 0.7104228 0.17708449 0.105936915 -0.42181477 -0.08883959 -0.10861531 1.1442734 0.671911 -1.0419993 -0.15806796 0.2614403 0.11139456
次 -0.26413724 0.48934355 -0.8391382 1.2499318 1.4526588 -0.022917097 -1.4350325 0.8146835 1.0533861 -0.8369719 -1.0254676 -0.1723584 -0.030772064 -1.1328598 -0.9201847 -0.47064897 -1.282093 -0.84345347 1.2461715 -0.5105076 -1.5756098 0.5888691 -0.7628521 0.32055625 0.6808163 -0.35010475 0.3706203 0.72262657 -0.27332395 -0.33239776 -0.34804094 -0.894126 -0.17943807 -0.4157602 -0.90761703 -1.1667054 0.6155432 -1.0786564 1.1199561 -0.9793474 0.0077706096 -0.63419545 -0.017727181 -0.82065266 -0.7901611 -0.6729842 -0.7879531 -1.3311665 -0.11141507 -1.0512652
得到 -0.1718309 0.12222282 -0.28734773 0.6730666 0.56645435 -0.37587973 -0.6577618 0.14680402 0.9235512 -0.41984674 -0.45931357 0.01036374 0.007131905 -0.66263217 -0.5064275 -0.40820396 -0.68125385 -0.7145018 0.8221475 -0.164202 -0.66557556 0.48884737 -0.42791107 -0.49361864 0.116902895 -0.32715344 0.39690137 0.47476378 -0.33765492 -0.029605327 -0.13956784 -0.38927338 0.112722084 -0.18438132 -0.43061176 -0.6345466 0.41291946 -0.3707471 0.92980725 -0.34587273 -0.12723951 -0.30515063 -0.1776298 -0.3628502 0.026831172 0.035805423 -0.7045673 -0.8230946 -0.0026990208 -0.21643358
场 -0.84027535 0.07672957 -0.87363034 1.0203874 1.1091987 -0.48122528 -1.0873734 0.9333554 0.58676124 -0.56212735 -0.73533887 0.24233131 -0.2373498 -0.6977537 -0.42371467 -0.616436 -1.2064161 -0.89915556 1.1745919 -0.13828547 -1.1460614 0.24441107 -0.5823965 0.091069646 0.19027422 -0.10596075 0.45353493 0.8312351 0.0912327 -1.1773516 -0.024245428 -0.4468135 -0.32219443 -0.38619688 -0.52707136 -0.9212256 0.35954183 -1.0332234 0.7798016 -0.59153587 0.19995272 -0.8755833 -0.2277413 -0.76111674 -0.68975943 -0.6084082 -0.5749869 -0.5326967 -0.06886168 -0.94947875
时候 -0.058231983 -0.47759783 0.1868424 -0.1468827 -0.113490514 -1.0841029 -0.21196613 -0.5975316 1.2591227 0.15008801 -0.012399345 0.42988744 -0.06610602 -0.39635772 -0.35425544 -0.33969063 0.03666579 -1.1722423 1.0101701 0.13666816 -0.061154716 0.2684171 -0.3121855 -1.7998716 -0.58924735 -0.26171967 0.6557103 0.372338 -0.5674215 0.11987064 0.36399317 0.113824844 0.07928085 0.16510609 0.39376736 0.19696319 0.439845 0.017272664 0.56716025 0.29075584 0.0033030694 -0.2261187 -0.13040894 0.002601363 1.0196942 0.8247991 -0.75258255 -0.47116834 0.19848427 0.41307634
实力 -0.16183847 -0.49178863 -0.08977472 -0.13505179 0.0503489 -1.1495587 -0.20296185 -0.3968734 1.1968839 0.28903592 -0.2156737 0.72343063 0.07726148 -0.48153323 -0.375722 -0.30807933 0.052506093 -1.3927226 1.1679838 0.2385555 -0.3189807 -0.1216208 -0.35533363 -1.684337 -0.38398445 -0.33986118 0.69041175 0.38623226 -0.5373606 -0.22374463 0.42113623 0.05509264 -0.0040648393 0.0023369552 0.5437139 0.3721879 0.20449983 -0.017589143 0.5397082 0.4305843 0.1527729 -0.41693524 -0.081040844 -0.041745696 1.055673 0.5873995 -0.7142327 -0.29134065 0.43449217 0.11479862
图文 0.020905787 1.4740807 -0.68328774 0.17309606 1.5519507 -1.0213449 -0.800417 0.5890811 0.3890878 -1.3387991 -0.59795636 0.04557148 -1.5542895 0.24183615 -0.1832761 -0.060179334 -1.0227808 -0.8259714 -0.1071508 -0.14817488 -0.22323366 -0.11878723 -0.26573336 -0.7315917 1.2474492 -1.2518215 -0.45032632 0.5657763 -0.06274889 -0.59343916 0.8502446 -0.54672056 0.75936574 -0.5753869 -0.5593415 -0.8725909 0.72424245 -0.6501494 1.0539709 -1.052556 0.08453372 0.3389121 -0.9709659 -1.0747732 0.03658884 0.20374972 0.27422202 -2.6028924 -0.116033204 -1.3175154
取得 -0.414407 -0.17121936 -0.5033596 0.6609132 0.7912934 -0.60682714 -1.1504444 0.26793683 1.14949 -0.36677903 -0.66214544 0.16117427 -0.007981582 -0.76780796 -0.71857303 -0.5804861 -0.8591323 -1.0857561 1.4632967 -0.15711358 -1.0389005 0.37551033 -0.7708146 -0.6103043 -0.21351968 -0.012856033 0.7957685 0.7444296 -0.17154577 -0.32611632 -0.07717427 -0.21175486 -0.19227877 -0.058412172 -0.30778983 -0.7395058 0.63966566 -0.9340816 0.72989815 -0.5414938 0.22364211 -0.6142271 0.033288777 -0.37262645 -0.20335457 0.023058614 -0.68527234 -0.4146709 -0.09025644 -0.6638199
奥沙利 0.2980749 0.87097013 0.17122953 -0.64227533 0.33504787 -1.3582273 -0.5572853 -0.11645792 1.3139446 -0.9727155 -0.22433513 -0.5602681 -1.9078443 0.3694839 -0.1240298 0.13958609 -0.38818657 -0.3973036 0.3397748 0.35687098 1.3352507 0.6447705 0.078276575 -2.5439994 -0.23453423 -0.14439008 -0.17924473 0.6513853 0.15517108 0.7426042 1.1123314 0.5723863 1.3505235 0.20444475 0.050227866 -0.33995596 1.0457565 -0.039433073 0.5196113 -0.8575258 0.0852309 0.91065496 -1.0437418 -0.4179814 0.9085564 1.7151715 0.014757431 -2.349322 -0.30684343 0.36270416
出现 -0.25907397 -0.25565562 0.0753523 0.12090166 0.21056677 -0.8156433 -0.21068677 -0.20132181 1.1145108 -0.0525337 -0.23979174 0.45669612 0.0054453937 -0.51240987 -0.4061096 -0.3556753 -0.23520976 -1.1532984 1.0563011 0.10182757 -0.32748017 0.17411049 -0.500967 -1.3142991 -0.22080396 -0.3873197 0.571104 0.5002834 -0.45079437 -0.2274592 0.2776448 -0.10827392 -0.08494574 -0.0187607 0.13149197 -0.04771667 0.33833626 -0.1781024 0.688684 -0.0021243412 0.043570094 -0.33823106 -0.25465408 -0.21717255 0.7505961 0.41446894 -0.74945295 -0.3587971 0.21666783 -0.12301336
赛后 0.21858697 -0.11651873 0.46549314 -0.31727752 -0.06428412 -0.9471232 0.09039918 -0.7448211 1.1702002 -0.048091922 0.10184781 0.36852938 -0.26570582 -0.20386396 -0.36814532 -0.17374244 0.20276345 -1.1400826 0.57727194 0.085589096 0.11350367 0.17017351 -0.30311552 -1.8172961 -0.22610389 -0.62881714 0.31687236 0.31124398 -0.64797324 0.29717228 0.5780475 -0.0051081334 0.14422941 0.14763077 0.21829489 0.24467319 0.4897016 0.20192726 0.6184388 0.07971653 -0.012664135 0.027850088 -0.30650985 -0.15492983 1.1822678 0.9623679 -0.5926932 -0.9029565 0.14740184 0.24940717
秒 0.25957182 1.7317957 -1.1196679 1.5929337 2.341705 -0.026069287 -0.7672828 1.5150279 1.3492534 -1.5351509 -1.291717 -0.12039633 -0.17333391 -1.7272315 -1.0330052 -0.24371229 -1.9759172 -1.0528545 0.7498909 -0.69958633 -1.5775309 0.48342916 -0.3076283 -0.24658084 2.023822 -1.546539 -0.29887122 0.43324813 -0.94348377 -0.08060665 0.03130378 -2.0068817 0.13084964 -1.2791578 -1.5898956 -1.0901835 0.42808276 -0.4644716 2.3478532 -1.0351942 -0.2480698 -0.13732177 -0.60661966 -0.9591786 0.1276007 -0.9208425 -1.1766968 -3.2096038 0.29281875 -1.0304437
裁判 0.045289554 -0.39129525 0.33841416 -0.07499619 -0.012338286 -0.9331198 0.14741948 -0.5364156 1.304686 0.1724588 0.05673499 0.5719847 0.15497376 -0.7010432 -0.44256744 -0.28311205 0.066258445 -1.3345151 0.87096334 0.08910378 -0.13055192 0.26379585 -0.3251183 -1.850384 -0.2991712 -0.5080501 0.54219335 0.30453372 -0.8019901 0.13683394 0.46028095 -0.17201604 -0.052114848 0.10998613 0.2565762 0.30585405 0.27835593 0.30076697 0.801774 0.25008756 -0.03174794 -0.2494218 -0.24162686 -0.08850613 1.2653289 0.7550203 -0.991891 -0.56940484 0.2681856 0.33852622
双方 -0.3375388 -0.07585694 -0.34259984 0.50558335 0.56614316 -0.494314 -0.3027091 0.3191464 0.9108497 -0.1522914 -0.4393555 0.39071992 0.17554377 -0.8995757 -0.50449204 -0.4402174 -0.6780133 -1.003397 1.0285603 -0.03419906 -0.6398466 0.18367322 -0.32341006 -0.84286904 0.029257447 -0.25883123 0.5205978 0.3647804 -0.44775158 -0.32637116 0.049245335 -0.43826675 -0.12832502 -0.30128083 -0.2341933 -0.22360156 0.23459409 -0.33935076 0.8427298 -0.026474526 0.048599202 -0.5220722 -0.15741648 -0.21006396 0.3907343 -0.028290022 -0.8211605 -0.4725374 0.2553334 -0.18253246
希望 0.029364541 -0.62678695 0.3519041 -0.3721249 -0.2716561 -1.2195566 -0.031802475 -0.9331571 1.4736464 0.35431117 0.121565506 0.6362616 0.01584486 -0.36415434 -0.42033848 -0.3386799 0.34669307 -1.4365877 1.0754505 0.22345945 -0.015612988 0.08674326 -0.37708777 -2.1627336 -0.74681765 -0.28793162 0.7469858 0.39677212 -0.6810298 0.255247 0.53838605 0.2551619 0.09022456 0.34054142 0.61032826 0.4362283 0.42155102 0.16558819 0.4822134 0.38279733 0.08051387 -0.2971342 -0.1097922 0.00707517 1.3215517 1.1126108 -0.7736561 -0.35944432 0.2582288 0.4694723
