6230 50
的 0.052593093 0.008418746 -0.119556345 0.16391061 0.27889714 -0.07029874 -0.09654067 0.17420454 0.3143981 -0.10864503 0.0016195065 0.15701425 -0.06861145 0.07308445 -0.10784853 -0.087320276 -0.2733916 -0.39019608 0.29795367 0.024529925 -0.14316338 0.05266711 -0.042740896 -0.19301759 -0.14121345 -0.13947803 0.05766438 0.24509731 -0.37558633 0.005169083 0.02560283 -0.20498633 -0.032718614 -0.0049036667 0.12429648 -0.32964504 0.12249947 -0.17423725 0.44566175 0.08923008 0.0062097064 0.06135839 -0.0758451 -0.17379563 0.074948534 0.21572873 -0.36327332 -0.19768356 0.11080461 0.059673227
在 0.024627086 0.018985355 -0.24120589 0.060213648 0.1945429 -0.30458406 0.05737797 0.007021038 0.31221613 -0.21421303 0.06366414 -0.07650308 -0.15718834 0.18375194 -0.20865726 0.020151924 -0.44992474 -0.4068299 0.23325205 0.147026 -0.30058286 0.13845794 0.08084984 -0.20635597 -0.19484888 -0.26780853 0.08632647 0.03185408 -0.32598332 0.07462114 0.28954703 -0.047101896 -0.29715604 -0.16816132 0.20944934 -0.29562572 0.024266578 -0.23177502 0.55560154 0.0666207 -0.2762795 0.18752313 -0.1967768 -0.25389954 -0.047791835 0.14018369 -0.16759029 0.03701263 0.28332353 -0.08203524
了 -0.11376061 0.12027649 -0.016863842 0.014907109 0.23578912 -0.19031255 -0.04397753 0.13922952 0.41412693 -0.37690148 0.026967585 0.13858643 -0.059210405 -0.099151455 -0.07562989 -0.025880776 -0.3461326 -0.2781663 0.294962 -0.05240464 0.075844795 0.2125377 0.056795932 -0.16116336 -0.24595878 -0.18956402 -0.07476953 0.14521101 -0.3777455 0.06755734 0.113214776 -0.34022668 -0.16992742 -0.04087963 0.20611292 -0.2383952 0.19617611 -0.20372942 0.39440408 0.048685595 0.020268952 0.26681173 0.004459198 -0.12061337 0.15066302 0.0865575 -0.21057466 -0.15390407 0.046119343 -0.03351216
比赛 -0.38949206 0.34010673 0.056393154 0.26036406 0.55508125 -0.2176722 0.057167258 0.34708613 0.4085969 -0.65326935 -0.015078378 0.013715126 -0.2134776 0.13885504 -0.54478717 -0.3069644 -0.090872675 -0.3844534 0.5904783 0.15501949 -0.50928265 -0.11088822 0.048853543 -0.22718918 -0.32949305 0.10830706 0.0023602382 0.17071605 -0.3572488 -0.0462458 0.42556846 -0.27777514 -0.334176 -0.11829476 0.0055642645 -0.10456835 0.0713433 -0.08345128 0.43081167 0.005035871 -0.11513172 -0.032869305 0.049864527 -0.3101606 0.28169757 -0.0580551 0.13080771 -0.3119849 0.110583805 0.08112751
是 0.14730597 0.10303803 -0.3605885 0.08978871 0.36763883 -0.28969085 -0.14298573 0.40110123 0.07019991 -0.08810658 -0.17775269 0.24663481 -0.18048371 -0.15413532 -0.054306794 -0.078524545 -0.17163461 -0.32005274 0.33043426 -0.043098267 -0.37500346 -0.062100537 -0.026391113 -0.21390997 0.0067698103 -0.22813575 0.20336 0.3167304 -0.2649129 -0.06444929 0.01736952 -0.4831954 0.035464685 0.14998528 -0.065315634 -0.3643714 0.17299968 -0.24266128 0.41522157 0.10941878 0.017439509 0.0802165 -0.073544346 -0.43283933 0.0925256 0.030661486 -0.4562358 -0.22033253 0.047618646 0.1430443
和 0.51725894 -0.118897274 -0.07630762 0.13020131 0.13564485 -0.08349426 -0.54614794 -0.13110591 -5.5894656e-05 -0.042764783 -0.19673142 -0.09072745 -0.07618949 -0.060674846 -0.017804429 0.0044755996 -0.14159438 -0.47005832 0.19726433 0.10202251 -0.19532783 -0.09694912 -0.37566534 -0.4262958 0.30689904 -0.08277955 -0.13709207 0.39689025 -0.17667904 -0.097216785 -0.24665585 -0.127105 -0.18514122 -0.17860861 -0.014057072 -0.6696423 0.2227471 -0.041951917 0.57054365 -0.17099768 0.0338708 -0.08027766 -0.4284834 -0.36034495 -0.28451702 0.24530673 -0.2327326 -0.16791725 0.44724855 -0.21264105
也 0.05995186 -0.14937209 0.036942407 0.07916946 0.35544902 -0.1367554 -0.26892394 0.07665631 0.10487364 -0.17131153 -0.05477757 0.3181175 -0.15979707 -0.07999217 -0.19996305 -0.15057537 0.01165897 -0.6069545 0.30340913 0.119858444 -0.15095259 0.08560523 0.05942876 -0.33304796 -0.19433457 0.048300702 0.06489001 0.12727775 -0.4142778 0.026433172 -0.043094337 -0.42535082 -0.063826434 0.014751172 0.09717466 -0.3837671 0.1719685 -0.054934464 0.298399 0.0064008287 -0.08763973 0.046764974 0.0025276728 -0.31128153 0.17057523 0.1420944 -0.5179782 -0.21200143 -0.07521947 0.0913664
他 -0.2166295 -0.028586846 -0.09557241 -0.06393635 0.23854692 -0.14871344 -0.23118871 0.2276024 0.31031856 -0.28793284 -0.008518669 0.17650564 0.03192833 0.009872712 -0.08079193 -0.30808055 -0.11785736 -0.59011114 0.22860941 -0.25283408 -0.013788333 0.49718416 0.21435763 -0.28445843 -0.1659331 -0.047585208 0.082358934 0.19554102 -0.22515503 0.07503637 0.3634807 -0.32998726 0.2971797 -0.0338131 0.0269089 -0.026382929 0.26838633 -0.19440387 0.32344374 0.09343191 0.22047609 0.11772312 -0.08577673 -0.4687788 0.319489 0.095762245 -0.5835644 -0.274588 -0.27863115 0.374638
说 0.34540126 0.32828358 -0.33485508 -0.27790156 0.5220191 -0.5949373 -0.41635966 0.03506707 0.090844825 0.2939722 0.11770692 -0.19467022 -0.7153699 0.25455087 -0.12821376 0.3927465 0.35039344 -0.83168614 0.04918743 -0.11502673 -0.3321887 0.20753379 0.13248032 -0.49893743 -0.16001475 -0.45261297 -0.59015703 0.25360274 -0.8814042 -0.15006168 0.13774754 -0.11163472 0.26407903 0.29487726 0.27128914 -0.70484674 -0.34548187 0.05695177 0.2884802 -0.9133317 0.08575307 0.36525804 -0.75444114 -0.011674789 -0.023812208 0.6608681 0.009525048 -0.6426511 0.0024614588 -0.0018754422
中 -0.17310348 -0.03028824 -0.11556121 0.28870612 0.34406862 -0.13043119 -0.06475144 0.23672606 0.34101948 -0.44295087 0.012098432 -0.122874655 -0.102830544 0.22928084 -0.30298483 0.158451 -0.4242481 -0.32684517 0.5376046 0.053250033 -0.45524505 -0.08620222 -0.24369897 -0.23464361 -0.1840554 -0.30990422 -0.11949449 0.17704903 -0.56459033 -0.51905084 0.037907977 0.16719079 -0.05338999 0.09009462 -0.09073135 -0.3708534 -0.053935867 -0.31040484 0.4610897 -0.0059909294 -0.124322295 0.25557202 0.113684915 -0.44002098 -0.11765014 -0.111968 -0.101713784 -0.10007077 0.2722612 0.012292936
将 0.0694636 0.46499947 -0.1807202 -0.1216113 0.07904987 -0.26188627 0.017127654 -0.05655849 0.15480687 -0.15444879 0.26832396 0.046293136 0.044669032 -0.07221981 -0.21353629 -0.005462266 -0.7124865 -0.32447183 0.1401421 0.23901877 0.19578585 -0.45323986 0.0014071557 -0.045846 -0.041624334 0.02960487 -0.04177633 -0.1238826 -0.34877807 -0.11334971 -0.03577603 0.109935105 -0.22908355 -0.55592203 0.15984873 -0.81607157 -0.003696221 -0.33683455 0.3628737 -0.14540586 -0.15200712 0.43230814 0.08833637 -0.32917076 0.36632803 0.13446987 -0.25027198 -0.27703226 0.43238175 -0.24560425
我 -0.29692942 -0.0379679 -0.004729039 -0.25050953 0.6666067 -0.6174338 -0.21369807 0.21878912 0.33914965 -0.42806503 -0.13131922 0.5669951 -0.010241779 -0.12703319 0.21639597 -0.45128137 0.17342097 -0.61120063 -0.019617854 -0.112810604 -0.16592678 0.45635188 0.29541647 -0.2682639 0.0020094628 0.12597392 0.03616154 0.49280605 -0.26144093 0.26884556 0.69620734 -0.6796491 0.4302546 0.26700696 -0.06470111 0.05677448 -0.13480161 -0.17862654 0.08730927 -0.13476698 -0.033164497 -0.030090153 -0.060120154 -0.51433426 0.65155745 0.23462191 -0.88452625 -0.6391002 0.04056165 0.4551018
都 0.36097705 -0.26177213 0.09107976 0.3253287 0.5255063 -0.42093018 -0.4509936 0.022595165 0.29943132 -0.08955499 -0.19965431 0.22416696 -0.060428213 0.06280862 -0.16229829 0.009433066 0.07124341 -0.5847057 0.053464778 0.041730173 -0.3668571 -0.12871669 0.02663811 -0.40843776 -0.07487646 0.31337324 0.37876403 0.29098016 -0.2928502 -0.014567871 0.19002792 -0.42718944 0.16774014 -0.0898417 -0.011252613 -0.53084797 0.2067549 0.076977655 0.35992998 0.11969816 -0.029172994 0.08032229 0.05294931 -0.2853904 0.4405811 0.004283429 -0.64777946 -0.11463019 0.22597791 0.2711652
火箭 0.20668554 0.4219905 -0.72253805 0.4632992 0.082962215 -0.12251616 -0.73415774 0.33921346 0.15411822 -0.3571886 0.38394466 -0.54959196 -0.63035136 -0.19689602 -0.28351736 -0.3434328 -0.46695 -0.51607287 -0.14982831 -0.49568033 -0.27474022 -0.10840346 0.73216236 0.61756605 -0.11674046 0.4491317 -0.03878853 0.01104459 -0.16835555 -0.010659328 0.9065448 -0.22217235 0.6106672 -0.65527225 0.24223953 -0.04222798 0.08077125 -1.2566094 0.7308625 -0.103149526 0.2129581 -0.17491257 0.11426952 -0.29639435 -0.08125319 0.053586006 -0.34089828 -0.62435806 -0.37636796 0.28474158
吧 0.16766417 0.52400166 -0.19092011 -0.4728835 0.5460071 -0.16202492 -0.21747248 0.043231748 0.23282431 0.15586463 0.19985662 -0.43752825 -0.6702616 0.5895777 -0.25744638 0.7530994 0.07395807 -1.1330087 -0.37576166 -0.3229457 -0.59077406 0.3311767 -0.51191986 0.0015571492 -0.097272165 -0.400288 -0.8591482 -0.0108059915 -0.94119895 -0.35601845 0.2639588 0.051994447 0.56136125 0.085688464 0.51844573 -0.6997373 -0.24600911 -0.056721672 0.47064582 -1.031606 -0.23208582 0.58749723 -0.59273416 -0.0012569316 0.16588879 0.79416 0.13067725 -0.85072356 0.14430355 -0.19741471
搜狐 0.4686444 0.2645556 -0.038305584 0.6363717 0.4122575 0.042220145 0.006952708 0.7652965 0.58905977 -0.40601066 -0.9248916 -0.7228829 -0.2523033 -0.2026122 0.24372743 0.33893973 0.4567066 -0.31988585 0.121548824 0.36485657 -0.1410866 0.2422708 0.3044756 0.93176514 0.62205106 0.10241767 -0.16085657 -0.20943396 -0.6770513 0.07098031 0.7901622 -0.71521056 -0.47655743 -0.9918755 -0.19218025 -1.0826619 -0.35042068 0.38980177 0.42429823 -0.9469099 -1.4223326 -0.4291284 0.04404864 -0.4115037 -0.04983271 -0.2828262 -1.001612 -0.75433004 -0.74196553 -0.5005938
上 0.13011658 -0.3679294 -0.0066209733 0.01432335 0.5167598 -0.08694727 -0.087682664 0.14422126 0.06958666 -0.052038852 -0.07538249 0.025969522 0.011862612 0.28500295 -0.40868172 0.283368 -0.72145605 -0.5744719 0.25268385 0.17265563 -0.021011474 0.25220755 0.12601003 -0.22816508 -0.30822998 -0.38586524 -0.041963223 0.124907665 -0.6022975 0.032750506 -0.16361801 -0.23520677 -0.13110833 -0.19681683 0.3170389 -0.089974545 -0.009145135 -0.105887085 0.36121845 0.24885003 -0.028172884 0.53976864 -0.24239583 -0.4759293 -0.28813592 0.20072922 -0.21983106 0.037305877 0.0104650315 -0.1197698
但 0.23763332 -0.10056136 0.04008538 0.08491127 0.3909719 -0.081481814 -0.26284555 0.22577007 0.50641394 -0.05107568 -0.19547835 0.26893464 -0.003456022 -0.11212976 -0.086261995 -0.17989312 -0.11111505 -0.31357554 0.26092508 -0.022531625 -0.18168202 0.07692926 0.07617738 -0.53571534 -0.3470911 -0.10027908 0.29914263 0.082819164 -0.44107714 0.04978399 0.048057407 -0.17271094 -0.0027398444 -0.07357456 0.23810802 -0.46189532 0.07371045 -0.20832232 0.35922974 0.13985111 0.18771753 0.12207094 0.11448964 -0.057967488 0.26895958 0.14034103 -0.38294655 -0.16003525 0.032968003 -0.054220967
分 0.23281096 0.61477536 0.0073031327 0.35719845 0.008693989 -0.37942973 -0.78518105 0.1035941 0.8079624 -1.1503783 -0.2735139 -0.61043835 -0.63970023 0.42449093 -0.19125351 -0.74304295 0.12302271 -0.5928771 0.03625677 0.07069948 -0.08177548 0.4104785 0.104539454 0.3980578 0.10829098 0.06875883 -0.10833759 0.18376127 -0.19696434 -0.034572437 -0.5694187 -0.14118916 -0.7461599 -0.31441543 -0.006693582 -0.83194214 -0.06332428 -0.45278874 0.4925218 -1.036528 -0.015925111 -0.35092592 -0.0472005 -0.3465647 -0.2910594 -0.8477514 -0.33621565 -0.9826222 -0.10532304 -0.39153224
我们 -0.019533549 -0.10483754 -0.22325814 0.09409355 0.663028 -0.59779537 -0.22359489 -0.016408063 0.34259027 -0.27607092 0.13535732 0.41510454 0.13590296 -0.11385203 -0.12244154 -0.39059603 -0.13449854 -0.53343797 0.24793603 0.002994039 -0.3714038 0.2868142 0.2990421 -0.03159945 -0.23553526 -0.0027106237 0.16217028 0.66824347 -0.28118935 0.17721221 0.5805881 -0.58665043 0.21281609 0.07971872 -0.0150641175 0.007309992 -0.105718225 -0.37986007 0.10920959 0.12004254 -0.0107583245 -0.04164041 0.3040973 -0.17490079 0.56541866 0.05938446 -0.84524125 -0.78095037 0.11923904 0.6252829
有 0.3563852 -0.2522072 0.0024335166 -0.12145608 0.36331636 -0.5623754 -0.38096553 0.059271853 0.24578853 -0.25739557 -0.19959095 0.18846467 0.19895785 -0.059547447 -0.06630329 -0.1365924 -0.080305815 -0.5654426 0.12615848 -0.123782136 -0.2030477 0.06102543 0.12134181 -0.20741431 -0.05687396 0.124022394 0.09507841 0.6321448 -0.35325745 0.06946109 0.22462079 -0.1728073 0.21787262 0.16922678 -0.13725314 -0.30012065 0.09631314 -0.23166078 0.5642563 0.22381428 -0.03062171 -0.05119246 0.07655388 -0.19831176 0.008626461 -0.21830451 -0.5905127 -0.36595953 0.31738725 -0.00496843
姚明 0.15719943 0.49483743 -0.51671255 0.20789371 -0.029102467 0.04992274 -0.920295 0.14489722 0.5661099 -0.7062954 0.79566693 -0.58262146 -0.19716315 0.015674427 0.08535776 -0.44207227 -0.5113359 -0.33454162 -0.073769696 -0.7535941 0.2349837 0.30969837 0.6282097 0.1601995 -0.19907418 0.09940177 -0.0812791 0.31199607 -0.23440424 0.32850668 0.60816294 -0.49788827 0.7079628 -0.7688131 0.47804955 0.20115094 0.08270224 -0.88195676 0.7235663 -0.2877504 -0.25547636 -0.07399451 -0.33400083 -0.038061257 -0.09781428 0.08124373 -0.35531983 -1.0867267 -0.6226886 0.90248543
这 -0.040102642 0.36585853 -0.067161575 0.004790984 0.47543162 -0.17479429 -0.31118974 0.3067061 -0.040338453 0.014616735 0.015763035 0.41869447 0.07014953 -0.06497055 -0.28663695 -0.34894723 -0.09490914 -0.73723274 0.5190501 -0.18581639 -0.2539951 0.09693432 -0.044009794 -0.118984185 -0.17108952 0.18535987 0.021782437 0.1681171 -0.5528727 -0.1514317 0.018557949 -0.5050927 0.09209516 -0.07417768 -0.08067051 -0.3030559 0.078437686 -0.096112646 0.22874905 0.112657905 0.07508347 0.42091426 0.269476 -0.5495916 0.041572582 -0.14814092 -0.46596947 -0.2962931 -0.19304995 0.18024643
第 -0.76662236 0.28491116 0.5241389 0.19254497 0.08299448 0.29771724 0.07597283 -0.25202024 0.9174084 -0.2622256 0.33785486 0.03815879 -0.24682434 -0.04728397 -0.032033704 0.35793015 -0.5528127 -0.32184827 0.104157984 -0.1939497 -0.4037931 0.05264696 0.013985633 -0.12763357 0.07970285 -0.28997368 -0.25474375 0.75496346 -0.9319299 -0.09125671 0.16195148 0.57983935 -0.81484824 0.092211865 -0.30352506 -0.13937056 -0.016140733 0.28216812 1.0091393 -0.61912084 -0.038090717 -0.28060555 -0.32924303 0.20296295 0.07466064 -0.60900795 -0.17492115 0.110943004 -0.45494327 -0.9058644
与 0.32604334 0.107484475 -0.46723947 0.19573551 -0.04137788 -0.21459328 -0.22145066 0.18112296 -0.17906429 0.19088688 -0.02428622 -0.14278388 -0.16848753 0.066666156 -0.15506369 0.26783788 -0.13228656 -0.6984682 0.28569612 0.17068721 -0.24816784 -0.3649817 0.13383517 -0.15745193 -0.18248169 -0.091608986 -0.18789485 -0.05359594 -0.48781586 -0.1332975 0.03792082 0.013342992 -0.44541648 -0.032365058 0.33885056 -0.717839 0.037646435 -0.2707419 0.5694472 -0.25593942 -0.08792088 -0.10945135 -0.1941777 -0.57220995 -0.06217385 0.32680842 -0.09617766 -0.04384987 0.6150166 -0.31928566
没有 0.33798823 -0.123480625 0.091156885 0.018408664 0.26255924 -0.41040653 -0.105246 0.049499977 0.75426155 -0.13995902 -0.30909032 0.30904582 0.17001691 -0.2507786 -0.22519784 -0.26494604 -0.15330948 -0.25556672 0.07787744 -0.010937597 -0.20427035 0.25537315 0.34621277 -0.25262448 -0.5487382 -0.30034873 -0.14466064 0.05348939 -0.3760535 0.115055285 0.5623614 -0.068153925 0.1514473 -0.14849196 -0.10097075 -0.4497971 0.20479481 -0.33126426 0.3318012 0.3679954 0.114895 0.22228189 0.06427106 -0.24957639 0.3876785 0.1081248 -0.5096808 -0.018951574 0.060843777 -0.17831932
4 -0.45869875 0.24436188 -0.6609903 0.64386266 0.390988 0.09979672 -0.16380738 -0.19717577 0.42785874 -0.45638728 -0.11456494 -0.0043547526 -0.7225599 -0.19813175 -0.40184107 0.2943638 -0.43944725 -0.9078438 -0.39343533 -0.9612668 -0.095093355 0.44504547 -0.13386045 0.2355969 0.0497584 -0.55603427 0.28896034 -0.30129513 -0.56215054 -0.24061292 0.66614974 -0.2526951 -0.3859468 -0.43932578 -0.56493914 -0.9062864 -0.5390642 0.39411944 0.038462486 -0.85173947 0.22982377 -0.39766455 -0.0020245602 -0.021060174 -0.38606063 -0.8563814 -0.77685905 0.13309379 0.72721577 -0.45688894
球队 0.38154805 0.09995731 -0.0056149308 0.013550546 0.022806887 0.09174503 -0.11563769 -0.007224215 0.10041738 -0.3522705 0.18094975 0.24972807 0.34642562 0.0616823 -0.24834904 -0.15893787 -0.4038908 -0.4799787 0.4114676 -0.0058506825 -0.36263517 -0.097729616 0.18211721 0.03364101 -0.053475324 0.12585852 0.35260072 0.5780298 -0.12103669 -0.30443916 -0.15164877 -0.475699 0.21453862 -0.14102925 0.4952189 -0.76569587 -0.09255685 -0.30564806 0.12897833 0.11120227 0.14753489 -0.18042609 0.10337724 -0.41073805 0.47947282 0.12287733 -0.6850437 -0.31385854 0.31614435 -0.06946567
分钟 -0.4608615 0.5874796 0.29704237 0.26662773 -0.056376953 0.37799934 0.07737753 -0.2053106 1.1488057 -0.06346596 0.7380659 -0.27376047 -0.0063768076 0.11745076 -0.06812392 -0.12214652 -0.19266227 -0.18145396 -0.035280675 -0.3046553 0.0562829 -0.2618413 -0.109967835 -0.40790707 -0.04423025 -0.17433165 -0.36053863 0.92885005 -1.0735643 0.29041463 0.12996963 0.68592775 -1.0314289 0.5292581 -0.10797053 -0.003098404 -0.065441795 -0.04060845 0.9190442 -0.5483019 -0.17425375 0.06643299 -0.5475001 0.1679893 0.30557093 -0.5858493 -0.50681984 0.018840685 -0.1280548 -0.786044
新闻 0.46408394 0.7437389 -0.50779456 -0.6187116 0.35947478 0.06689602 -0.09897195 0.46032652 0.13882957 0.46997404 0.00050134904 -0.7872579 -0.54009104 0.54484534 -0.082384326 0.44180393 0.18612522 -1.4644792 -0.47208557 -0.056849215 -1.0015627 0.30507323 -0.7322615 -0.04295869 -0.39630154 -1.169501 -1.059041 0.18231072 -0.7281818 0.027054898 -0.15785088 -0.11288539 -0.06054448 -0.014102039 0.29788297 -0.959388 -0.7183593 -0.21880937 0.577994 -0.9132715 0.24190347 0.12192927 -0.8141404 -0.0032195393 -0.21503866 1.1947433 -0.047655698 -0.7104231 -0.10654778 -0.06657878
就 -0.23092753 0.05976909 -0.02678596 -0.14966804 0.366689 -0.1914366 -0.25707847 -0.0014948732 0.20040335 -0.3316395 0.21033959 0.44865832 0.06512485 -0.10188325 -0.3044003 0.12860197 -0.0909989 -0.41465655 0.28781244 -0.14381029 0.034823462 0.37646243 0.25618944 -0.16989131 -0.55622995 0.19937961 0.045635357 0.34108055 -0.28830442 0.03381377 0.3173719 -0.32100695 -0.3021153 -0.12912706 0.2543362 -0.20950808 -0.018146602 -0.2452832 0.21109438 -0.16303809 -0.15880708 0.13094638 0.079385884 -0.04747371 0.2309962 0.2710805 -0.57766074 -0.21208362 0.1559449 0.018451596
被 0.5079715 -0.29397056 0.048665285 0.020979282 -0.20440993 -0.0008813133 -0.03705324 -0.059930805 0.13117795 -0.18923034 -0.13635008 -0.14857912 -0.0016414376 -0.61125284 0.057113692 -0.008204078 -0.30840108 -0.09509685 0.16805229 -0.13120177 -0.17160317 0.2668045 -0.30372682 -0.42946503 -0.27008152 -0.013437091 0.21549623 -0.15806642 -0.59242105 0.18186058 0.20653284 0.44597015 -0.3231725 -0.20697199 -0.13621828 -0.63234615 -0.027124997 -0.3310982 0.9309715 -0.48858446 -0.36179808 0.35484827 0.23395176 -0.48291263 0.48521864 -0.20889878 -0.20971671 0.15748553 0.20103016 -0.42004868
对 -0.08522016 -0.0020870888 -0.055893086 0.26885292 0.3799585 -0.26165947 -0.31677645 0.297532 -0.015464041 0.06428221 0.18351291 0.06254549 -0.41693273 -0.2929167 0.36849162 -0.11623401 -0.069299236 -0.73003775 0.40161 0.24029784 -0.30519065 -0.2371933 0.07785541 -0.4179859 -0.100051165 -0.07544475 -0.13141002 0.25420934 -0.46347713 -0.14606602 -0.10898714 -0.59427214 -0.017321479 0.28423116 -0.060982652 -0.6152218 0.07439112 -0.2705787 0.384522 0.119790204 0.00914353 0.09104286 -0.18727133 -0.14010602 0.2958855 0.08412457 -0.19886647 -0.3520812 0.26651013 0.2690877
月 -0.5876151 0.12587345 -0.19594216 -0.15313575 0.09664915 -0.28659582 0.14933197 0.16111535 -0.02404296 -1.0746592 0.13327768 -0.03247674 -1.0788857 0.17215212 0.2036113 0.16996717 -1.4539753 -1.2113245 -0.44986477 -0.4819827 0.41644388 0.004780033 -0.19138381 -0.11984237 0.42067507 -0.11735671 -0.12194492 0.05353731 -1.2462668 -0.78799915 1.3704698 -0.02812856 -0.21227176 -0.011163817 -0.10896125 -1.705704 -0.585572 -0.19099963 -0.45401475 -0.5160813 -0.3367935 -0.56769246 -0.4730644 -0.44296965 -0.45347556 -1.1531961 -0.5072256 -0.0805966 0.48468247 -0.51123714
而 0.11474511 -0.115540534 -0.10638397 0.053842172 0.2679134 0.020890787 -0.24805568 0.1690638 0.1772515 0.0012749844 -0.073845215 0.23526034 -0.04404979 0.08348822 -0.15250447 -0.020592293 -0.42315653 -0.36393762 0.3570176 0.040757257 -0.09654219 0.024176018 -0.2844687 -0.11833233 -0.32398605 -0.09025546 -0.09055597 0.020805014 -0.27507022 -0.08418406 -0.08353569 -0.09871115 -0.22489017 -0.1402696 0.050097693 -0.3838395 0.0770715 -0.19815429 0.39868587 0.12707019 -0.15800385 0.19421877 -0.17869379 -0.22781385 0.003977112 0.07195215 -0.44763026 -0.15392618 0.22163107 -0.25983253
爵士 0.28912398 0.33458883 -0.6903327 0.4911204 0.18274404 -0.009850799 -0.68243235 0.4492396 0.10007432 -0.33363917 0.33001706 -0.74253863 -0.74335897 -0.08877024 -0.34414938 -0.32105196 -0.6540824 -0.086533636 -0.2471931 -0.50080323 -0.11777559 0.20070283 0.47506452 0.61158764 -0.56731707 0.18873231 -0.096542574 0.05820511 -0.19620287 -0.19789875 0.6712663 -0.16301383 0.33180344 -0.5604581 0.019805493 0.24338296 0.011778055 -1.6783117 0.541567 0.10709887 0.12724534 -0.32232803 0.043810584 -0.32201174 0.23214811 -0.0010565389 -0.6632585 -0.8575229 -0.67557496 0.2984918
后 -0.13189192 0.15468828 0.1953296 0.04009357 0.33058187 -0.08481702 0.0480696 0.027266284 0.513227 -0.1425558 0.3868343 -0.06474644 0.15841278 0.038259763 -0.45732573 0.23468688 -0.26194662 -0.26447162 0.08254748 0.093963176 0.41116333 0.23474024 -0.38156384 -0.2845932 -0.3869905 -0.021620516 -0.24369621 -0.07836384 -0.50855774 0.36138508 0.18092415 0.032457627 -0.65519375 -0.24820268 0.002473127 -0.46000054 -0.24854307 -0.41201416 0.6058646 -0.15347317 -0.3202882 0.42696097 0.110689715 0.021559164 -0.05987131 -0.01900383 -0.32873014 0.14848693 0.15582107 -0.075207114
到 -0.2940569 0.24994181 0.07367894 0.24888425 0.33639163 -0.6943218 -0.062433206 -0.3440547 0.30069926 -0.19876762 0.15800896 -0.089314185 0.0054746466 -0.015007944 0.08115172 -0.07895472 -0.37665004 -0.32673344 0.39962736 0.21589302 0.30829987 0.41435188 0.11034627 0.048281346 -0.58884376 -0.10545081 -0.04823211 0.11247632 -0.26794067 -0.06681659 0.0667645 -0.109139405 -0.45925418 -0.5335884 0.08145611 -0.5463767 0.28559285 -0.1372086 0.39352134 -0.2918076 -0.47183132 0.38709384 -0.5140953 -0.10639471 0.449053 0.17750503 -0.3501458 0.32204962 0.007332007 0.09623266
自己 -0.40355024 -0.10927335 -0.20323387 0.013662832 -0.04240057 -0.08919884 0.037844446 0.0912623 0.51586616 -0.31796515 0.16025743 0.36254036 -0.011952819 0.13799256 -0.10921348 -0.26108 -0.17073508 -0.7346392 0.31511176 -0.08239954 0.12950271 0.15608446 0.29739255 -0.3588226 -0.2901146 0.1546108 -0.10356459 0.42177096 -0.22605792 0.11739936 0.3904506 -0.47369447 0.40874794 0.15355344 0.2398922 -0.12550163 0.16693284 -0.5416612 0.038070783 -0.05065603 0.02156721 0.19966522 -0.23830919 -0.22261912 0.51653683 0.45304155 -0.5454701 -0.5325343 -0.24324688 0.19561334
很 -0.045901477 -0.75797373 -0.0478898 -0.017638104 0.46518424 -0.47191092 -0.25685135 0.007675675 0.5799329 0.057261016 -0.12504713 0.39907068 -0.34771976 -0.37176156 -0.0029580006 -0.52056646 0.47722077 -0.50303847 0.17301004 0.24736717 -0.2320585 -0.19459447 0.1907742 -0.35330576 -0.42102313 0.072657526 0.37813485 0.4464887 -0.6329866 0.09591396 0.36757892 -0.5392494 0.10667393 0.10455984 -0.28031504 -0.20630103 -0.2126953 -0.046316925 0.597015 0.19720729 0.028178155 -0.062155947 0.26869425 -0.40053698 0.23781845 0.00054948404 -0.71197534 -0.7584931 0.18734929 0.23204233
他们 0.14710279 -0.05940183 -0.34052125 0.21005282 0.3314204 -0.3010185 -0.41169617 0.1260249 0.35194486 -0.2135695 -0.11609825 0.26373786 0.11388275 -0.049360365 -0.011549075 -0.13948615 -0.46455595 -0.48599443 0.14887843 -0.038135678 -0.20354222 0.37138826 0.47285137 0.03487354 -0.4189999 0.2298674 0.41908887 0.41390872 -0.12635857 -0.20589599 0.41452053 -0.3005649 0.1895814 0.11093265 0.17691764 -0.01708996 0.19693112 -0.54642636 0.13416654 0.04131707 0.24002896 -0.07690831 -0.045635458 -0.24027501 0.37591007 0.13968588 -0.6430568 -0.31722417 -0.073342636 0.2610927
让 0.092055224 -0.11340585 -0.16731746 0.1792512 0.3459774 -0.30630517 -0.18407173 0.048270136 0.34055784 0.07922901 -0.14118679 0.23078966 0.11032041 -0.26663226 0.09957609 -0.010149039 -0.058806404 -0.69055814 0.2704484 -0.32501653 0.16976486 -0.060729984 0.09144147 -0.36872733 -0.39174742 -0.031009229 -0.065693334 0.18601194 -0.5034718 -0.0043804306 -0.042286362 -0.32614657 -0.057959165 0.26162934 -0.07205211 -0.39265457 0.39110315 -0.09744787 0.48319116 -0.15423499 0.075117916 -0.095230944 0.023545034 -0.14049838 0.29504016 0.30797395 -0.33390662 -0.2700122 0.1805627 0.25521702
1 0.53666437 0.5764042 -0.3036021 0.87578565 0.65929204 0.21905974 -0.11023928 -0.69627917 0.74304134 0.21991773 -0.6243644 0.29055104 -0.3509279 -0.659814 -0.45018312 0.17212316 -0.8208985 -0.47357714 -0.2564243 -0.2704239 -0.25790834 0.57071817 -0.20134833 0.55353576 0.20798323 -0.3278694 0.1132232 0.18348618 -0.55970615 -0.5399545 0.035406563 -0.3082837 -1.0368892 -0.2599115 -0.15691055 -0.30583268 0.23163122 -0.31641096 0.42804807 -0.6556145 0.64059854 -0.1907628 -0.14270501 0.08337106 -0.07384446 0.045327015 -0.033538286 0.08698528 0.7206871 -0.46751857
日 -1.155521 0.15540497 -0.9825028 0.19245015 -0.26465347 -0.78401375 0.17622466 0.034645937 -0.19931042 -0.69888985 0.44471088 -0.20095526 -0.91740984 -0.04773077 0.009224265 0.34690282 -1.1846061 -1.3322083 -0.46661767 -0.64307296 -0.16164942 -0.0018116306 -0.5321108 -0.18515296 0.3313473 -0.634947 -0.50439715 0.03739012 -1.0135694 -1.4165308 1.2035018 0.692464 -0.43397674 0.0064977803 0.07103426 -1.0260673 -0.8005435 0.10967611 -0.059088167 -0.8749998 0.21869624 -0.26577166 -0.12521082 -0.20933025 -0.53959036 -0.75958794 -0.9082048 -0.5250335 0.42196146 -0.23688073
多 -0.03662249 0.124878444 0.89920586 0.5563214 0.85186356 -0.5262279 0.27447736 -0.28632793 0.5615775 -0.41769302 0.6745005 -0.09696967 -0.04904185 -0.3403184 -0.510036 0.101850994 0.1728506 -0.7374382 -0.3198051 -0.26083595 0.41468513 0.44632444 0.42271125 -0.43518505 -0.32495356 -0.49162212 0.5025357 -0.04174252 -0.83083093 -0.16881853 0.16938566 -0.7879906 1.1689656 0.47495577 0.3533474 0.27822548 0.3757919 -0.35154217 0.24512902 0.110216714 -0.60065365 -0.3256161 0.47175136 -0.53006995 -0.45337445 0.517951 -0.5223119 -0.25320822 0.16784729 -0.50736994
一个 0.27813396 0.039461 -0.2391261 0.120915346 0.32343525 -0.25675747 0.0053282185 0.21556826 0.13458511 0.08889317 0.28488702 0.5546188 -0.09910173 -0.17529136 0.15175924 -0.23335749 -0.22950968 -0.6873139 0.15476915 0.079415776 -0.014260825 -0.03039655 -0.07992854 -0.14521539 -0.209678 0.032630496 0.3198465 0.35418722 -0.41010806 -0.024938645 -0.19467339 -0.5221239 0.17255378 -0.15415773 0.16606218 -0.29001406 0.2659713 -0.012833221 0.5083814 -0.06567343 -0.16378447 0.226935 0.01466267 -0.096170984 0.10471924 -0.098793775 -0.59956086 -0.19833899 0.009466045 0.13432772
时间 -0.57364607 -0.32924885 0.42598873 0.66799957 0.050377037 -0.25554582 0.18748261 -0.11745659 0.71432775 -0.76743865 0.20127864 -0.3394853 -0.90696126 0.027546044 0.22259167 0.48788655 -0.67962295 -1.0587761 0.1410914 -1.0584333 0.04161224 0.13554002 0.76614654 0.7162736 -0.03819564 -0.39359203 0.12746179 -0.08909968 0.017332086 -0.14659722 1.2959377 -0.028274842 0.27927476 -0.65811056 0.18632312 -1.1778617 -0.14961754 0.31334752 -0.08111319 0.28562674 -0.124713585 0.07626293 -0.36928022 -0.3090231 0.08689446 -0.8500557 -0.8256388 -0.71868145 0.6667944 -0.34139347
季后赛 -0.16175532 0.13402343 -0.7025254 0.32233155 -0.03944446 -0.28613913 -0.97371083 0.8479753 0.039643586 -0.79319817 0.8883521 0.042219967 -0.6112919 0.1964885 -0.023414478 -0.21130827 -0.67796403 -0.03510069 0.14029402 -0.67173254 -0.3665311 -0.38902143 0.5075829 0.7852927 -0.5775847 0.6332814 -0.11774952 0.27034658 -0.42848018 -0.1699286 1.1407623 -0.7320889 0.45802742 -0.31101894 0.014087743 -0.18749967 0.42596555 -0.81004035 0.33859733 -0.25945508 0.31801593 -0.20002949 0.2582394 -0.3608172 -0.16627751 0.28792024 -0.6175115 -0.14244677 -0.1695689 0.20390895
对手 0.30338073 -0.089200296 -0.31445652 0.35240495 0.26255906 -0.049075823 -0.17774658 0.0044435975 0.5578777 -0.18294227 0.06292742 0.2845506 -0.05911303 -0.09786961 -0.41457376 -0.19253069 -0.1902575 -0.30162194 0.28481117 0.045937467 -0.06738355 0.041493293 0.16594458 -0.3962482 -0.19763549 0.3068551 0.34999633 -0.021741005 -0.37053826 0.068098985 -0.026211558 0.06236573 0.20040102 -0.49461493 0.16230732 -0.15324354 -0.093857914 -0.5967962 0.1832305 -0.032337762 0.078262195 -0.051642615 0.26226044 -0.13803414 0.2388034 0.0987861 -0.5369198 -0.5115038 0.10971341 -0.3321201
不 0.2729479 -0.17186426 -0.12375618 -0.117382295 0.31524947 -0.33925268 -0.08012607 0.051672015 0.4040406 -0.03737352 -0.21663314 0.54002935 0.07166756 -0.46752083 0.14279431 -0.50745714 -0.05107221 -0.44468048 0.14234924 -0.021083541 -0.5595854 0.51060486 0.3847554 -0.4421616 -0.5077821 -0.04333741 0.035176743 -0.0036910933 -0.2209649 0.10901985 0.35370222 -0.55364287 0.22818145 0.2076995 -0.29547545 -0.24543098 -0.2708621 -0.29804927 0.19473769 0.077079676 -0.077712715 0.1760869 -0.11102624 -0.28950143 0.042051062 0.28873196 -0.70197684 -0.5862271 0.074779406 -0.14709795
以 0.17728877 0.12756203 -0.5889916 0.19268455 0.55951375 0.33837596 -0.09844899 0.19414328 1.1100488 -0.49498677 -0.5890875 0.123970404 -0.78780794 0.105745584 -0.64942807 -0.14737752 -0.5662642 -0.05439808 0.19143116 0.1375328 0.26354793 -0.14983374 -0.29242152 -0.3856882 0.12510836 0.08028534 0.15289968 -0.028553681 0.0077690994 0.13546647 0.06274692 0.14627893 -0.41351688 -0.09691644 0.087784246 -0.1580593 -0.12300557 -0.75537175 0.3869921 -0.52573705 0.084428795 0.31254193 -0.0049476624 -0.18739603 -0.28787425 0.23273593 0.061526727 -0.6850856 0.2724635 -0.5481081
球员 0.30430445 -0.09069469 0.17149162 0.29867938 0.06670869 -0.14774941 -0.066733085 0.18646473 0.050918505 -0.25703952 -0.24026391 -0.14940882 0.06403279 0.04297157 -0.2310873 0.14968768 0.018448012 -0.6026944 0.30543458 -0.13591681 0.065000124 0.01470967 -0.030186625 -0.42659113 -0.23737495 0.2892406 0.10842411 0.36445937 -0.24763642 -0.043453116 0.3221201 0.04058153 0.14717704 0.24307925 0.16411309 -0.5435746 -0.024471326 0.04206308 0.7303532 0.37556672 -0.0061861845 -0.27487904 -0.2960759 -0.42907307 0.059095696 0.040705867 -0.5709196 -0.06062114 0.039022397 0.21745421
为 0.11950622 0.59765214 -0.12705371 0.38733926 0.11679924 -0.08940144 -0.1494819 0.085275926 0.25704128 -0.22946863 0.050381053 0.5434923 -0.017584939 -0.36510885 -0.3367395 -0.056300573 -0.33492118 -0.063429825 0.25060493 -0.2232389 0.3142155 -0.34816617 -0.30292773 0.11781408 0.18734649 0.07032805 -0.13053797 0.19538729 -0.21928988 -0.017404862 -0.36372337 -0.25373012 -0.16282205 0.04009048 0.30209354 -0.7472245 0.06569071 0.013840193 0.43509394 -0.015177149 -0.0023886936 -0.05605276 -0.10218696 0.051336613 -0.05556586 0.49278757 -0.33711743 -0.40129617 0.21332194 -0.43450576
直播员 0.41423616 0.74423295 -0.059626766 0.9156451 0.71032983 -0.60322934 0.2907761 0.35017163 0.7765622 -0.4368501 -0.7308511 -1.0088357 0.29477072 -0.030577779 0.3770021 -0.002547891 0.07318196 0.064400226 0.19253194 0.33449996 -0.2600538 0.17347655 -0.09820574 0.35494253 0.50660884 0.18348606 -0.4604702 -0.45662928 -0.5672567 0.1683521 -0.275523 -0.1423764 -1.1407661 -1.028763 -0.33068174 -0.99586385 -0.32116666 0.27317154 0.6664399 -0.89447045 -1.6118368 -0.74073684 -0.58075696 -0.71870077 -0.2081968 -0.3018233 -1.2445605 -0.864894 -0.97435933 -0.21143556
还 0.06424975 -0.2625107 0.10235787 0.2469819 0.44739598 -0.359941 -0.30910596 0.3179809 0.31348136 -0.35743105 -0.23235169 -0.052929774 0.051136725 -0.030640906 -0.02483277 -0.12495562 -0.20226085 -0.570069 0.03467516 0.48162606 -0.058962688 0.4225014 -0.009642802 -0.059490584 -0.6148585 -0.35815147 0.042445585 0.47859374 -0.41355538 0.2844704 0.14909822 -0.2248731 0.18513103 -0.21058764 0.0766394 -0.3524107 0.13131313 0.160516 -0.05554805 -0.57934016 -0.21073751 0.06188466 0.047159415 -0.28195912 0.41011813 0.1381335 -0.4911641 -0.17684667 0.045497864 0.43083763
已经 -0.07525754 -0.32754508 0.0648137 0.12820181 0.17129058 -0.07320335 -0.23890293 0.47723764 0.30544734 -0.27561164 -0.03842956 0.10420912 0.19400197 0.09176955 -0.28732258 0.081042975 -0.43357652 -0.52540326 0.31080836 0.09261769 -0.012859231 0.32779384 0.010574422 -0.00047143654 -0.4290172 -0.01946243 0.03175242 0.29841292 -0.17627627 0.05562743 -0.09386955 -0.3954805 -0.051149085 -0.13354091 0.5361042 -0.5608954 0.038466513 -0.16379993 0.10000091 -0.17507721 -0.19668247 0.17226604 -0.19086403 -0.06934536 0.19247574 0.26624426 -0.26869354 -0.051003072 -0.03761814 -0.10670524
3 0.27532357 0.61113 -0.33758557 0.52539146 0.6770948 0.09322515 -0.13681501 -0.5178477 0.6416687 -0.3889104 -0.3796177 0.27455625 -0.26034153 -0.43456385 -0.5465119 0.022182224 -0.780731 -0.3096713 -0.060867704 -0.13463804 -0.26637557 0.72131884 -0.12812755 0.5233442 0.09065647 -0.44821763 -0.14766997 0.2326408 -0.4097506 -0.39738598 -0.02992456 -0.13793439 -0.5965318 0.03428593 -0.14888242 -0.17306806 0.12525433 -0.001908009 0.47666612 -0.74262416 0.1656226 -0.5558144 0.0064507495 0.05390554 -0.065069325 -0.06471919 -0.1637617 0.18857454 0.4970723 -0.6329816
体育 0.63065016 0.232835 -0.2315487 0.74980676 0.609528 -0.0012159944 0.25412783 0.7340196 0.14116073 -0.77599233 -0.034422494 -0.23242098 -0.37321675 -0.16501105 0.20350967 0.7771784 0.16120479 -0.908346 -0.10497824 -0.35920742 -0.06073558 0.09672849 0.7053702 0.4965481 0.58341384 -0.08204993 -0.19575532 0.50759083 0.06354228 0.32774246 1.4145411 -0.5876754 0.06369373 -0.5390799 -0.6625744 -0.9415242 -0.8751273 0.28316662 -0.16903582 0.37837434 -0.5454835 0.4654439 -0.28776732 0.054727037 -0.11304079 -0.22583592 -0.844684 -1.2970695 0.26330984 -1.0422074
2 0.46073028 0.79724056 -0.29582554 0.60307336 0.75250816 0.37227765 -0.12679984 -0.40770328 0.6503779 -0.036305636 -0.5818676 0.4005587 -0.598774 -0.6260708 -0.5091665 0.15864465 -0.6201436 -0.39368206 -0.36296275 -0.3022493 -0.1328245 0.536019 -0.26439685 0.46918845 0.14103375 -0.40734714 -0.16628814 0.12282558 -0.49075544 -0.3160303 -0.025820015 -0.23766269 -0.9322073 -0.2713102 -0.06451875 -0.21153869 0.076896206 -0.2582747 0.4280717 -0.7069881 0.1917996 -0.49684796 0.103267565 -0.33224103 0.0280487 -0.103417404 -0.25996456 0.22154307 0.53357035 -0.50587213
中国 0.0006950183 -0.002895488 0.30945972 0.45670143 0.4206178 0.12133351 0.12732816 0.42279363 -0.3307523 -0.86422837 0.09291599 0.694649 -0.65519637 0.16183051 -0.2537179 -0.09224065 -0.3130566 -0.47043172 -0.4028368 0.4730495 0.08611094 -0.5872107 -0.49187684 -0.4340004 0.29991037 -0.083048366 0.11485188 0.6313227 -0.168418 -0.66549975 0.083808064 -0.43743718 0.20374294 -0.17635815 0.59896827 -0.13921393 -0.5127089 0.10510754 0.48599827 -0.22757833 0.0010112409 0.21110204 -0.5901415 -0.5518758 -0.035926286 -0.03399255 -0.37277886 -0.22143708 0.027954523 -0.29414868
防守 0.36467677 -0.29832667 -0.4693868 0.5671477 0.23053887 0.13239314 -0.14081931 0.045310955 0.38102266 0.22123799 -0.0632902 -0.6018398 -0.31635553 0.12379404 0.019661434 -0.57118315 -0.093104884 -0.43227372 0.15415327 -0.30365852 -0.0132819805 -0.09171242 0.6382257 -0.10508733 0.0029979744 0.28880483 0.08732591 0.16225208 -0.6326582 -0.023239916 0.09181355 -0.002470276 0.09307547 0.08931687 0.15152425 0.0050361394 0.50498736 -0.4164439 0.92121667 0.06741128 -0.24861921 0.04109713 -0.45280448 -0.32090902 0.31666723 -0.3282765 -0.793076 -0.52459025 -0.081725195 0.3010064
进攻 -0.11227504 -0.09733625 -0.08104283 0.54636824 0.036659352 0.2514161 -0.074213184 -0.13139632 0.7043956 0.16947907 0.038275853 -0.5359692 0.034978665 0.20941488 -0.22048359 -0.58432406 -0.13849181 -0.4854907 0.14294475 -0.28766996 0.1755919 0.061463438 0.78031135 -0.40518 -0.32692492 0.21132098 -0.01851257 0.0816313 -0.76232034 -0.069237046 -0.008194152 0.14988117 0.212012 -0.24841808 0.35803613 0.11978031 0.45254362 -0.48707822 0.975607 0.18141998 -0.17926578 0.22082496 -0.28313363 -0.1562834 -0.16386715 -0.11846294 -0.7157873 -0.43639198 -0.16486888 0.0149639435
女足 0.30582073 0.35139406 0.31259206 -0.13422233 0.6752805 -0.36538735 0.4504566 0.29568 -0.3776923 -1.2063563 0.655807 0.50023985 -0.5908451 0.45415914 0.10111609 -0.10470966 -0.6167039 -0.6828089 0.16329575 0.58868587 0.25344467 -0.62374353 0.03943595 0.40319872 0.78126794 -0.8842026 0.90795773 -0.37531742 -0.7375784 0.24564956 0.4188879 -0.5919743 0.23243524 -0.28808093 0.59260863 0.32151622 -0.40807962 0.10638409 0.5911432 0.21724686 0.07374289 -0.50382566 -0.064831294 -0.37253907 0.18978822 0.0911342 -0.97082734 -0.4696558 0.13344656 -0.19506519
并 0.06468131 -0.020938415 0.114151716 0.5129313 0.33428788 0.1553419 -0.28630412 0.26025864 0.5640466 -0.14480951 -0.34728467 0.41925722 -0.17362414 -0.24215804 0.043620955 -0.41365334 0.12629421 -0.6500691 0.34132564 0.18970145 -0.040065937 0.10861274 -0.099630095 -0.49096847 -0.65934235 -0.10679452 -0.16134903 -0.227819 -0.46994257 0.09430192 0.30880448 -0.23179097 0.2784614 -0.10862099 0.16690049 -0.4870801 -0.055512264 0.14773482 -0.028299343 -0.07095767 -0.087077454 -0.012439059 -0.013624766 -0.110410586 0.23124894 0.21531238 -0.5883665 -0.13693777 -0.24478172 -0.0404691
主场 -0.3421921 0.49458238 -0.5421952 0.6857538 0.023538528 -0.14065526 -0.17514165 0.5229195 0.5813823 -0.63825417 0.20103873 -0.121643364 0.4686049 -0.49236518 -0.4738839 0.389309 -0.46346778 -0.5593761 0.13107489 -0.059310984 -0.16631837 -0.22146817 0.37711117 0.08969814 -0.52576554 0.5994255 0.3020047 0.05401828 -0.9581986 -0.8620777 0.29700032 0.11144703 -0.34783953 0.084700875 0.39319167 -0.26696002 -0.6636313 -0.46893921 0.35695687 -0.595272 0.56083643 -0.14533891 0.1495655 0.18823215 -0.2856713 0.43466446 0.2418147 -0.35286337 0.015786473 0.16246264
时 -0.15246879 0.16038433 0.1815066 -0.042390842 -0.25308847 -0.4745148 -0.15021826 0.0842976 0.4544501 -0.2377164 -0.060386453 -0.09211021 -0.17413557 0.042705126 0.21408436 0.0029702173 0.005828016 -0.41610178 0.12147622 0.06921497 0.017205382 0.5412699 -0.08477059 -0.47730467 -0.17169008 -0.4430182 -0.42301473 -0.3292498 -0.56073344 0.2524239 0.22410272 -0.094588645 -0.44654015 -0.2371234 -0.012150741 -0.17092808 -0.024930885 -0.76655823 0.5045331 -0.14453165 -0.074881144 0.3681916 -0.06183127 -0.1828393 0.16496176 -0.15168014 -0.47645265 -0.20660746 0.32497767 -0.06125517
中国队 0.42775932 0.06099939 0.46900684 -0.2702419 0.6101185 0.08893977 0.18536949 -0.2764751 0.23154463 -0.6187928 0.6631667 0.5219559 -0.3814283 0.1550363 -0.49120045 -0.2165027 -0.18639384 -0.45328778 0.50043863 0.16607243 0.013395712 -0.3826101 -0.028725013 -0.14445154 0.008704969 -0.38012448 0.40450808 0.42417073 -0.4659226 0.18493028 -0.093773894 0.021980617 -0.045873944 -0.8623827 0.5821065 0.325375 -0.4317187 -0.40219724 0.17299502 0.11742878 -0.0064997245 -0.44012052 0.20717907 -0.44503304 0.22729667 0.04188671 -1.0089854 -0.25220844 0.6103625 -0.6903816
表现 -0.24379513 -0.5370013 0.13721944 0.5249045 -0.057954285 0.020655677 0.019302001 0.3029125 0.5641779 -0.06557043 -0.36539504 0.109900884 -0.37733918 0.23165862 -0.3940995 -0.86006594 0.2348362 -0.51662225 0.6744753 -0.32489374 -0.10947909 -0.12256636 0.26540703 -0.4413886 0.0053120656 -0.02908723 0.22953463 0.30798334 -0.4847331 0.42795172 0.13176945 -0.3542364 -0.061129242 0.3345622 0.23070236 -0.32168183 -0.1012599 0.05646264 1.0653968 -0.03318614 0.31193647 -0.31293708 -0.1876729 -0.14485994 -0.21554714 0.35594913 -0.14613472 -0.490924 0.07898217 0.19481735
年 -0.69118524 0.18206662 -1.0040253 -0.16531716 0.6816118 -0.4674018 -0.23169383 0.12035408 -0.20147862 -0.8750462 0.14492922 0.63338506 -0.46769232 0.6834575 -0.24568006 -0.043504544 -0.49419093 -0.7096218 0.0020530045 -0.41610658 0.08703969 -0.24844949 -0.45112386 0.21870576 0.542817 -0.560835 0.4561562 0.068082616 -0.22953203 -0.2712005 0.4530128 -0.5036684 -0.41280508 0.08935759 0.10546004 -0.7478113 -0.6631939 -0.29348832 -0.07925692 -0.096661 -0.37040818 0.33392653 -0.66522557 -0.29460508 -0.68316245 0.1210912 -0.50075763 0.052554328 -0.802164 -0.46521035
进球 0.05691954 0.55528826 0.38217944 -0.12501696 0.7094752 0.4446857 0.32183996 0.21579248 0.9852157 -0.25261635 0.39838666 0.052667752 0.089694455 -0.35872206 -0.46957695 -0.21507254 0.13494469 -0.45462322 0.007433668 -0.91072166 0.051660575 -0.14136384 0.24691424 -0.17717028 0.03561896 -0.17364436 0.2791405 0.67806476 -0.40178636 0.048665036 0.10820761 -0.39554515 0.14650247 0.6558951 0.5673647 -0.14767101 -0.093866795 0.33145848 0.53874886 -0.40873796 0.6066871 0.2753305 0.40844873 0.11779867 0.20593232 -0.23798877 -0.43902475 -0.06361238 -0.2128847 -0.12070496
联赛 -0.43290263 0.31631732 -0.35031977 -0.08764684 0.4489598 -0.00065215357 -0.16866052 0.4138007 0.92902046 -0.64750075 0.4532066 0.2050445 0.8308536 0.06870636 -0.376383 0.037690185 -0.58707196 -0.45629627 0.16230512 0.17613539 -0.6521253 0.26295453 0.19539252 0.39463085 -0.58866316 -0.23805337 0.60060596 0.63767165 -0.061321918 -0.23939356 0.41688406 -0.11868728 -0.09098847 0.40654975 0.31013423 -0.38423946 -0.4334861 0.2904077 0.18114771 -0.3902813 0.49362788 -0.484397 -0.085331015 -0.33044767 0.07774177 -0.4117347 0.13209227 0.033005867 -0.32025957 -0.35226843
比 0.367927 0.28642774 -0.35188845 0.5069046 0.65626687 -0.20223941 -0.16212362 -0.3564738 1.1941032 -0.26602387 -0.7168964 0.541394 -0.49003112 -0.25730413 -0.44712487 0.5255924 -0.5451175 -0.4610821 0.4772884 0.03543057 0.31372535 0.14301547 -0.0065078316 0.03873842 0.016240017 0.3057316 0.3297253 0.11526004 -0.43455935 -0.08792055 0.38504505 -0.084033504 -0.7043873 0.063659206 0.38667583 -0.16075213 0.2246141 -0.9019202 -0.18700656 -0.4657187 0.27428502 -0.13392977 -0.0063090352 -0.40110147 -0.26128802 -0.04107246 0.17008889 -0.49627757 0.4659909 -0.37570748
丁俊晖 -0.7354674 0.3372096 -0.35636002 -0.15528743 0.93677026 -0.032832216 0.13362153 0.9077207 0.12857208 -0.42061627 0.16450748 0.12635157 -0.28618988 -0.30972418 -0.19520654 0.069389805 0.40128595 -1.3090501 -0.20976265 0.27687234 0.3039178 0.29614228 0.33500057 -0.3511982 0.50487846 0.122098304 0.24963479 0.50318056 0.12450556 -0.55578285 1.1521757 -0.040528763 0.6177767 -1.1422585 0.14855918 0.5256905 1.1310295 -1.0234141 0.5499217 -0.79003215 0.6070316 0.80661714 -0.08240158 -0.5078099 0.13033003 -0.7800032 -0.41811228 -0.36714023 -0.28724965 0.32454517
中国女足 0.24975128 0.6475199 0.17325516 -0.36399123 0.61878496 0.15359046 0.37681934 0.26064435 0.40556026 -0.3050405 0.65286595 0.37671074 -0.82510304 0.23291588 -0.40852934 0.015873557 -0.34087843 -0.9779221 0.60636306 0.30525285 0.5774737 -0.31671745 0.30208504 0.18256386 0.34349307 -0.82129115 0.57779235 -0.09968926 -0.62586117 0.26645574 0.49062067 -0.3577297 0.17785221 -0.5354671 0.702278 0.28078923 -0.7410362 -0.066875964 0.34484676 -0.22952922 0.054364175 -0.8838028 0.44318682 -0.6265741 0.14861697 0.53048664 -0.6197686 -0.06944064 0.24897653 -0.087479584
下 -0.08557786 -0.7607234 -0.18246594 0.17027996 0.28870863 -0.3953405 0.26770812 0.24131076 0.5727354 -0.3396788 0.58132774 -0.48074642 -0.076072864 -0.34821212 -0.112885244 0.14310691 -0.47096857 -0.566424 -0.14196986 -0.11436088 0.33944115 0.54299283 0.110732414 -0.3485665 0.19120054 0.014953488 0.051876664 0.40929955 0.4510009 0.32815406 -0.2380168 -0.1994694 0.38379094 -0.41783518 0.1626543 -0.837247 -0.5132146 -0.41872346 1.0344601 -0.7813991 -0.103317074 0.030548587 0.060644306 0.18464398 0.4165662 -0.38958856 0.0016724785 0.0029702568 0.5718872 0.1543503
机会 -0.06733436 -0.24847071 0.15879706 0.07637105 0.31648657 0.088925876 -0.21314143 -0.12184683 1.154058 -0.1996593 -0.48771426 0.39061385 0.27502233 0.066501774 -0.20815884 -0.15274984 0.18188904 -0.17776 0.085429445 -0.13964505 0.23129451 -0.14356826 -0.0065826373 -0.052952215 -0.40107116 0.008151962 -0.06316295 0.5382385 -1.0371997 0.52293843 0.26947358 0.20496747 0.16057512 -0.10832292 0.49751413 -0.38597956 -0.043474317 -0.37742233 0.5459044 0.06754175 0.056841724 0.45283985 -0.0058851414 -0.122137584 0.21038833 -0.37538514 -0.63318205 -8.828285e-05 -0.29186526 -0.16929834
前 0.07331662 0.19122335 0.25622636 -0.26903448 0.26527208 -0.46663222 -0.30674863 0.25844714 0.3696423 -0.47545516 -0.033624567 -0.31420264 0.052962374 0.24312429 -0.5131767 0.066346854 -0.552111 -0.06688905 0.20108484 0.120586194 -0.030272711 0.3292957 -0.4581128 -0.17414938 -0.1488418 -0.11648474 -0.13688289 0.113500625 -0.41923282 0.23863967 0.012499707 -0.21927504 -0.6609622 -0.30244467 0.14866668 -0.46804604 -0.48816538 -0.4305218 0.6159122 -0.17111194 -0.16160075 0.5642621 -0.029139603 -0.07379203 -0.1853353 0.031577505 -0.15569219 0.1765827 0.3986713 0.13804136
会 -0.10889179 -0.12116127 -0.3598025 -0.007963091 0.4664086 -0.9269488 -0.08180375 0.08703473 0.057931688 -0.29236147 0.14740923 0.53282267 0.42836657 -0.37041408 -0.121467896 -0.09478993 -0.2763871 -0.121433355 0.13932277 0.07609551 -0.14539945 0.4107181 0.38935173 -0.011213202 -0.13330854 0.039222084 -0.060444303 0.21156915 -0.31123638 0.05529915 0.3953328 -0.2293056 0.45080134 0.104998805 -0.2279108 -0.2173991 0.28207958 -0.4675056 0.39198878 -0.019785933 -0.13665296 0.18465696 0.11003258 -0.66594964 0.50244266 0.14426641 -0.71647525 -0.5973665 0.6691026 0.12568143
北京 -0.2316629 -0.12134663 -0.23730248 0.9182007 0.054103736 -0.014759163 0.6258853 0.78908294 0.35999012 -0.33294934 -0.14024831 -0.39329654 -0.9015758 -0.2571024 -0.080635265 0.040689006 -0.66190267 -1.5519203 -0.30479333 -0.9291512 0.43741503 0.078008816 0.019491244 -0.061649073 0.5601988 -0.35672936 0.5582553 0.24045959 -0.33815068 -0.06144897 1.239291 -0.41171673 -0.13664082 -1.1244286 0.13094917 -1.6339185 -0.7912321 0.59460515 -0.93895406 -0.36775792 0.1108378 0.22557838 -0.38281205 0.0054686153 -0.120949455 -0.88641477 -0.7588454 -0.6825231 0.23784684 -0.47687617
进行 -0.83121616 0.52020425 0.3424692 0.7904022 0.2632553 -0.7593868 0.15350704 0.6326671 -0.07041728 -0.25850588 0.0810201 -0.31056315 -0.3196017 -0.08089612 -0.020193823 0.017654125 -0.83355516 -0.38700187 0.29283565 0.5618504 -0.2505504 -0.52020967 -0.13252367 0.2767968 -0.40731364 -0.41283348 -0.24645916 0.15462822 -0.39921227 -0.11964976 0.34890816 0.22192304 -0.43839484 -0.52076477 -0.16651824 -0.07186198 -0.275675 0.12158064 0.49016458 -0.24486893 -0.10619729 -0.066853575 -0.3619078 -0.52256835 0.11697908 -0.1410706 0.060846828 -0.2971054 0.33142906 -0.03223649
22 -0.7814731 0.32842407 -0.76288676 0.745087 0.08062036 -0.61951506 -0.10896191 -0.22046322 0.24565129 -0.6033901 -0.3146153 0.0073184143 -1.1245705 -0.03784441 0.27726606 0.8203208 -0.68358684 -1.0809213 -0.6600577 -1.1589446 -0.13899797 -0.6825738 -0.2965976 0.09769535 -0.05581465 -0.7498248 0.1508721 -0.16113728 -0.59556603 -0.2977793 0.8299053 0.17051767 -0.5122054 -0.75117767 -0.09845634 -1.8623673 -0.7058961 0.36661023 0.2961489 -0.7060932 -0.04432733 -0.30614862 -0.385647 -0.68689895 -0.56047815 -0.89875114 -0.6687037 -0.24075656 0.07273525 0.12521279
从 -0.082567595 0.115836665 0.025076345 0.53292346 0.35007846 -0.1426003 -0.19224365 -0.0962454 -0.13379201 -0.11939651 0.31876302 0.16800046 0.06206201 -0.15664323 -0.20095442 -0.12692502 -0.17580996 -0.37739184 0.45598507 0.20175347 -0.3554052 0.2755609 0.066586345 0.12136278 -0.07991266 -0.3125974 0.026483271 0.19091092 -0.69636106 0.13426222 0.028878117 -0.4880557 -0.6085005 -0.4832263 0.37311256 -0.47562674 0.36667776 0.1359196 0.21875611 0.10482077 -0.2110413 0.29549065 -0.09188649 -0.057391614 -0.16772744 0.31220993 -0.40157467 0.03997047 -0.07841503 0.028232828
世界杯 0.31179604 0.12310395 0.027373377 -0.563264 0.7574137 -0.41051042 0.15406415 -0.01107384 -0.35693538 -1.4243609 0.8265201 0.6437592 -0.15310492 0.5706264 -0.14919105 -0.45959905 -0.5139212 -0.6926967 0.037634548 0.80885214 0.084164925 -1.0505656 0.23914385 0.92690074 0.5745655 -1.1720536 0.6047499 -0.0444529 -0.78868115 0.2947598 0.4609726 -0.72993577 0.22602782 -0.27267632 0.55130804 0.2347337 -0.64512223 -0.27834788 0.4354921 0.026139526 -0.12703161 -0.090542585 -0.38832814 -0.49754462 0.281812 -0.34044498 -0.9828588 -0.5627294 0.12670028 -0.53223497
更 0.16380203 -0.14689952 0.22721338 1.0521897 0.7956276 -0.53510135 0.056004237 -0.37150967 0.04161284 0.072872825 0.16772425 0.3813094 -0.33797488 -0.30840153 -0.5736724 0.33871022 0.042721804 -0.3398761 -0.5245661 -0.40217495 0.07583473 0.10069549 0.3327329 -0.19167875 -0.21707901 0.14882119 1.2306119 -0.01832717 -0.8930608 0.41707706 0.3090405 -0.49180558 1.1322318 0.8031966 0.06565543 -0.58100826 0.51866966 -0.11031332 0.4065631 0.048436668 -0.26155108 -0.0922274 -0.2917446 -0.546193 0.05399054 0.35818857 -0.21003164 -0.8894178 0.27811968 -0.17551315
要 -0.0788772 0.08604172 -0.40540785 0.41828495 0.55997396 -0.7656851 -0.007706967 -0.07658855 0.55337226 -0.09070133 -0.12552015 0.29465374 0.462858 -0.028760795 -0.27783924 -0.25329056 -0.20197886 -0.45390525 0.127409 0.23844229 -0.31953228 0.27564365 0.10962416 -0.009846302 -0.045940872 0.008699147 -0.056964997 0.3972381 -0.26526543 0.05066066 0.30546135 -0.7569155 0.24155994 0.23476805 -0.008423001 0.054872245 -0.074684724 -0.43361247 0.09481333 0.2445053 -0.23270056 0.1511859 -0.023937207 -0.09490243 0.31903067 0.30408105 -0.79150665 -0.46628144 0.29857844 0.20211902
非常 -0.1703619 -0.52283615 -0.12656254 0.23717962 0.2010461 -0.34577656 -0.20560947 -0.0017355781 0.4179329 -0.10196562 0.011230841 0.14672011 -0.4728742 -0.3279894 0.0065232753 -0.5126659 0.5653842 -0.6736056 0.26922807 0.052834384 -0.23781216 -0.15698542 0.09380771 -0.5435072 -0.16218996 0.022608023 0.37685364 0.48092178 -0.6561711 0.15871696 0.18924259 -0.4217262 -0.24629408 0.0089355735 -0.28261676 0.032326277 0.025781037 -0.19087556 0.7353958 0.34851712 0.043560956 -0.04008153 0.07127003 -0.3858085 0.037519466 0.057551168 -0.46053937 -0.7812278 0.25045496 0.3939698
人 0.10863412 -0.047150258 0.036316615 -0.22167003 0.5853674 -0.25722885 -0.29620618 0.17488626 -0.18351883 -0.4320555 -0.29615322 0.1161677 0.10628594 -0.27667382 -0.35570812 0.22074467 0.3006621 -0.60168153 -0.027169256 -0.3648715 0.06329222 0.24569462 0.15432611 -0.2680276 -0.109735616 0.11725077 0.14768797 0.25829348 -0.30295512 0.012467054 0.21879607 -0.31891873 0.10051928 0.3027352 0.09495912 -0.30455688 0.11186271 -0.17884277 0.4948377 0.14093229 0.29536426 0.055071548 -0.10884734 -0.50293833 0.104411155 -0.101153694 -0.8605755 0.012009526 -0.13894385 0.2830511
好 -0.25765693 -0.8850342 0.16796295 -0.11250759 0.7014235 -0.4631613 -0.17648937 0.021628961 0.55959296 0.10026363 -0.47116184 0.3243355 -0.239391 0.117740214 0.17960887 -0.55092686 -0.2497084 -0.7359139 0.14728144 -0.18138966 -0.21731925 0.0834212 0.40336776 -0.1691204 -0.13444826 0.070725314 -0.06694743 0.4641446 -0.7278035 0.15535894 0.33229762 -0.45951596 0.05223303 -0.39946026 -0.15743034 0.09029691 -0.07904868 -0.28531057 0.4914011 0.15733951 -0.0928293 -0.13488169 0.10162959 -0.100388736 0.1840071 0.030514378 -0.9138131 -0.3860011 0.2000334 0.25100693
球迷 0.13696198 0.3253065 0.22353846 0.7173136 0.14178303 -0.5126786 0.22829627 0.38158238 -0.24461213 -0.51310265 0.010032733 0.41129467 -0.043462556 -0.3970362 -0.33551154 0.4800231 -0.1788666 -0.50352645 -0.17555436 0.061553154 0.51055187 0.05949964 0.040353265 -0.22098607 -0.3627908 0.5726418 0.07327064 -0.19511726 -0.091457665 -0.45653963 0.57755256 -0.5885079 -0.04015442 0.57843435 0.44673595 -0.13135773 -0.030374633 0.18166605 0.708834 -0.08639258 0.575201 0.18200305 -0.0152996965 0.06995784 0.107928306 0.3661937 -0.7805727 -0.4338431 -0.27660686 0.41748482
最后 -0.25162026 0.5125483 -0.13448122 0.6559125 0.51306516 -0.52565503 0.07005856 0.31842986 0.925319 -0.0002889472 0.37253928 0.0040872786 -0.2636318 0.2584918 -0.2224672 -0.09072415 -0.42453048 -0.25415 0.5932161 0.15188077 -0.015078018 -0.112422474 -0.11586661 -0.1164563 -0.5563569 -0.40157664 -0.05035998 0.43620473 0.055732142 0.06151624 -0.17633854 -0.04828366 0.13910511 -0.39605072 -0.10458434 -0.14236133 0.117573105 -0.2047815 0.5749822 -0.4586638 0.07921759 0.28637493 0.31864205 -0.2470044 0.42253098 0.050636 -0.01954927 0.0519215 0.4561127 -0.31681564
抽签 0.4038394 0.43422556 0.31015277 -0.49792966 0.8132443 -0.66868377 0.62224 0.36139777 -0.53659135 -1.1261055 0.7263466 0.54858696 -0.29278854 -0.1937379 -0.45836344 -0.5891871 -0.46144 -0.28701237 0.6127778 1.1017889 0.41121542 -0.78096735 0.05098464 0.9960445 0.15119828 -0.9834634 0.40891537 -0.38363576 -0.69014955 0.50663805 0.39827684 -0.9319116 0.086087994 -0.8876896 0.93502605 0.21158856 -0.42859527 -0.012408711 0.7143209 0.06799281 0.685505 -0.3174682 -0.44060957 -0.29599044 0.4926748 -0.6242259 -1.1233842 -0.8087711 0.45414636 -0.44320598
获得 -0.29230717 -0.17029653 0.26107335 -0.016549524 0.71794116 0.19891545 0.05312331 0.018384608 0.9982607 -0.6025063 -0.8111272 0.50190413 -0.056336127 0.24568245 0.0943572 -0.18253435 0.07027719 -0.59356135 0.20370397 0.18347475 -0.3439509 -0.28494957 -0.8624958 0.15813349 -0.17203537 0.004337439 -0.027878512 0.36199495 -0.21204025 0.5870846 0.12298117 0.13980494 -0.0328335 -0.32674506 -0.08455384 -0.3399219 -0.33348444 -0.48367906 0.2873487 -0.10137799 -0.16046724 0.4861698 -0.8614737 -0.21992639 -0.39587748 -0.053625174 -0.52146435 0.26964784 -0.056842096 -0.81557703
打 -0.095631056 -0.25131962 -0.2829482 0.3304881 0.505204 -0.56606513 -0.093227446 0.0016474937 0.2867818 0.09503705 -0.06650799 -0.025339166 0.14659427 0.28834352 -0.031025326 -0.2916044 0.054035373 -0.43306664 0.32708913 -0.5815798 -0.2679549 0.16466147 0.102582976 -0.059646834 -0.7253546 -0.12582894 0.2166526 0.40498728 -0.60764587 0.26084518 0.43226865 -0.040501747 -0.5441229 -0.057449855 -0.16925228 0.014079338 0.15720238 -0.103213534 0.23706025 -0.21172406 -0.031062482 0.2579232 -0.15573023 -0.026390875 0.2381888 0.08355699 -0.6035609 -0.34758464 0.39477775 0.03971403
队员 0.31669042 -0.42152637 0.20725158 0.38498372 0.07902205 -0.57920957 0.2843086 -0.126754 0.3448066 -0.21174023 -0.2966727 -0.2185793 -0.28022516 -0.04271999 -0.33382475 0.11508092 -0.13510679 -0.40440398 0.3295467 0.22180931 -0.15137607 -0.09100356 0.07857746 -0.87040776 0.10572396 -0.115024336 0.050258633 0.16105244 -0.28918365 0.29706827 0.8676518 -0.2817538 -0.14503363 0.2725974 -0.0012948399 -0.20084427 -0.076433666 -0.20597771 0.7095654 0.1615078 0.068845905 -0.23350339 -0.15429406 -0.034630205 0.45376912 0.07292892 -0.7499569 0.10639087 0.18134329 0.49906132
来源 0.20813046 0.3346146 -0.30643696 0.7427955 0.8709928 0.052018505 0.07299223 0.73638564 0.3873453 0.3673925 -0.12761155 -0.40783352 -0.45399258 -0.3477969 0.5696117 1.144321 -0.5108029 -0.2455029 0.29777026 -0.7042215 0.6367753 -0.07824796 1.3506075 -0.6260549 0.9626212 -0.40575078 0.16640629 0.20807047 -0.18501212 -0.7612085 1.513116 -1.2300346 -0.6843626 -0.28517655 -0.122987136 -1.2185287 -1.3411913 0.40938172 -0.21078038 -0.184435 -0.23498312 0.7576626 -0.53408045 0.07196872 -0.62270576 -0.38047796 -0.7669637 -0.36675 -0.27434626 -1.4172173
冠军 -0.3356233 -0.2527037 -0.444991 -0.21614401 0.60466844 -0.14096262 -0.34064278 0.54040635 0.40942246 -1.2276638 -0.34438986 0.33283493 0.030099463 0.043679636 -0.36555296 0.07882181 -0.55203557 -0.35994083 0.059580404 0.3925426 -0.2183051 -0.19157495 -0.5093868 0.3396226 -0.016519966 -0.39486048 0.3506149 0.6058535 -0.19704688 -0.20001578 0.080889344 -0.12574221 0.40127087 0.403652 -0.34514433 -0.09334446 -0.018487645 0.20908248 -0.17893974 -0.6522594 -0.035187736 0.30079725 -0.7768509 -0.58888227 -0.4109189 0.37373793 -0.3133089 -0.019070378 -0.27485463 -0.4372049
今天 -0.37276974 -0.0059614265 -0.19020197 0.47060916 0.32831663 -0.34364897 0.1356738 0.23562685 0.1769992 -0.2540645 -0.020452442 0.115551494 -0.0022560516 -0.29004204 -0.16731524 -0.38538042 0.14700234 -0.44816056 0.46053427 0.16301693 -0.11008501 -0.35334834 -0.009150388 0.03879186 0.14825286 -0.2233748 -0.62249875 0.10158779 -0.724643 -0.15112878 0.24327862 -0.38655862 -0.115109816 -0.17232352 0.1825075 -0.3032449 -0.15925235 0.10535062 0.40686348 -0.061536487 0.38173324 -0.12054612 0.24252157 -0.076468214 -0.08224044 0.26709044 -0.6366222 -0.353589 0.33887297 0.28778112
球 0.43956468 -0.09179663 -0.28956208 -0.048020616 0.3612476 0.0129724555 -0.038968425 -0.11642084 0.7157024 -0.35414514 0.21844919 -0.14681941 0.22634514 -0.29344177 -0.15226397 -0.11265282 -0.11099661 -0.058749296 -0.0143596595 -0.2448748 0.38860226 0.3749291 0.069266625 -0.3228107 0.18727168 0.22470804 0.11661203 0.4841228 -0.8848287 0.17876732 -0.032087978 0.25595868 -0.6160754 0.113388464 0.34499627 -0.40414995 0.24981745 0.1290211 0.4307858 -1.0557687 0.0023962064 0.33319065 0.30247396 0.15908483 0.61222947 -0.39077213 -0.6895649 0.031367753 -0.421399 0.17356178
给 0.1613493 0.39936003 0.013403779 0.3654034 0.1400588 -0.44712925 0.16157268 -0.035154536 0.38449088 -0.13410598 -0.58227247 0.49666438 0.08615953 -0.5686825 0.4236841 -0.4643131 -0.11493923 -0.6070769 0.054677617 0.016845925 0.2370584 0.29493985 0.16536327 -0.14799458 0.10580247 0.19999593 -0.13629285 -0.008917127 -0.47274023 0.17391704 0.32771426 -0.07216576 0.2101648 0.10761245 0.404937 -0.67583627 0.30847847 -0.016357208 0.61331594 -0.07191279 -0.30388176 -0.06120336 -0.130869 -0.02022329 0.29838172 0.5985943 -0.49001762 -0.039006233 0.19188674 -0.018229729
还是 0.22679256 -0.21629374 -0.044290584 0.33632794 0.35023266 -0.2859892 -0.16905302 -0.1251809 0.5266344 -0.030761281 -0.48396075 -0.08198808 -0.21492922 -0.15071152 -0.09422503 -0.033998765 -0.016520735 -0.3616259 0.049252886 0.097815275 0.021651426 0.06009198 0.08377442 -0.3001568 -0.32208 0.024108594 0.4257295 0.39611605 -0.4231585 0.06836635 -0.017896391 -0.33329013 -0.06354954 -0.19194488 0.26833215 -0.39443153 0.036169924 0.0016393259 0.3304205 0.13555443 0.27334344 -0.15693392 -0.03731282 -0.31822428 0.41280425 0.5120866 -0.49604592 -0.28864887 -0.014708491 0.2861307
开始 -0.60216856 0.22930463 0.0336626 0.1398452 0.21829256 -0.44872874 0.063078485 0.47839978 -0.23075897 -0.69029814 0.35801068 0.16808876 -0.2568846 -0.023066133 -0.5063621 0.24415109 -0.3125016 -0.5255095 0.5093986 -0.32818285 0.010287789 -0.07830951 0.5617567 -0.12893552 -0.3124934 -0.055146445 -0.32358584 -0.022610074 -0.45011294 0.34485054 0.32495496 -0.16918215 -0.7159954 -0.8633292 0.13316682 -0.5382199 0.27361563 -0.14026739 0.8161837 -0.36165679 -0.21152976 0.24952927 0.016803317 -0.0048031183 -0.1610672 0.26587883 -0.10864357 0.21549311 -0.13617665 0.18142578
9 -0.0366905 0.43574536 -0.20952576 0.37513155 -0.326128 -0.67961 -0.5486605 -0.6439761 0.28499895 -0.7339029 0.006631377 -0.3208156 -0.31017134 0.1266881 -0.3028741 -0.2071075 -0.10212343 -0.8621473 -0.78282773 -0.025276601 -0.41169178 0.73134476 -0.22647712 -0.17751743 0.45432174 -0.34931245 0.16032024 0.105007194 -0.43713388 -0.770921 -0.21525699 0.11760839 -0.3744142 -0.49872223 0.0791211 -1.294799 -0.10607084 -0.45665884 0.9904954 -0.5320864 0.1521799 -0.66164505 0.029390331 -0.53079253 -0.77566266 -0.8002531 -0.53952366 -0.10222815 0.6982927 -0.80479044
得 0.16675667 -0.78288645 -0.022389716 0.3232633 0.816425 -0.60086304 -0.096419916 -0.13509753 0.5222158 -0.23863974 -0.17732766 0.08949973 -0.0208922 0.0677699 0.1031155 -0.33324978 0.09578095 -0.4498146 0.40846226 -0.16799493 -0.22211096 0.1494 0.389995 -0.34303772 -0.32511136 0.008272703 0.35184324 0.37845144 -0.7167436 0.20784344 0.46955654 -0.49185255 -0.25823373 -0.418698 -0.30825284 0.35778287 0.13655284 0.06418861 0.7358942 -0.15319405 -0.19840376 -0.251562 0.36713383 -0.04892593 0.124782495 0.28193578 -0.44717795 -0.44386578 0.25754574 0.16722384
这样 -0.055634804 -0.12036182 0.034263078 -0.0529187 0.5552108 -0.21946512 -0.012624065 0.018845819 0.25346878 -0.2101979 -0.061837457 0.5197344 -0.0027161334 -0.16787736 -0.011856977 -0.011281347 -0.43734556 -0.5958589 0.32422692 -0.034398455 -0.16514643 0.267136 0.17550282 -0.22771159 -0.22060888 0.090032354 0.12343715 0.34856257 -0.44202107 0.10323254 -0.031158708 -0.45041293 0.2696249 0.17570814 0.05090199 -0.2580528 -0.29656747 -0.3456135 0.14363255 -0.0669274 0.06555489 0.07930205 -0.0064628837 -0.08184738 0.291235 0.14689536 -0.6065993 -0.55081564 0.2145615 0.32761943
着 -0.1485386 0.121690385 -0.050970208 -0.0074118506 -0.0060670082 -0.49788588 -0.050312705 -0.11567024 0.1224618 -0.21466185 0.19517082 0.2184971 0.20735486 -0.25651792 -0.26322684 0.3326229 -0.35847867 -0.48423475 -0.083721794 0.07664915 0.62166184 -0.14366224 0.1077605 -0.4212968 -0.5674136 -0.102535665 -0.29830956 0.19465838 -0.02190171 0.12278877 0.48550078 -0.5307075 -0.14077875 -0.19959386 0.12673458 -0.09741775 0.22316833 -0.028454047 0.4552662 0.19101551 -0.10341681 0.15505733 0.18720014 -0.003957296 0.03479176 0.57746965 -0.6115572 -0.5043841 -0.3900567 -0.040197685
之后 -0.20970502 -0.016441738 0.05610543 -0.123828 0.33663118 -0.07538601 -0.07429648 0.043488726 0.49883252 -0.10768192 0.34221378 0.19164847 0.029566173 0.05271184 -0.15068945 0.17416501 -0.46229523 -0.055449195 0.48435545 -0.17789976 0.16804312 0.1563853 -0.4004197 -0.19195275 -0.4699986 -0.17774026 -0.30636793 0.084686995 -0.48354042 0.27012938 0.22352438 -0.393408 -0.60245454 -0.2450456 -0.024582252 -0.4647044 -0.06121822 -0.23399536 0.40174523 -0.013208095 -0.0882446 0.30724573 0.021099567 -0.063488595 -0.06700762 0.42021152 -0.20241497 0.04426468 0.22096647 0.06435748
但是 0.057817362 -0.18764253 -0.098714024 0.27829966 0.33303088 -0.17989413 -0.31278735 0.17907675 0.7111447 -0.28264645 -0.49002948 0.16709712 -0.03264827 0.058548503 0.01323252 -0.24228516 -0.36794737 -0.40150124 0.32883257 0.015625095 -0.019381877 0.19349478 0.24362119 -0.1681213 -0.23816195 -0.11569443 0.21404147 0.2953356 -0.23544466 0.27850434 0.21387003 -0.18548492 0.20315215 -0.0163943 0.027902702 -0.34900275 0.065607294 -0.34087303 0.2541571 0.026667748 0.115247175 0.07010472 0.278404 -0.0034783077 0.2686817 0.13125053 -0.438278 -0.5093034 -0.026047261 0.055350546
个 0.2203041 0.07954856 -0.29049188 -0.13456963 0.10466598 -0.4821285 -0.15213494 -0.041419685 0.76318777 -1.0884767 0.2370285 0.20327482 -0.20097479 0.11486114 0.08969217 -0.072888814 0.13787137 -0.98104143 0.15368748 -0.39048338 0.17837271 0.5458137 0.08344947 -0.12281911 0.361114 -0.13244224 -0.068799324 0.45024285 -0.15122552 -0.3774157 -0.6217841 -1.0022578 -0.4594626 0.078658454 0.21032543 -0.5992154 0.5130787 -0.29877633 0.7789741 -0.3774902 0.28024852 0.03908216 -0.33920172 -0.25604016 -0.57988805 -1.038301 0.0009895648 -0.25156805 -0.259976 0.36452648
记者 -0.4917135 0.45718345 0.5996793 0.12539756 -0.22015958 -0.78171957 0.20002317 0.60621315 -0.044958435 -0.36200815 -0.37788093 0.13984302 -0.31572247 -0.5241929 0.22420786 0.5003324 -0.23094115 -0.67971087 -0.18909764 0.11880996 0.60927117 0.24119104 0.36142325 -0.20701402 0.28668454 -0.875838 -0.14468549 -0.16133547 -0.24823506 0.053635832 1.2252369 -1.0414752 -0.3106165 -0.009973385 0.14279 0.17657104 -0.05458669 -0.31103933 -0.030534644 -0.24508241 0.66532195 0.27118874 -0.039602745 -0.45346007 0.30948693 0.076477826 -0.64577705 -0.18347535 -0.14964017 -0.15198815
5 -0.19761583 0.24754493 -0.28917137 0.37488243 0.21843712 -0.24247085 -0.44970542 -0.43590286 0.6117549 -0.62904537 -0.07767104 0.04883786 -0.3203869 -0.13877043 -0.6609474 -0.20046657 -0.3051516 -0.38814452 -0.28012878 -0.1541798 -0.3318862 0.6164122 -0.48546305 0.30853394 -0.09597499 -0.605031 0.13253827 0.23160207 -0.36945754 -0.3535126 0.07361317 -0.15278037 -0.50098735 -0.29870933 -0.39049116 -0.4592509 0.17022152 -0.05857408 0.40521315 -0.48273325 0.07803493 -0.45320198 0.02332652 -0.19449624 -0.24852249 -0.39206082 -0.21207362 0.34815335 0.17785044 -0.5865373
一场 -0.5155094 0.927255 -0.3616899 0.68860126 0.8407459 -0.4443955 0.16408493 0.5443987 0.29100367 -0.33482254 0.31984815 0.17082691 -0.11434459 0.21127237 -0.14092776 0.26412922 -0.07773237 -0.6131726 0.59931177 0.008511297 -0.5635675 -0.35742977 0.08555605 -0.05862332 -0.78258115 -0.27311245 0.40509734 0.45593086 -0.16838892 -0.25390288 0.09159038 -0.25258717 -0.54002297 0.26454476 0.021641277 0.19596279 -0.094103776 0.1307181 -0.12518325 -0.059090335 -0.0057047633 -0.24383707 0.17720638 -0.30707958 0.17131498 0.1053645 -0.42872134 -0.66604275 0.18345183 0.027526082
不过 0.11483621 -0.08344363 -0.12159233 0.10338347 0.35530275 -0.120371446 -0.34474987 0.2640115 0.36717188 -0.06936954 -0.1568899 0.33363757 -0.010485857 -0.045156214 -0.08492674 -0.24831791 -0.28611758 -0.22071804 0.29638085 -0.028003875 -0.13234742 0.02636331 -0.016751887 -0.30727828 -0.35565537 -0.070674375 -0.041290395 0.076471165 -0.5439965 0.059367865 -0.05157888 -0.1187728 0.1160771 -0.16745646 -0.0054588667 -0.3986329 0.088589676 -0.22977445 0.26015678 0.010988783 0.15138078 0.03105031 -0.0607566 -0.12156635 0.20647672 0.08121022 -0.40658244 -0.282868 0.05507798 -0.086637
结束 -0.28284368 0.19609036 0.47887015 0.18472387 0.16633323 -0.7017809 -0.033707105 0.3475092 0.4139385 -0.7281245 -0.03842982 -0.17908858 -0.61136323 0.19365218 -0.3822538 0.041968122 -0.63673896 -0.11773666 0.1324847 0.014146544 -0.000410088 -0.089339085 0.05638568 -0.053687807 -0.29448867 -0.4578657 -0.26349208 -0.006491242 -0.125733 0.83114105 0.079339266 -0.28842834 -1.0121783 -0.335404 0.092095494 -0.36686856 -0.08592149 -0.24709682 0.5162484 -0.8993702 -0.084422946 0.25616977 -0.075551905 -0.46497086 -0.0013649712 -0.051377453 0.014950266 0.08561358 0.5340719 0.1759186
10 -0.26145542 0.5595361 -0.032750268 0.222205 0.46767366 0.30393606 -0.596732 -0.34871003 0.47484896 -0.38950095 -0.16162473 0.056589022 -0.039897718 -0.12838583 -0.3396003 -0.47459924 -0.374519 -0.13532743 -0.4503147 -0.09409897 -0.27986762 0.60208803 -0.22116676 -0.04711507 0.31515044 -0.27035478 0.08135724 0.07134211 -0.18104729 -0.3275314 0.079627745 -0.13507545 -0.52455384 -0.049528 -0.024142299 -0.8600949 -0.1389306 -0.117931776 0.6596478 -0.7876169 0.024643036 -0.00060206244 0.16072533 0.03766252 -0.5794912 -0.0728178 -0.36531836 0.2946792 -0.024280757 -0.49808064
篮板 0.40303576 0.4406162 -0.124971 0.4785805 -0.14746726 -0.30956483 -1.1458858 -0.73791933 1.3294421 -1.3354589 0.36852792 -0.739997 -0.05355303 0.29507163 0.4093938 -0.11213048 0.022469386 -0.79252046 0.096145876 -0.36225194 0.4557217 0.39650556 0.35604453 0.40328336 -0.3652964 0.12598713 -0.5252512 0.5067261 -0.35963672 -0.033329755 -0.34869832 -0.6660222 0.44857964 -0.22825742 0.30767554 -0.31759626 0.40918425 -0.66659427 0.86717945 -0.7856731 -0.55842274 -0.496689 -0.7296429 -0.7079013 -0.60384244 -1.5056865 -0.5158581 -0.96867055 -0.7667136 0.205141
这个 0.11555633 -0.033502795 -0.043055937 0.079707116 0.5546902 -0.13933161 -0.05969628 0.16594158 0.4940228 -0.3130923 0.13279898 0.58563906 -0.088216625 -0.1305681 0.2052321 -0.34817624 -0.48976824 -0.28930938 0.038164474 -0.13753995 -0.17706883 0.26890036 -0.06897889 -0.24715637 -0.3273133 -0.34248942 0.06607391 0.29554552 -0.2152907 0.24899904 -0.14743388 -0.738139 0.16490605 -0.09837937 0.29942283 -0.14265311 0.045782406 0.13238552 0.15269653 -0.08069254 0.24585396 0.32534102 -0.30190727 -0.06664764 0.23442617 0.17383891 -0.54699045 -0.12979765 0.071743056 0.29191613
能 -0.30216837 0.026991826 -0.23504832 -0.2067512 0.7527303 -0.54386544 0.019006938 -0.049295615 0.6166718 -0.3052622 -0.15998016 0.44395405 0.09628908 -0.40623528 -0.033207636 -0.29393804 -0.06112509 -0.27788132 0.23430724 -0.05934909 -0.06768597 0.16658112 0.44901818 0.03520617 -0.34706864 -0.107349716 0.25216672 0.439366 -0.13718967 0.27009472 0.26744005 -0.3316584 0.13060415 0.23783103 0.121619366 -0.41984645 -0.12238227 -0.5318739 0.14837801 0.034604304 -0.13293071 0.17435886 -0.12739508 -0.2551193 0.39886364 0.14955047 -0.5556948 -0.53269297 0.32101464 0.16339147
赛季 -0.16343006 0.0073978705 -0.19257067 -0.5456995 0.40212184 0.25897706 -0.3098108 0.7129602 0.52843267 -0.5757419 0.4781619 -0.1463509 0.4203412 0.105566 0.10621228 0.03656937 -0.8950335 -0.8637796 -0.013171489 -0.33480048 -0.073150866 0.49139464 0.21868624 0.59486204 -0.2517834 0.015726287 0.21582898 0.52299684 0.27129203 0.2416228 -0.10225149 -0.7153683 0.14726861 0.07867217 -0.21033432 -0.7054962 -0.1678143 -0.27809873 0.4704408 -0.35891706 0.110246 0.08870159 -0.24751408 -0.3292881 -0.24532026 -0.24515079 -0.19113825 0.49225792 0.037555948 0.2837857
就是 0.004320231 0.20525362 -0.17145102 0.23932557 0.29499373 -0.22298889 -0.10797039 0.41836432 0.18276513 0.16750547 0.269814 0.43830505 0.20102152 -0.10141289 0.2274497 0.21973707 -0.27931246 -0.38308102 0.22149682 0.048150834 -0.55061513 -0.0732793 0.04455629 -0.3063286 -0.32206196 -0.13426034 0.02876549 0.6254573 -0.35728198 -0.07330688 0.1256449 -0.67474395 0.023540433 0.2576659 0.06829404 -0.24383391 0.1048512 -0.12119886 0.06624853 0.1326156 -0.23350117 0.21468349 -0.081560224 -0.27188906 0.2624626 0.1163987 -0.7250313 -0.42549124 0.043950174 0.29846665
可以 0.17847805 -0.028022457 -0.20598374 -0.13756193 0.26502863 -0.53302616 -0.25707996 0.16055194 0.21220145 -0.13153683 0.0016828026 0.3113624 0.06578112 -0.09017898 0.06655607 -0.2044914 -0.39540014 -0.38701266 0.42092246 0.12713107 -0.3233072 0.49158272 0.21476473 0.022597764 -0.17324907 -0.13402647 0.0843983 0.45897588 -0.2878351 0.07621134 0.25951695 -0.31260318 -0.007620951 -0.035623245 0.1677367 -0.24665271 0.13169682 -0.3878821 0.06761555 0.037448283 0.007493673 0.06799204 -0.023002328 -0.27834275 0.34994093 0.19096692 -0.41559455 -0.5930419 0.04078259 0.08999298
又 -0.14952521 0.04614022 -0.21798427 -0.08490653 0.40747085 -0.046606284 -0.22975764 0.17057723 0.2240806 0.07862297 0.034293063 0.16026849 -0.21228991 0.0764521 -0.1350175 0.09774379 -0.43229315 -0.58936316 0.1799576 -0.32672676 0.28680003 0.21539003 -0.15996611 -0.19651759 -0.5824477 0.22467542 0.1452315 0.04046699 -0.43399557 0.20901486 0.10412424 -0.17996675 -0.42992455 -0.35033396 0.04030845 0.17338736 0.14382593 -0.19262272 0.27765518 -0.18944283 -0.33889455 0.5061287 -0.38835302 -0.1583029 0.23857547 -0.0044064624 -0.3287354 -0.10769218 -0.29348785 -0.10039289
禁区 0.13277945 0.087338485 0.13293909 0.8525725 0.0600485 -0.41080868 -0.06831485 -0.6666262 0.923333 0.4879554 0.8570929 -0.961904 0.53292024 -0.24539 0.21393247 -0.19649546 -0.30177265 0.3444998 -0.2170535 -0.08262374 -0.16410571 0.21281421 -0.5757881 -0.07592506 0.242131 0.01466695 0.1493249 0.4310231 -1.3726025 0.4040801 0.82182676 0.7619864 -0.48165134 0.29286742 0.6901607 -0.22404698 -0.24820837 0.12211257 1.2424358 -0.66287625 0.2241042 0.6930848 -0.17217965 -0.058758654 0.44333062 0.03598424 -1.4001251 0.79363406 -0.16457401 -0.5520776
地 -0.08881014 -0.19539875 0.18274988 -0.015912633 0.19626348 -0.425963 -0.07504976 -0.25486478 0.22636348 -0.32930303 0.29146415 0.18066046 -0.29534996 -0.4541235 0.14876454 0.0951545 -0.16765799 -0.48523456 0.02797811 0.04077719 0.27897885 0.13817619 0.04469344 -0.7682826 -0.65239584 0.08589213 -0.041982185 0.2481351 -0.59046304 0.24188052 0.4906237 -0.37836146 -0.10803273 -0.16201483 -0.11797417 0.29292598 0.05797358 -0.37736177 0.23821189 0.0060928483 -0.086438656 0.15870766 0.26781875 -0.09820393 0.6970196 0.32347414 -0.2924124 -0.44000047 -0.018440535 -0.16036877
胜利 -0.4674104 0.94951105 -0.3488872 0.064297855 0.44903734 -0.32413927 -0.12913929 0.73324525 0.72068596 -0.96440226 0.28851223 0.10219703 -0.44855678 -0.08164123 -0.053046107 -0.09653487 -0.45396337 -0.66235346 0.20311083 -0.7752865 -0.11238461 -0.4365657 0.008479122 0.10798413 -0.4791102 -0.17343986 0.4100953 0.61412525 -0.13319558 0.15225686 -0.034407213 -0.5160496 0.074924774 0.7448588 0.1505567 0.35871103 0.21525136 -0.15892541 -0.047183592 -0.18302187 -0.2753672 -0.11322279 0.2648337 0.1328635 0.08999999 0.2676346 -0.3394546 -0.8169431 0.11882218 0.14027986
现在 -0.11886956 -0.1394793 -0.2726901 0.007729706 0.36981404 -0.7804407 -0.28196225 0.53276956 0.24104933 0.014995858 -0.15464832 0.23547223 0.36690012 0.049434807 -0.040538795 -0.14730684 -0.3502876 -0.40554154 0.3213214 0.0046333736 -0.13975881 0.40372425 0.49722642 -0.10291818 -0.33404508 -0.1140696 -0.0036544374 0.64633656 -0.1443348 -0.11510341 0.22001983 -0.35268253 0.2490421 0.13091367 -0.024923397 -0.354562 0.024465173 -0.169454 -0.020671654 -0.18519092 -0.07284941 -0.05343547 -0.38557762 -0.44240388 0.20294483 0.017244106 -0.7169097 -0.41044593 -0.07382677 0.2766816
表示 -0.04638071 -0.061875213 0.30094635 -0.2778106 -0.048251357 -0.56632966 -0.32005662 0.39390993 0.37018996 -0.2757918 -0.027386608 -0.2026513 -0.50790787 -0.25305718 0.062240284 -0.16198699 -0.26639828 -0.42004514 0.04535377 0.0055176364 -0.14311022 0.19627702 0.069870725 -0.7087138 -0.22909997 -0.2920242 -0.5135119 0.040856007 -0.3762412 0.17088006 0.0013443247 -1.0039093 0.11994566 -0.035184313 -0.046064664 -0.18224259 -0.072043 -0.6512178 0.4235608 0.00953882 -0.040913966 0.039934296 -0.3944086 -0.20374319 0.65689766 0.19112375 -0.116159216 -0.39620322 0.69205934 0.12350989
虽然 0.10659596 -0.16419964 0.054358266 0.252627 0.2517618 -0.31140855 -0.17191909 0.28454363 0.6730035 -0.105949 -0.40193713 0.009659211 -0.108965985 0.056394834 -0.24276952 0.008686709 -0.35524455 -0.5163465 0.03201158 0.114658065 -0.27786085 -0.0659277 0.07600205 -0.42033535 -0.47809672 -0.2734396 0.1147646 0.08746863 -0.37304297 0.07532432 -0.24126235 -0.29258496 -0.041992106 -0.09759916 0.059005428 -0.35714474 -0.026948646 -0.104459025 0.22630534 -0.16505516 0.13675004 0.0105227865 0.1606601 -0.1958036 0.053921256 0.2998218 -0.17079301 -0.22181888 0.064558245 -0.18288878
比分 0.037517443 0.8919807 0.013873843 0.51582396 0.3123983 0.26753834 -0.24622814 -0.2677556 1.2019941 -0.23117109 0.09057186 -0.07306277 -0.463468 -0.14867143 -0.90592575 0.013462606 -0.24156748 -0.12269658 -0.25466803 -0.13228829 0.58862275 -0.54185754 0.17289102 -0.1298525 -0.2752732 0.47451788 0.17503215 0.26345426 -0.46694833 0.3910834 -0.55729353 0.50263304 -0.7464395 -0.170607 0.48456854 -0.70929974 -0.23190051 -0.63805366 -0.1042297 -0.42062342 0.46218815 0.47784624 -0.28718352 -0.13832173 0.6805965 0.18922144 -0.44295353 -0.7091806 0.15673088 -0.33047298
最终 -0.061325807 0.03820896 -0.030301528 0.28918934 0.5968084 0.1318112 -0.09599915 0.06354954 0.92479426 -0.3221433 -0.2832232 0.12000179 -0.3591433 -0.10175977 -0.3271371 -0.2124774 -0.44444847 -0.24768215 0.5020852 0.13633558 0.15266113 -0.622462 -0.13908379 -0.1952335 -0.30199057 -0.020565448 0.029617468 0.1629486 -0.44810677 0.12851007 -0.5521431 -0.06520418 -0.22306502 -0.26509717 0.23336779 -0.45617983 -0.30190766 -0.3444652 -0.03495541 -0.27319962 0.50067365 0.28690192 0.13556921 -0.012999467 0.2080306 0.34452382 -0.25366887 -0.22839066 0.38420355 -0.54726607
世界 -0.12569106 0.5826332 -0.24952263 0.016079098 0.5915841 0.058266945 0.09251469 0.8363783 0.28811336 -0.27023435 -0.3045781 0.8171138 -0.95229954 0.92333376 -0.576108 0.53987604 -0.4239468 -0.43211204 0.25022832 0.07530991 0.2998492 -0.41831958 -0.20931841 -0.08067937 0.2532512 -0.8994241 0.12380333 -0.12880772 -0.062153235 -0.054929204 0.5285987 0.043681674 -0.23499294 0.0055399886 0.85347867 0.3200423 -0.36080924 0.10275155 0.4170575 -0.7816233 0.12976407 -0.9184011 0.24777094 -0.635925 0.1722196 0.26513237 -1.3642784 0.27931392 -0.0018970602 -0.29675007
这场 -0.5329664 0.36868075 0.06335393 0.38572 0.6502257 -0.25314122 0.08434339 0.28024665 0.067328006 -0.50517887 0.20925304 -0.09642546 -0.3687929 -0.3468638 -0.27283993 -0.10974153 0.48340425 -0.72332406 0.72282785 -0.27598014 -0.25589755 -0.21321404 0.31432965 -0.35009432 -0.28119227 -0.16522287 0.26727426 0.18894655 -0.43775687 -0.080328524 0.28620386 -0.61002517 -0.30230325 0.26512775 -0.07717238 0.102954276 0.15502809 -0.33599845 -0.16231352 0.027324867 0.3059843 0.055850685 0.3457571 -0.09049993 0.4776999 0.3766474 -0.602032 -0.66958135 0.12219092 0.12437935
上半场 0.04047755 0.33154622 0.40202 0.47497037 0.12942672 -0.10897929 0.12120694 -0.21000873 1.2166215 -0.65277857 -0.01106862 -0.70913035 -0.2852121 -0.13675107 -0.38347062 -0.49505424 0.20789847 -0.22995406 -0.2681637 0.10129559 -0.1027635 0.0014049568 0.39906132 -0.3067896 0.15448712 -0.21177429 -0.23096861 0.17997362 -0.5468862 0.47360718 -0.03639015 0.61777943 -0.9905883 -0.01849892 -0.16016176 -0.58659714 -0.20529507 -0.5105363 0.627611 -0.8355603 -0.049017742 -0.50910777 0.48470765 -0.12773003 0.11482547 -0.32641283 -0.862673 -0.70065576 -0.16624415 0.054215822
一次 -0.061853867 0.3913157 -0.054476347 0.31300837 0.6039813 -0.15004456 -0.10141405 0.13257325 0.72209805 0.022509271 -0.07966731 0.44179478 -0.43058485 0.18056223 0.049721096 0.110739835 0.052013204 -0.37856334 0.03870948 0.03228267 -0.13855813 -0.14688036 -0.404967 -0.02241773 -0.6917315 -0.0068018693 0.09072066 -0.055084918 -0.67935026 0.19706689 0.084224544 -0.005722733 -0.36491993 -0.22437318 0.052040387 -0.07899174 0.19511431 -0.28556398 0.5640966 0.412716 -0.12127077 0.77516276 -0.21162345 -0.22608244 0.16843827 -0.32176507 -0.65387374 0.10353846 -0.34606737 -0.010006402
麦迪 -0.16961391 -0.1336826 -0.33862996 0.1619705 0.25061744 -0.061673325 -0.7066661 -0.15370722 0.65027213 -0.4859089 0.144563 -0.7217308 -0.47768912 -0.05951469 0.13076286 -0.41337577 -0.04802679 -0.36001545 0.30199173 -0.68642575 0.17175592 0.20048238 0.71686506 0.48717037 -0.054100405 0.17825122 -0.3701366 0.16500895 -0.09789056 0.25607678 -0.0015525325 -0.3389431 0.08758966 -0.64703435 0.09573015 0.02774682 0.20185156 -0.9780721 0.82136965 -0.30818206 -0.06558806 -0.74242705 -0.18956426 -0.3683924 -0.02869127 -0.1644613 -0.996472 -1.0935558 -0.75675875 0.7081729
本场 -0.14750235 0.21237096 0.22314598 0.82597315 0.4151637 0.096623145 0.033152405 0.34459335 0.1735827 -0.29534742 0.057029434 -0.48672596 0.23012659 -0.3650885 -0.46988693 -0.020460708 0.09887865 -0.24659202 0.6024984 -0.11097457 -0.39901093 -0.04766633 0.03044675 -0.05973045 -0.22236858 -0.41346782 -0.2922512 0.035980724 -0.31499115 -0.11021514 -0.11608938 -0.14617376 -0.35776576 0.24305728 -0.100156434 -0.5571947 -0.07110928 -0.07570609 0.498478 -0.19645691 0.32771584 -0.224142 0.14996792 -0.27314395 0.6975731 -0.15798445 -0.1031369 -0.26883596 0.04432338 0.06512664
对于 -0.14819929 -0.1527153 -0.13215677 0.19957757 0.33793673 -0.12171252 -0.026872892 0.4741378 0.1144929 -0.2031209 -0.024459952 0.16293202 -0.26308545 -0.025867382 0.062416892 -0.26819924 0.03522414 -0.71937126 0.11956428 0.09863517 -0.321521 -0.10126734 0.04885289 -0.29379135 -0.20779896 -0.06469829 0.03747064 0.09269254 -0.7116153 -0.14188434 -0.21736674 -0.5658481 -0.09902862 0.31689915 0.09701425 -0.62842077 -0.06625732 -0.4965986 0.19756201 0.17745645 -0.006555858 0.082298845 -0.016396625 -0.25994834 0.24501872 0.37665993 -0.44091597 -0.312351 0.14024098 0.4019144
如果 -0.13950296 -0.28854132 -0.22836126 -0.07802432 0.4430814 -0.19568671 -0.31253588 0.2096535 0.37293696 -0.041902967 -0.18122332 0.46780583 0.17686713 -0.16061242 -0.13762853 -0.31409603 -0.23429173 -0.21607737 0.08908435 0.1755032 -0.25309405 0.38756892 0.30261165 0.058004882 -0.41719854 0.27354655 0.00092172885 0.40964326 -0.63577586 0.06528512 0.042939506 -0.15964569 0.27955896 -0.08960411 0.19333039 -0.637243 -0.15863948 -0.29219258 -0.033396695 -0.27480865 -0.014224402 0.1763485 -0.27224252 -0.27772883 0.3803208 0.22475393 -0.6724914 -0.3510883 0.34525126 0.076271966
21 -0.8513543 0.5765153 -0.35843396 0.35928535 -0.16295145 -0.22278161 -0.08702036 0.19070603 0.766333 -0.12593184 -0.3648686 -0.011305668 -0.72489554 -0.029250087 0.40014538 0.42746747 -0.73048764 -0.42554817 -0.99190146 -0.5754129 0.029815298 -0.4138477 -0.38283008 0.19409502 0.10157237 -1.0292516 0.508047 -0.5316319 -0.2653366 -0.2236006 0.6557143 0.07161473 -0.45918483 0.14452578 -0.008554244 -1.301161 -0.67143357 0.17795989 0.48822606 -0.64480066 0.6392756 -0.14519519 0.3470279 -0.655425 -0.14918488 -0.6460634 -0.5369594 -0.42018792 0.19344352 -0.44433665
队 0.42578557 0.15424326 -0.25580886 0.12028157 0.13676313 -0.5090992 0.34624088 -0.083786234 0.5806096 -0.20072342 -0.5155968 -0.9593183 0.28705198 -0.6580274 -0.7840487 0.032565184 -0.53644645 -0.58938175 0.53393847 0.60248405 -0.35837877 -0.16417572 -0.15214294 -0.12572737 0.31958747 0.12910222 0.657725 -0.064473085 -0.19840866 -0.88288915 0.60124785 -0.05763412 -0.11217932 0.33306873 0.4252711 -0.42196915 -0.58708656 -0.4106612 0.2988712 -0.3136589 0.30065832 -0.31464115 -0.18115743 0.14819017 0.07266029 0.23816665 -0.27452365 0.0153625645 -0.16510677 0.099132776
却 0.17749338 -0.008287109 -0.10353626 0.31569672 0.026605252 -0.058651675 -0.117906846 0.25821143 0.47591248 -0.116227284 -0.232182 0.19130367 -0.020318476 -0.043928638 -0.21599801 -0.13481566 -0.46367502 -0.52792627 -0.016699152 -0.1331122 -0.07804157 0.18032469 0.035074856 -0.553839 -0.30925307 -0.22442144 0.12023691 -0.2609564 -0.39205518 -0.018196274 -0.0057015126 -0.08789474 -0.028511401 0.04863203 0.2596536 -0.2702377 0.046018705 -0.08422228 0.23817539 0.007825885 0.29696563 -0.034323066 0.270289 -0.16330788 0.3836246 0.38804668 -0.6787081 -0.07937523 -0.05477053 0.06428244
本赛季 -0.2834938 -0.04592979 -0.5912364 0.03649978 0.16586897 0.10278451 -0.24975342 0.41553503 0.59029394 -0.3093756 0.18199123 -0.18955779 0.3464177 -0.035960153 -0.38419858 0.15258062 -0.44976148 -0.36093342 0.37120712 -0.3378461 -0.4069185 -0.21627288 0.15154803 0.1483958 -0.25268686 0.039152846 0.08944404 0.40435675 -0.31282067 -0.4010818 0.052544303 -0.19267161 0.008845825 0.26659298 0.20608123 -0.82423383 -0.064830676 -0.34217837 0.39936468 -0.4501087 0.24925174 0.027781487 -0.23495606 -0.20062953 0.043964855 0.031745423 0.042535514 0.13746764 -0.006449498 0.33501118
她 -0.10232183 -0.15045062 0.20402357 -0.07811959 0.53769094 -0.26495132 0.15120903 -0.0036023653 0.4886945 -0.55519456 0.24271506 0.40847653 -0.3766149 -0.004280412 -0.35193515 -0.30128556 0.0028711618 -0.6248979 0.06902225 0.031137938 0.19574602 -0.12729816 -0.2395953 -0.7786972 -0.084497675 -0.37102598 -0.116712846 -0.016996786 -0.24235207 0.24106312 0.6427274 -0.61423886 0.21287924 -0.4038555 -0.21022126 0.6519975 0.14544596 -0.34840786 -0.10427295 0.072940364 -0.004970394 -0.0962361 0.067038 -0.53120214 0.2578288 0.3613785 -0.8877882 0.05476816 0.017649092 -0.11803642
世锦赛 -0.56118953 0.25999796 -0.5678049 -0.107564546 1.0290501 0.11489823 -0.48683238 0.6783577 -0.555859 -1.2165357 0.010361398 0.7022744 -0.11689532 0.9085545 -0.48881924 -0.2503064 -0.11712523 -0.18096209 -0.4031655 0.43812215 0.15989089 -0.0023161457 0.3984128 0.2023299 0.51641095 -0.23361848 0.23264927 0.35485336 -0.14220843 -0.24104457 1.1979514 -0.07924268 0.20556279 -0.68465155 0.17205429 -0.41322726 0.8269187 -0.21590394 0.146119 -0.78223586 0.8651498 0.86426574 -0.24361224 -0.74519783 0.1520415 0.17838891 -0.768593 -0.112880155 -0.67855954 -0.2363451
武汉 -0.26012436 0.8725532 0.24153127 0.16254722 0.09122634 -0.4906718 0.19687182 0.5711266 0.051765695 -0.35749975 0.25476655 0.2602997 -0.46255627 -0.3518107 -0.30191875 0.0949291 -0.3542199 -0.45598048 0.016315289 0.34218636 0.98740584 -0.8329747 -0.027778618 0.60168344 0.13434336 -1.1452713 0.43882886 -0.253166 -1.0887713 -0.6359843 1.0765264 -0.5588668 -0.3826063 -0.17415078 0.5334894 0.3632691 -0.92226565 -0.23891152 0.17394087 -0.07441802 0.5471368 -0.5896472 -0.012496966 -0.21100937 0.18384849 -0.08179086 -0.7576567 -0.5912588 0.43352208 -0.43993184
6 -0.006601845 0.62270725 -0.046950273 0.3499637 0.011943539 -0.1299152 -0.6137241 -0.6404356 0.71341497 -0.43476906 -0.10519942 -0.1212556 -0.3669559 -0.18204217 -0.4950297 -0.4037927 -0.30596712 -0.3825948 -0.13416162 -0.25983667 -0.39621195 0.60160923 -0.08413203 0.26537552 -0.02554979 -0.6219574 -0.19110611 0.11891871 -0.42077526 -0.21972077 -0.14547181 -0.22425796 -0.52908486 -0.20201406 -0.17471568 -0.588389 0.43745747 -0.19501925 0.637251 -0.5016545 0.2057534 -0.323533 0.23315966 -0.2400567 -0.5291928 -0.42865092 -0.30876234 -0.015772358 0.44973657 -0.63837785
进入 -0.40603635 -0.14370689 -0.15795909 -0.16330858 0.9460993 -0.6642121 -0.0054428815 0.64172447 0.07326754 -0.56550956 0.2833404 -0.051282506 -0.36782336 0.010424279 -0.3105949 0.18885578 -0.17454834 -0.476231 0.19971618 -0.08142872 0.047915205 -0.1007684 0.2465855 0.24387152 0.03057732 -0.013210178 -0.009753456 0.51709604 0.69334286 -0.18490706 -0.18311551 -0.08457356 0.009688933 -0.7970748 0.44463086 -1.0055118 -0.26864305 -0.40914083 0.7150049 -0.3897208 -0.50649565 0.20636134 0.12729071 -0.50758773 0.4108044 -0.02622228 -0.38781962 0.23063809 0.27163726 -0.25558954
11 -0.08026322 0.6641051 0.10954225 0.7206511 -0.17583711 0.40632457 -0.46868968 -0.4463335 0.21271749 -0.95199037 -0.41294897 0.28973803 0.118515596 -0.122773476 -0.16734344 -0.1962535 0.05375313 -0.7614157 -0.31229323 -0.2841607 -0.65487003 0.4423021 0.18274969 -0.03918149 -0.08227859 -0.06852579 0.22651099 0.008637955 -0.5919795 -0.3911454 -0.4139348 0.050502792 -0.6844898 -0.06342462 0.35185534 -0.8593278 -0.6040453 -0.27479973 0.99127 -0.6474609 0.35710654 -0.34535122 0.30939507 -0.3923286 -0.20978516 -0.33861881 -0.0827528 -0.16566943 -0.05248979 -0.7300703
不是 0.21460703 -0.3252961 -0.08508013 -0.22118594 0.5230061 -0.34370217 -0.07826513 0.3738684 0.3900517 0.22308713 -0.58464354 0.48521277 0.0043773414 -0.38445008 0.20835032 -0.48091355 -0.10446259 -0.43923694 0.24679315 -0.0884765 -0.5460677 0.40840593 0.2597821 -0.18536289 -0.5128007 -0.19449754 0.20420486 0.21811247 -0.66666216 -0.07139444 0.3281353 -0.371761 0.30728075 0.120841116 -0.32346055 -0.20652719 -0.17306317 -0.38775125 0.37878603 0.34030592 0.13964309 0.16728514 -0.13453178 -0.35950062 0.22232449 0.060443506 -0.91058326 -0.46063596 0.17104784 0.1647808
火箭队 -0.1988781 0.17950176 -0.51046294 0.48671836 0.1522659 -0.07304834 -0.7682098 0.2127208 0.296723 -0.5616204 0.2026468 -0.23901628 -0.3370007 0.19996503 -0.2561003 -0.49209484 -0.68179494 -0.26784563 0.30079278 -0.35730565 -0.019434033 0.038560424 0.7505656 0.41779912 -0.33619192 0.37301728 0.28881913 0.045668162 0.09300239 0.23354277 0.13307533 -0.36663815 0.3520182 -0.6479208 0.11710417 0.1458131 0.02593745 -1.1787871 0.6427365 0.2012525 -0.012411359 -0.4178256 0.12659845 -0.46676433 0.2015167 -0.021549387 -0.7815898 -0.6183947 -0.22839575 0.3257652
得分 0.27287906 0.04926266 0.10637831 0.40488744 0.48198187 0.79067844 -1.0524526 0.15507774 0.7935704 -0.16563429 -0.079185314 -0.5628719 0.27634868 0.11776645 0.11039462 -0.6188389 -0.28532872 -0.31232974 -0.2493158 -0.30649218 0.06927137 -0.33148977 0.38540927 0.5084914 -0.5702792 -0.27137294 0.19764012 0.28887933 -0.30337593 0.32181805 -0.1390667 -0.044894993 0.2281075 -0.18008599 0.20873751 -0.82259923 0.44217524 -0.49185625 0.519277 0.14187726 0.16736764 0.22726311 -0.21471018 -0.016568543 -0.1317525 -0.32505468 -0.53050435 -0.40595606 -0.15265112 0.047129925
选手 -0.023980163 0.1228995 -0.05510717 0.49341023 0.5558633 0.22230518 -0.104801975 0.1519387 0.4567744 -0.8636775 -0.3627649 0.3710043 -0.23226404 0.15467063 -0.54362386 -0.083495684 -0.3599988 -0.46557182 -0.16328903 0.032964997 -0.44333223 -0.849387 -0.7520909 -1.0361092 0.71024495 0.11981425 0.03328787 0.39307103 0.6358138 -0.16337426 0.7426812 -0.11476876 0.6203882 -0.44830516 -0.3158467 0.10451679 0.23972182 -0.49075866 0.25207722 -0.47634482 0.06125162 0.69162077 -0.43858224 -1.2263994 -0.19363545 -0.33827695 -0.4473929 -0.006268397 -0.133831 -0.54558545
位置 0.45892707 -0.22343671 0.15850884 0.1983142 0.6112106 0.5585536 0.49812746 -0.11862582 -0.34133637 0.581594 -0.16499844 -0.53940403 0.5728143 0.82323116 -0.18016395 -0.8471853 -0.9235072 -0.5534763 0.3766333 -0.2785599 0.18364213 0.3340409 0.3059582 0.105026394 -0.57935554 -0.492679 -0.05004002 0.8896359 -0.30568612 -0.016296517 0.060330085 0.0022678832 0.27898514 0.1659829 0.27596328 -0.3831031 0.123951726 0.26132783 0.57729757 -0.24677435 0.12437652 0.2910063 -0.20737153 -0.6087067 0.120734364 0.02371142 -0.6564161 -0.029258894 0.43041435 -0.48868406
因为 0.032920644 -0.16364953 -0.008518821 0.077890165 0.3547594 -0.32211202 -0.26798546 0.36816928 0.20077303 0.08748015 -0.15676017 0.39667043 -0.06521113 0.093658075 -0.016632088 -0.2619626 -0.2376211 -0.4465579 0.21022108 0.13980088 -0.068878174 0.21245715 0.08993273 -0.39532667 -0.30143228 -0.039379258 0.14282669 0.29731077 -0.41420794 -0.14850922 0.25940907 -0.13663846 0.17623723 0.04105115 -0.114677206 -0.27567595 0.11927469 -0.2566806 0.3500494 0.07918246 -0.11681496 0.30436432 -0.23174901 -0.5527945 0.23755012 0.048166223 -0.67544323 -0.078907534 0.11663127 0.40349138
最 0.068817265 0.18696675 -0.47536454 0.37128326 -0.0967456 0.20837711 0.15164249 0.8219583 0.11855028 0.17556964 0.15827452 0.46473387 -0.5218138 -0.088612646 -0.16873315 0.22780529 -0.2670828 -0.55562496 0.18858522 0.094849505 -0.27233306 -0.089198105 0.2391572 -0.079681754 -0.3742816 -0.28149927 0.35937026 0.23551264 -0.5321162 0.047090765 0.04228836 -0.3535563 0.15482983 0.5544889 -0.09316072 -0.30915982 0.31484637 -0.08545288 0.23635326 0.24002865 -0.06208965 0.07101217 -0.017010499 -0.83181274 -0.19563358 0.1575101 -0.67946845 -0.29880318 -0.38360867 0.122944556
领先 -0.2784745 0.10471868 -0.05073013 0.04646521 0.48882532 0.059727747 -0.35396573 0.0119980695 1.334752 -0.58979297 -0.24075952 -0.26974893 -0.049663205 0.20143564 -0.72249824 -0.24595246 -0.99414283 -0.3612504 -0.0523038 -0.14895314 0.3645248 0.28649876 0.10210525 -0.37258297 -0.40065578 0.59174526 -0.19200934 0.30035752 0.075014934 0.2733567 -0.36985636 0.5295653 -0.3574172 0.019537205 0.42848524 -0.23502254 -0.21114893 -0.40981287 0.6165392 -0.8306119 0.31261796 0.39437184 0.2907832 0.16169177 -0.2777782 -0.1880734 0.06628199 -0.95778614 0.32916063 -0.3633966
客场 -0.37416372 0.25651044 -0.30401388 0.25648707 0.36740962 0.20162837 -0.27233392 0.32690632 0.9803121 -0.19187473 0.3714095 0.07785547 0.5382244 -0.45252946 -0.32118243 0.3336189 -0.74266106 -0.7364211 0.36475536 0.36024538 -0.5798206 0.18428396 0.14049438 0.25805977 -0.55463225 0.27372223 0.5527065 0.15419568 -0.5953529 -0.43155807 0.556647 -0.113852955 -0.2417551 -0.002190876 0.30803594 -0.22440606 -0.51736283 -0.5077439 0.20166118 -0.61101496 0.37011343 -0.4844327 0.37852418 0.25805116 -0.060041767 -0.090417475 0.3180564 -0.26463038 0.19399925 -0.11768869
来 -0.08103958 0.5750564 -0.10800708 0.19523787 0.41783887 -0.44013345 0.10689857 0.209738 0.2043853 -0.11440929 0.08622832 0.40586677 -0.04452436 -0.06509185 0.38016176 -0.11911828 -0.46396318 -0.36754674 0.31138983 -0.08130871 0.07913579 -0.16952693 0.27867252 -0.006852626 -0.19664922 0.08170664 -0.2308928 0.4266163 -0.25799206 0.0027856154 0.3276376 -0.69757 -0.14651734 0.15350825 0.045725774 -0.15212196 0.13117915 0.12190564 0.19043563 0.15701525 -0.09577648 0.033184294 -0.39659765 -0.1569131 0.16558687 0.52974784 -0.82521015 -0.23694013 0.06263473 0.41492864
状态 -0.36090708 -0.91344744 -0.12281851 -0.058556408 0.28418425 0.19887164 -0.29796487 0.6461273 0.44412273 0.16062793 -0.23684075 0.1863379 -0.005572564 0.15273517 -0.46307093 -0.6729619 0.10984756 -0.87176955 0.4407321 0.16550392 -0.052889243 -0.12403419 0.107884556 -0.11026896 -0.21828939 0.34817827 0.27259675 0.5746348 -0.32789192 0.31627083 0.39680716 0.01812907 -0.16758423 -0.089253224 0.10699978 -0.34535956 0.06630708 -0.21613494 0.5188467 -0.57031906 0.2085798 0.12975979 -0.3229554 -0.21938436 0.00893806 0.071624346 -0.17355587 -0.51792544 0.123028934 0.32921225
曼斯 0.14746052 0.018196283 1.2284249 0.11066602 0.60421777 -0.18108489 0.62101376 0.27910736 0.42910892 -0.7123274 1.2326808 0.13883339 -0.2857027 -0.21610291 -0.4741238 -0.15794829 0.23720813 -1.3010933 -0.69313073 -0.40917125 1.0699036 -0.26951203 0.32535237 -0.92078376 -0.512873 -0.5343591 0.4874006 -0.1578914 -0.8949413 0.527735 0.33223763 -1.5494667 0.0979428 -0.08966264 0.33692756 0.1556693 0.20440452 -0.39540753 -0.20653194 0.15417096 -0.08901243 -0.8780525 0.39216742 -1.0467935 -0.17225485 0.6772557 -0.8123277 0.22602655 0.23702495 -0.2114783
结果 -0.058893405 0.05812132 0.08758758 0.312009 0.6337138 -0.4960903 -0.1506517 0.25770167 0.28164217 -0.5513895 0.16306245 0.22430658 -0.25646836 -0.336936 -0.057324324 -0.121443845 -0.22768387 -0.33541393 0.71124005 0.20146742 -0.1466827 -0.3842634 -0.16258058 -0.14093846 -0.53068167 -0.07010968 -0.022261903 -0.022186108 -0.6367271 0.121694736 -0.24926479 -0.6124022 -0.10181259 0.025094107 0.1522194 0.02760267 -0.36753088 -0.06061271 -0.06376061 -0.09408133 0.3130876 0.114655 0.05510381 -0.14237171 0.13623108 -0.022713881 -0.40244877 -0.39638993 0.3035423 -0.012370003
战胜 -0.11036503 0.6025895 -0.9413355 -0.07258239 0.5018128 -0.08508647 -0.3055974 0.75338143 1.0822916 -0.44162762 -0.19213453 0.08620595 -0.24864647 0.18837692 -0.3729211 -0.06987217 -0.58715314 -0.48933783 0.2102232 -0.20345655 0.003627049 -0.82616085 0.124442376 -0.477523 -0.2794649 0.57610226 0.2309229 0.09439033 -0.2354252 -0.3095925 0.14095244 0.3220726 -0.2747931 0.663913 0.40796068 -0.29818267 -0.3285007 -0.1204453 -0.05977573 -0.5437717 0.109119356 -0.39237854 0.10828483 -0.41179854 -0.44786727 0.31397852 0.019110551 -0.3155053 0.8448183 -1.0830903
00 0.028622253 0.45465535 0.44235617 0.6413248 0.07349216 -0.02129626 0.16387586 -0.084811695 0.89533156 -0.888354 -0.7123184 -0.8373647 -0.051960602 -1.30469 0.46578076 -0.6100268 0.11091462 -0.47695684 0.10265733 -0.20937122 -0.26590103 -0.06705954 0.3585623 -0.09996471 0.19501 -0.14604601 -0.06860644 0.21186265 -0.53480667 0.20228541 -0.0148605285 0.3876003 -1.4458376 -0.5853803 -0.23310024 -0.5583873 -0.43984368 -0.38185987 0.6490211 -0.81143004 -0.20437834 -0.85385656 0.23584391 0.085760154 0.5443007 -0.2753143 -0.79578006 -0.43045256 -0.6777437 -0.23826629
7 -0.27768052 0.46498424 -0.25757104 0.570373 0.5382337 -0.25046 -0.6524009 -0.4530838 0.6131482 -0.7243212 -0.18157573 -0.029946564 -0.18266588 0.0013870492 -0.6503229 -0.17638484 -0.38012958 -0.516496 -0.3482122 -0.1283061 -0.74353987 0.5087584 -0.074915975 0.1484914 0.25234157 -0.23278932 -0.41743904 0.403951 -0.24376379 -0.64506555 -0.09550288 -0.055062007 -0.68424106 -0.041915897 -0.31829605 -0.55755776 -0.042685542 0.2601699 0.8934021 -0.7413359 0.12657818 -0.778406 -0.16444263 0.061501123 -0.30030856 -0.27387354 -0.10356605 0.11492625 -0.14423293 -0.069027305
可能 0.18113805 -0.48889807 -0.14940286 -0.34828034 0.73580885 -0.42240435 -0.4240222 0.06920579 0.18169455 0.0303049 0.27540252 0.37614518 0.28252003 -0.37404385 -0.52939194 0.06722979 -0.16230378 -0.41151288 0.29438397 0.21397766 -0.048904173 -0.1836393 0.20541716 0.2550016 -0.26225862 0.3978654 0.06066371 0.19936384 -0.30926612 -0.19085708 0.004680359 -0.45455432 0.42911786 0.17940485 0.12187784 -0.37091246 -0.1111122 -0.19819276 0.36260226 -0.22167714 -0.09502866 -0.09127411 -0.02322868 -0.37712592 0.32319182 -0.5542913 -0.692614 -0.22967516 0.35369626 -0.2611814
把 0.010983627 0.0059656273 -0.21124592 0.13405138 0.32822543 -0.399952 0.15993458 -0.394954 0.3828825 -0.059754666 -0.0455413 0.0804881 0.3806529 -0.39153638 0.076143876 -0.078118384 -0.28074855 -0.3280603 0.11160012 -0.15546843 0.21036324 0.2701753 0.1119807 -0.26731107 -0.300439 0.015496545 -0.09276937 0.15992662 -0.45416376 0.03988695 0.28584486 -0.186881 -0.17241195 0.22020788 0.4302094 -0.51742274 0.29012993 -0.015100425 0.15495506 -0.3001585 -0.33659536 0.21619257 0.12468421 -0.13799796 0.7481446 0.5994597 -0.53149116 0.0074152667 0.42498815 -0.14769988
次 0.30167773 0.20523615 -0.38371572 0.32504585 0.29072902 0.03257219 -0.911236 -0.61431575 1.5338534 -0.91772527 0.10703367 0.24410304 0.072201826 -0.0040018675 0.009186408 0.4314645 -0.021648739 -0.33807194 0.45892498 -0.5412179 -0.0010500422 0.08214396 -0.43361014 0.6999815 -0.24618363 -0.37029237 -0.29857686 0.33258224 -0.6907758 -0.61163116 0.018021505 -0.31119165 -0.10520126 0.4362587 0.016105982 -0.7781547 0.6113246 -0.28430197 0.7800184 -0.09047732 0.15738158 -0.17002499 -0.04170689 -0.304103 -0.24948277 -1.1410519 0.2090254 -0.08186374 -0.3373594 -0.60790396
得到 -0.24748577 0.32508698 0.091136314 0.45190737 -0.45735037 -0.35078868 -0.2909388 -0.11911804 0.39308456 -0.920613 -0.40688 -0.3635999 -0.23298775 0.015503791 0.48216528 -0.36316687 -0.021706622 -0.56575847 0.51699775 -0.14640217 -0.24116012 0.4072828 -0.018716874 -0.0803573 -0.00019721483 -0.21136485 0.13112985 0.29642487 -0.41336218 0.381257 0.034952734 -0.10295592 0.003985313 0.049863633 0.31453377 -0.5113016 0.43032354 -0.23544052 0.72063595 -0.0062162383 0.054393098 -0.100648105 -0.09912632 -0.2359258 -0.13423869 -0.27028957 -0.32777634 -0.37664872 -0.3786985 0.25758347
场 -0.32376993 0.4324597 -0.43725255 0.43860736 0.18234216 -0.4994709 -0.4524649 0.5959053 0.6805435 -0.8756567 0.57827765 0.09764951 -0.18899785 0.2677458 -0.5174147 0.019159291 -0.11440615 -0.5130636 0.3972918 -0.28328308 -0.6583436 0.3580487 -0.36325738 0.01627298 -0.15801454 -0.24722543 0.08909343 0.73528033 -0.28805137 -0.56267315 0.24625911 -0.30857503 -0.72051036 0.5929244 -0.065186955 -0.37944525 0.21395744 -0.250251 0.243202 -0.5192182 -0.35636607 -0.57475245 0.35877687 -0.15713324 0.21815899 -0.8284973 0.30616853 -0.33761847 -0.1860718 -0.18462603
时候 0.26224872 -0.06395674 -0.13096723 -0.09905703 0.4394468 -0.53332704 -0.16583756 0.35500535 0.30389753 -0.32324678 0.16692077 0.16590165 0.27843398 0.16294628 -0.20742923 0.16323164 -0.23334248 -0.1572028 0.21125722 -0.12421371 0.4373368 0.50965446 0.23511256 -0.3814016 -0.10236733 -0.20373265 -0.27850434 0.30628768 -0.6253933 0.22402942 0.3613437 -0.4448057 -0.036642186 0.18041696 0.000998171 -0.20562217 0.19099195 -0.097109236 0.34742182 -0.44026843 -0.025039699 0.3090956 0.046339236 -0.41487116 0.17150374 0.14052728 -0.5095628 -0.12006003 0.17335981 0.79131305
实力 0.5984536 -0.61591446 -0.14993039 0.45357838 0.23409991 -0.09174871 -0.5525244 0.31086653 0.13013162 -0.15483418 -0.039949235 0.29537883 0.085832015 0.10759889 -0.62381536 -0.378908 -0.29524654 -0.23858856 0.26295963 0.3992717 -0.40005943 -0.49805853 0.054062635 -0.47701466 0.10425916 0.16880448 0.49019745 0.68214536 -0.40500012 -0.18990172 0.06690736 -0.23131074 0.2394267 -0.21234061 0.45583686 -0.47145683 -0.04965851 -0.44128767 0.12646231 -0.12718955 0.014278515 -0.1289209 0.21271384 -0.12891962 0.0069854264 0.238699 -0.45648202 -0.33928868 0.3028432 -0.36986578
图文 -0.90736675 0.29673886 -1.1182753 0.65855676 1.6309276 -0.5762523 0.096671514 0.6780817 -0.5413767 -0.86687243 -0.85874623 -0.5628884 -0.057259567 -0.048508774 1.4443145 0.76729655 -0.5895346 -0.84061086 -1.1825255 0.28899685 -0.8259324 -1.1761492 -0.83941114 -0.48968846 -0.23655435 -0.049049847 -0.81076115 -0.21219862 -1.0336912 -0.5726763 0.36746776 0.0826821 -0.07797228 0.45520607 1.1536776 -0.5385249 -0.4061305 -0.11697715 1.197506 -0.6526132 0.20892152 -0.49990967 -0.117086336 0.3828699 -0.6328914 0.007765621 0.03925334 -0.23416467 -0.64366454 -1.0513055
取得 -0.16933651 0.31158796 -0.4334761 0.14157358 1.0473171 0.030483877 -0.22396421 0.1797185 1.0480491 -0.54124 -0.012341295 0.17709947 -0.19140308 0.032559965 -0.34501886 -0.19017456 -0.50994986 -0.48551115 0.04709016 -0.25417405 -0.32195505 0.14317402 0.17391753 0.0958169 -0.5121917 0.19446428 0.2538117 0.40713847 -0.18434232 0.20467584 0.007866013 -0.14674005 -0.4768676 0.40797427 0.54895484 -0.14899985 -0.2255238 -0.2884213 0.17449924 -0.32209358 0.20556605 0.13190535 0.6186117 0.16729471 -0.6026274 -0.12744026 -0.004604022 -0.80426896 0.02258563 -0.2541448
奥沙利 -0.13039538 0.26556724 -0.71764195 0.108223885 0.76422286 -0.4406395 -0.31096643 0.9829233 0.23704492 -0.3902377 0.19253129 0.3590152 0.0013933028 -0.25138712 -0.25921437 -0.2660771 0.53245324 -1.3410074 -0.13890347 -0.1266453 -0.29791123 -0.6335474 0.6453123 -0.42887464 0.36688694 0.26013872 0.29922506 -0.34248915 -0.114474766 -0.06777214 1.1140792 0.26367235 0.08760047 -1.2789799 -0.0047292365 0.8331997 1.692337 -0.71905863 0.2416647 -1.117564 0.2730316 0.8002856 0.1776856 -1.0181519 -0.27514374 -0.46083334 -0.6413627 -0.59856343 -0.052977335 -0.24081077
出现 0.3585358 -0.10402572 0.4311396 0.2847034 0.552521 0.1325256 -0.101728484 0.15264452 -0.261766 -0.09781208 0.14639921 -0.022691011 0.035164524 -0.09444539 -0.5841628 -0.01545509 -0.15892005 -0.5400592 0.59718823 -0.40961978 0.075045176 0.26553652 0.16998766 -0.31340426 -0.50045377 -0.4581597 -0.21300209 -0.4697601 -0.38173085 0.033619985 0.18349628 0.090997905 0.010913067 -0.12872517 0.42355067 -0.4126536 0.2180316 -0.08743031 0.723744 0.13873161 0.18501064 0.55713314 -0.42631066 -0.22097065 -0.19746725 -0.3338306 -0.3467089 0.25004494 0.56554955 -0.428027
